3087 100
公办 -0.378744 -1.646562 0.569783 -0.900133 0.186229 -0.700801 -0.078465 -0.633787 -0.815751 0.953528 0.557460 -0.044015 0.102577 -0.016765 -0.346623 0.304346 0.315554 0.954137 0.760751 0.631604 1.289905 0.538159 -0.599040 -0.289630 0.497011 -0.562579 0.243469 0.517751 0.304286 0.235701 -0.543203 -1.275789 -0.719759 -0.201276 -0.647972 0.632056 -0.007284 -0.173498 0.538860 1.015493 0.404232 -0.179263 -1.715108 0.426410 0.362456 0.062523 -1.015322 0.180108 1.036453 0.678988 -0.896734 -0.585860 0.474542 -0.022424 -1.177861 -0.369820 0.382131 -0.576247 0.809707 -0.417124 -0.611900 -0.171066 -0.249206 -0.301217 -0.922700 -0.641267 0.524677 -1.447305 1.814182 0.194682 0.541798 -0.481845 -0.419138 -0.395865 -0.258717 -0.006508 -0.191756 -0.458151 0.215609 0.008159 -0.788033 0.311595 -0.050898 -0.129380 1.004999 2.076944 1.282821 1.028759 0.998155 -0.829030 -0.075979 -0.210801 -0.816385 0.965404 -0.857619 0.415414 0.117718 0.771651 -0.230092 0.680881
普通 0.528739 -0.618893 0.259687 -1.588021 -0.242607 -0.316899 0.468891 -0.947609 -0.158254 0.437278 0.698483 0.117116 1.237788 0.962023 -0.517637 -0.003667 -0.187352 -0.265187 0.455797 0.681547 0.704704 1.137017 -0.194910 -0.750158 -0.653862 0.583410 0.105900 0.029138 0.050848 0.032776 -1.500118 0.225930 -0.753130 0.716515 -0.930161 -0.208755 0.602981 -0.995593 -0.884676 -0.139591 0.470720 -0.469098 -1.388561 -0.047966 -0.578278 0.445870 0.049832 -0.891841 1.582397 -1.115030 -0.839416 -1.150237 -0.167694 -0.074762 -0.761734 0.803720 0.719211 -0.387581 1.387959 1.040811 0.021024 0.961015 -0.802473 -1.390335 -0.736046 0.431898 0.454327 -1.026331 2.177117 0.325440 0.089305 0.162747 -1.581454 0.483953 0.077975 -0.084282 0.190109 -0.547139 -0.054200 -0.036233 0.179559 -0.079806 0.242150 -0.460553 1.674514 1.366219 0.966544 0.913849 0.681393 -0.926381 -0.234344 0.562483 -0.625234 0.156595 -1.135259 0.779454 -0.117076 0.769706 0.202538 -0.529947
学校 -0.413792 -1.221388 0.773843 -0.342016 0.639993 -0.024285 0.509677 -0.914403 0.382838 1.419952 0.103941 -0.239718 0.414470 0.695556 0.264393 0.456854 0.757309 -0.648304 0.539842 0.587961 1.153203 0.765210 0.036363 -0.560745 -0.144694 0.365528 -0.125682 -0.217197 -0.432003 0.219528 -0.961962 0.738943 -1.264617 0.310252 -0.610613 0.212646 -0.457713 0.186330 -0.640417 -0.384580 -0.002467 -0.333795 -1.103462 -0.347064 0.040616 0.422902 -0.315593 -0.749008 1.507924 -0.533553 -0.204489 -0.529443 0.263801 0.132377 -0.593782 0.733761 0.691150 0.014135 0.506796 0.657506 -0.260690 1.199330 -0.893318 -1.301633 -0.042167 -0.426076 0.714834 -0.693852 0.640093 0.851718 0.701729 0.101910 -0.762086 0.002019 -0.275864 -0.168092 -0.273791 -0.002293 -0.126925 0.293602 -0.875911 0.488248 0.295607 0.126529 1.571523 1.409643 0.346868 -0.125666 0.555473 -0.522849 0.603894 0.060989 -0.757081 0.250493 -0.508083 -0.112107 -0.549022 -0.142920 0.093526 0.164331
学院 -0.343745 -0.744697 0.492532 -0.421524 -0.249300 -0.289475 0.268340 -0.429867 -0.039702 0.452029 0.461626 1.113270 0.303586 0.925810 -0.281651 0.137658 -0.381052 0.100474 0.152057 0.667930 0.460024 0.075717 -0.754475 -0.050103 -0.108317 0.062305 0.434029 -0.131434 0.799527 0.218595 -0.220659 -0.095114 0.107120 0.726436 0.280232 -0.361953 -0.878298 0.075738 -0.603333 -0.555950 0.418269 0.322943 -0.692768 -0.424862 0.690566 0.038054 0.317491 -0.610730 0.567377 0.029425 -0.164703 0.390275 0.028279 0.400516 -0.773443 0.014103 0.359763 0.163399 0.198273 0.340461 -0.223437 0.394355 0.452758 -0.562986 0.171972 0.239764 0.568688 -0.543991 0.103630 0.266678 0.048854 0.830386 -1.129049 0.951984 0.126789 -0.597562 -0.174721 0.064645 -0.143816 -0.042880 -0.602149 -1.025715 -0.051561 -0.019623 0.459904 0.061803 0.169183 0.101348 0.525643 -0.290129 0.651002 -0.367387 0.169305 -0.175102 -0.065972 0.158729 -0.645842 -0.055295 0.361316 -0.149922
教育部 0.299716 -0.296604 0.725438 -0.787070 0.641742 -0.319338 0.161744 -1.334685 -0.137235 1.672480 0.862032 0.590726 0.861454 0.464837 0.049633 -0.008998 0.786058 0.827872 0.700526 1.754709 0.931270 1.000986 -0.997773 -0.287179 -0.477198 -0.008377 0.685732 -0.931030 0.090069 -0.421070 -0.584944 0.126703 -1.042501 0.988747 -0.929384 -0.432430 0.210801 0.525588 -1.509894 0.725101 0.248919 -0.083580 -1.520253 -0.360487 -0.810436 0.276248 -0.555826 -0.593421 1.088980 0.086848 -0.586341 -0.621536 0.283559 0.594447 -1.277381 0.108091 1.486246 -0.066935 0.897393 0.347513 -0.468550 -0.173250 -0.043433 -1.130195 -1.387988 -0.288821 0.843421 -1.554470 1.854265 0.296573 0.785926 0.827707 -1.806796 0.642556 0.100420 -0.207113 -0.513821 0.253084 0.036385 -0.119728 -0.646365 0.616098 0.487142 0.022946 1.854704 1.567076 0.005915 -0.346053 0.964891 -1.155413 0.300872 0.179723 -0.989233 -0.193489 -1.343426 0.467547 -0.255941 0.672556 0.029801 0.806716
理工类 -0.083574 -1.242322 -0.004301 -0.908222 0.476331 -0.448194 -0.974804 -0.726439 -0.578917 1.422266 0.315591 0.747716 -0.363382 0.905904 -0.107529 1.769611 0.795230 -0.085902 0.278341 1.213781 1.200040 0.344241 -1.360520 -0.562199 1.446321 0.872967 -0.798263 -0.552116 -0.355324 -0.195666 -1.084640 -0.582222 -0.515840 -0.747833 0.119970 -0.669510 -0.927896 0.962611 -0.055883 0.416542 -0.003233 0.897771 -1.781499 0.625789 0.006857 0.183407 -0.313759 -1.004668 0.852562 1.098781 -0.684126 -0.212255 -1.550849 0.021573 -0.702708 0.259107 0.970822 -0.542268 0.617670 -0.100157 -1.351258 0.170050 -0.410752 -1.406149 -0.096289 -0.334459 0.381112 -1.437287 1.050921 0.738837 0.301571 0.528700 -0.541609 0.251149 0.707316 -0.972793 -0.279041 -0.660330 0.140662 0.146596 -0.354034 -0.629798 0.303271 -0.548620 1.563690 1.868138 0.350951 -1.403338 0.158722 -0.823590 -0.634931 -0.398380 -1.022578 1.070556 0.044605 0.005516 0.633233 1.651127 -0.051992 0.268535
批准 -0.148955 -0.965190 0.250741 -0.684124 0.554269 0.073497 0.524015 -1.131581 0.035554 0.813117 0.577214 1.434433 -0.167900 -0.093081 -0.693450 0.689820 0.386128 -0.480910 0.057152 0.892300 0.593043 0.550280 -0.636764 -0.591805 -0.417224 -0.197025 0.837520 0.286324 -0.310290 -0.285591 -0.952297 -0.159787 -0.850109 0.891372 -0.180754 0.220354 -0.634996 0.647056 -1.089999 0.185640 0.647316 -0.763911 -1.480537 -0.724580 -0.580507 0.609343 -0.510913 -0.848455 1.826415 -0.535167 -0.704171 -1.435851 0.369057 -0.097837 -0.759941 0.306972 0.394822 -0.159922 0.553271 0.426194 -0.266062 0.302015 -0.708655 -1.799324 -1.432934 0.185216 0.872744 -1.271627 2.229827 0.625941 -0.020506 0.306354 -1.873839 0.842856 -0.065321 -0.685403 -0.617249 -0.022225 0.258977 -0.114943 -0.067935 0.460498 0.455327 0.506645 1.026497 1.773730 0.336633 0.029836 1.113678 -0.884880 1.120990 0.182495 -1.339656 0.417437 -0.318032 0.867250 -0.812658 0.755815 0.007942 -0.264402
专科 -1.249456 -0.762995 0.506821 -0.390980 0.696039 0.723318 -0.546849 -1.945925 -0.143189 1.337248 -0.037172 1.241130 0.226750 0.407341 -0.099415 0.734434 1.461612 0.576514 0.124507 0.165603 1.403433 0.617757 -0.081602 -0.029579 0.164898 0.655690 0.233889 -0.762324 0.187439 0.231848 -0.659827 0.983339 -1.591492 0.026716 -0.111683 -0.079386 -0.104250 0.265517 -0.807657 0.528558 0.893326 -0.205050 -1.779342 -1.242915 -0.062135 0.222857 0.067437 -0.305216 1.485692 -0.553083 -0.738711 -1.104452 -0.198916 0.555192 -1.050730 0.265840 0.716942 -0.519213 1.070638 0.869876 -0.656020 0.447518 -0.220368 -1.240830 -0.170919 -0.207218 0.029916 -0.946568 1.878879 0.096243 0.747318 0.178463 -1.568467 0.687063 -0.350134 0.038828 0.122225 -1.197748 0.071390 -0.335062 -0.995182 0.281157 0.374878 0.072247 1.512548 1.775208 -0.236685 -0.559556 0.609133 -1.100523 0.943226 -0.367929 -0.281830 0.806446 -0.416336 0.165208 -0.502361 0.465979 -0.163126 -0.085337
高职 0.177209 -0.745973 1.097264 -0.937943 0.879303 0.289957 0.791160 -1.685539 -0.249812 1.311407 -0.681776 0.331859 -0.193865 0.735252 0.059796 -0.424645 0.899166 -0.018903 -0.598566 0.803918 0.535937 0.397776 -0.666665 -0.730987 0.110072 0.300519 -0.388506 -1.029710 0.354999 -0.719134 -0.340756 0.892715 -1.201329 -0.227223 0.466448 -0.208316 -0.630576 0.548230 -0.786543 0.655816 0.250925 0.176364 -1.282597 0.617031 -0.919543 1.048443 0.190676 -0.210984 0.925812 0.264113 -0.188769 -0.841238 -0.184177 -0.645563 -1.073619 -0.322050 0.429910 -0.704569 0.102764 0.655553 -0.488062 0.753621 -0.297288 -1.046478 -0.378009 -0.053779 0.212055 -0.362912 1.855968 0.181497 0.623410 0.127621 -1.285770 0.635075 0.278202 -0.390829 -0.668131 -0.648396 0.023415 -0.175858 -1.673179 0.502360 0.328711 -0.333822 0.993064 1.245771 -0.311486 -0.323371 0.195646 -1.234675 0.213303 -0.140837 -0.521940 0.812378 -0.783270 0.231955 0.141465 0.021667 -0.134279 0.519473
专科（高职） -0.454946 -2.278839 0.900128 -0.943314 1.136905 0.702013 -0.285989 -1.412823 0.360419 1.226551 -0.180332 0.365996 -1.060472 -0.589757 -0.906345 0.332324 0.922672 0.015392 -0.034632 0.400804 -0.013644 1.539693 -0.498155 -0.511021 0.137419 0.433517 -1.835875 -0.680162 0.929642 -1.001415 -0.917523 -0.138997 -1.314469 -0.776343 0.598046 -0.493324 0.029165 -0.066569 -0.379748 0.984603 1.480187 1.098331 -1.648231 0.137287 1.533124 0.068620 -1.364580 0.967809 -0.565693 0.120814 0.385548 0.069865 -0.353976 1.224596 -0.200124 -0.120872 0.515286 -2.305265 0.592110 -1.161032 0.438841 -0.113969 0.310875 -1.682931 -1.128579 -1.853979 -0.695647 -1.897118 1.530205 -0.703875 -0.439801 -2.558502 -0.078336 -0.512244 -0.172412 -0.100790 -1.182283 -0.135897 -0.319583 0.303731 -0.075747 1.018165 0.675983 -0.185864 -0.117064 0.756521 1.428610 0.742781 0.910817 -1.498439 -1.153874 1.508066 0.153590 2.719740 1.323858 1.858550 0.340289 0.988294 -1.204013 1.168788
本科 0.018145 -1.198707 -0.149816 0.047418 0.354977 -0.943577 -0.057504 -0.472775 -0.743461 0.569884 0.955863 -0.639612 1.185349 0.522084 -0.102777 0.416475 -0.404435 -0.040084 0.773327 0.595859 1.235923 -0.131677 -0.103290 -0.095243 -0.787781 0.505434 -0.383087 -0.298629 -0.950135 1.171963 -0.903343 -0.270054 -0.655677 0.443736 -0.474367 0.860649 0.157705 -0.101387 -0.184818 -0.844229 0.013540 -0.239081 -1.392227 0.082400 -0.208177 -0.589016 -0.284671 -0.378930 0.741108 -0.483815 0.261930 -0.992056 0.369856 0.777960 -0.731693 0.634299 0.515976 0.186546 0.475438 1.178728 -0.196964 0.367007 -0.876644 -0.438204 -1.677424 0.829711 0.175875 -0.221558 1.028285 0.557324 0.179134 0.791848 -0.359359 0.294320 -0.374042 1.067843 -0.666625 -0.385879 0.291543 -0.222722 -0.133736 0.743622 -0.170447 -0.024063 1.686788 1.035085 0.343640 -0.159898 0.262059 -0.465348 0.487549 -0.426446 0.258846 -0.201597 -0.105786 -0.163208 -0.399661 0.683647 0.329013 -0.219529
全日制 0.164358 -0.838729 0.443297 -0.673939 0.810842 -0.443071 0.990884 -1.122633 -0.504315 1.764866 0.614615 0.083383 0.012022 0.123272 -0.195388 0.651074 0.063166 0.499532 -0.136806 -0.132299 0.947718 0.461851 -0.055429 -0.307790 -0.969784 0.545320 0.123311 0.338072 -0.007421 -0.308847 -0.540995 0.173714 -0.951924 0.271570 0.621949 -0.010912 0.055489 0.302855 -1.138139 0.261994 0.908831 0.244947 -1.810242 -0.125188 -0.150730 0.378311 -0.648530 -0.185970 1.900342 -0.130636 0.201159 -1.062860 -0.420540 -0.407319 -1.546989 0.315884 0.772507 0.634421 0.987231 0.960610 -0.456690 0.530715 -0.200809 -1.459018 -0.603229 0.454168 1.507430 -0.881668 1.210254 0.374250 0.202652 0.269991 -1.419066 0.865480 -0.216558 -0.220074 -1.072925 -0.563553 -0.461424 -0.619469 -0.427992 0.363526 0.861415 0.085635 1.222832 1.312821 0.326647 -1.083679 0.761722 -0.790269 1.001055 -0.286059 -0.412131 0.418289 -0.483645 0.861926 -0.790327 0.313473 0.725390 -0.141998
院校 -0.405806 -0.633026 0.150388 -0.410777 0.524241 -0.299755 0.517475 -0.820235 -0.339225 1.215717 0.328157 0.508825 0.267600 0.216162 -0.097339 0.393856 0.988609 0.562972 0.515288 0.251195 0.802948 0.487549 -0.279356 -0.878643 -0.458389 0.452968 -0.169306 -0.850798 0.048955 0.234733 -0.462069 0.464626 -0.875781 -0.322144 -0.195949 -0.159878 -0.521480 0.381719 -1.086348 -0.305581 0.077054 0.682127 -1.805654 0.268902 0.003898 0.128931 0.138559 -0.317361 1.429839 -0.434406 -0.654928 -0.293414 0.251565 -0.157306 -0.370709 -0.088077 -0.031265 -0.363988 0.949512 0.546119 -0.490917 1.514996 -0.511741 -0.606705 0.176219 0.114401 -0.605561 -1.013250 1.239934 0.411890 -0.116731 0.732497 -0.311612 1.059830 -0.187181 -0.618336 -0.117001 -0.429258 -0.005880 0.030195 -0.485213 0.646616 0.459316 0.189732 0.452626 0.480830 -0.053549 -0.806825 0.146965 -0.687889 -0.102629 -0.123531 0.199383 0.483690 0.344376 -0.214687 0.038407 0.364852 0.081193 -0.104039
普通本科 0.653570 -1.992720 0.318573 -1.081282 -0.149406 -0.863000 0.129042 -0.556669 0.499557 0.941002 0.646329 -0.158344 -0.426231 -0.220430 -0.217310 0.961817 0.401009 -0.781683 0.737654 1.564818 1.438014 1.713884 -0.373008 -0.063944 -2.109578 -1.095738 -1.717072 -0.248116 0.331712 1.224139 -1.866257 -2.658413 -1.042838 1.039031 -0.952139 0.068793 0.150939 -1.339208 -0.017894 0.478839 0.920823 0.511098 -0.432046 0.168708 0.535980 0.360252 -1.603273 0.095922 -0.842576 1.241027 0.849683 -0.226411 0.463382 0.390651 -0.950812 0.893831 0.573940 0.178635 0.131836 -1.390578 0.085325 -0.773696 1.062757 -2.204285 -0.908415 -1.510762 0.604461 -1.354767 2.301292 0.265765 -0.469740 -1.857181 -0.690577 -1.619351 0.290743 1.259515 -0.176840 0.045944 -0.018476 0.122336 0.902487 1.356522 -0.463594 -0.363388 1.768962 0.837256 0.959737 0.624482 0.437803 -1.981472 -0.665112 1.881823 -0.490888 0.565766 -0.544387 0.664002 0.815564 1.131536 -0.236036 0.305711
国家 0.206903 0.090538 -0.188926 -0.581437 0.422162 -0.075737 0.970925 -0.440474 -0.477224 0.273801 -0.384844 0.140857 -0.052718 0.374718 -0.368329 0.318741 0.915414 0.259045 0.350062 0.410426 0.136823 0.918416 -0.449099 0.408068 -0.130965 0.434771 -0.608301 -0.499031 -0.093920 -0.366146 -0.962830 0.092781 -0.939788 -0.693904 0.122108 -0.123615 -0.444894 0.604510 -0.836791 0.066506 0.479172 0.295688 -1.048815 0.932758 -0.866991 1.119679 0.324118 -0.273169 1.320578 0.007633 -0.438672 -0.906515 0.690124 -0.094235 -1.311500 0.767936 0.855644 -0.059606 0.141425 0.343851 -0.279983 0.683364 -0.824272 -0.905133 -0.765796 -0.003964 -0.207101 -0.552930 1.215999 0.280675 -0.067311 0.582000 -1.515824 0.348920 0.112179 -0.211763 -0.501332 -0.087273 -0.099635 -0.238893 -0.761905 0.784321 0.297551 -0.079777 1.761364 1.035874 -0.161191 -0.349023 0.228101 -1.304869 0.071418 0.434472 -0.387440 0.115642 -0.973313 1.241460 -0.851824 0.573136 -0.209437 -0.075474
人民政府 -0.445336 -0.900179 0.374423 -0.677823 1.085225 -0.009797 0.741790 -0.760993 0.036232 1.158155 -0.089031 0.677486 0.059782 0.530338 -0.417952 0.661729 0.339832 0.374107 0.013701 0.496226 0.728942 0.109808 -0.121061 -0.023478 -0.456678 0.658716 0.490634 0.352334 -0.190165 -0.468493 -0.638199 0.208254 -1.104723 -0.251155 0.329668 -0.310477 -0.242016 0.597306 -1.257555 -0.190210 0.218012 0.428587 -1.604465 -0.112507 -0.435616 0.054958 -0.387915 -0.017751 2.165377 -1.020958 -0.735046 -0.529176 0.282915 -0.463482 -0.775938 0.320419 0.377161 -0.258597 1.099508 0.632840 -0.240296 1.629781 -0.788876 -1.846106 -0.140017 -0.165125 0.795675 -1.349869 1.799265 0.819012 -0.148198 -0.129166 -1.249879 0.735918 0.037468 -0.192374 -0.658552 -0.005599 -0.136332 0.086011 -0.506427 0.294534 0.420751 0.209173 1.307132 1.047260 -0.247323 -0.394412 -0.064364 -0.979667 0.181083 0.252165 -0.408145 0.282444 -0.290737 0.535854 -0.513691 -0.303503 0.539826 0.368599
职业 -0.635836 -0.883884 0.422911 -0.350610 0.193469 0.021838 0.139036 -0.168277 -0.094188 0.097466 -0.490521 0.373661 -0.121840 -0.291883 0.406898 0.385125 0.337438 -0.043696 -1.176347 0.252722 0.701343 0.617413 0.322087 -0.732127 0.795125 1.093537 0.252177 -0.832466 0.266782 -0.960358 0.339921 1.244988 0.043980 0.281615 -0.094394 -0.918768 -0.290384 0.710086 -0.860915 -1.044298 0.290836 0.964046 -0.733094 -0.472989 0.394399 0.259341 0.551220 0.075792 0.379156 -0.626917 -0.386555 0.387064 -0.149080 -0.461336 0.099664 0.078337 -0.052417 -0.727753 -0.086995 0.219688 -0.484880 0.216259 0.416962 -0.829324 0.520682 0.287035 -0.008629 -0.577142 0.571653 0.490548 -0.257089 0.449744 -0.517161 0.566234 -0.357032 -0.854954 -0.104069 0.231846 -1.340586 -0.568548 -0.841201 -0.044522 0.564623 0.315034 -0.211042 -0.217751 0.282564 -0.746664 0.602454 -0.160639 0.002299 -0.242727 0.238387 1.433138 0.843139 0.247858 -0.530259 -0.068731 -0.295598 0.355353
大学 0.273306 -0.345874 -0.143792 -0.659437 0.102692 -0.757256 -0.382800 0.302826 -0.630680 0.236657 0.623094 -0.204076 0.523779 -0.129751 0.477667 0.072265 0.183617 0.609659 0.647211 1.117922 0.062947 0.252461 0.475862 0.313714 -1.320567 0.043841 -1.016675 -0.085560 -0.751045 0.339467 -0.818696 0.107725 -0.114448 0.063781 -0.172384 -0.538407 0.975519 -0.313585 0.250897 -0.248913 0.200524 -0.284139 -0.438004 0.885832 -0.690051 -0.184275 0.290955 -0.305212 0.408783 0.324525 0.245150 -0.164432 0.032449 0.231020 -0.246755 0.039806 1.205354 0.297240 0.886189 0.701108 -0.136617 0.021744 -0.308081 -0.233601 -0.780908 0.202519 0.662606 -0.512178 -0.000715 -0.357635 0.056674 0.995868 0.198891 0.128336 -0.929329 1.182037 -0.039858 0.309720 -0.340551 -0.273946 0.505866 0.025150 -0.768141 -0.237551 1.561459 0.568441 -0.072681 -0.064717 0.506072 -0.651985 -0.104895 0.814253 0.016894 -0.551259 -1.182216 -0.282168 -0.314152 0.334524 0.029841 0.259062
办学 0.205994 -0.876041 0.352025 -1.132111 0.186191 -0.417695 -0.061791 -1.353555 0.325086 0.748236 1.175977 0.021009 0.227273 0.165946 -0.685227 0.172784 0.053089 -0.128246 0.180868 0.751962 0.796794 0.279841 -0.378142 -0.006076 -0.681050 1.059813 -0.092825 -0.391356 -0.001666 -0.401927 -0.216248 -0.039539 -0.541339 0.316119 -0.786697 -0.196658 0.506746 0.168169 -0.347718 -0.378925 0.653569 -0.139716 -1.385544 0.585876 0.047703 0.385681 0.178027 -0.685657 1.179321 -0.348001 -0.252597 -0.700963 -0.497281 0.553510 -0.746364 0.722074 0.738319 0.493048 0.194208 0.878563 -0.613731 0.682562 -0.189956 -1.149204 -0.897379 -0.074186 0.507826 -0.851939 1.146999 0.001531 -0.269279 0.324108 -0.374431 0.541260 0.280948 0.554228 -0.733255 -0.291634 -0.144845 0.204865 0.071704 -0.170157 0.664805 -0.113861 1.656323 1.181075 0.377617 -0.307186 0.558108 -1.077278 0.143286 0.104460 -0.260164 0.424245 -0.317058 0.262287 -0.735706 0.343081 0.400775 0.209075
技术 -0.972907 -1.391968 0.439408 0.248351 -0.215739 0.260251 -0.099128 0.175462 0.139886 0.603836 -0.387647 0.474476 0.299690 -0.014041 0.861086 0.830921 0.811481 0.280423 -0.385917 0.002445 0.860575 -0.311774 0.003812 0.161789 0.615952 0.621412 -0.163549 -1.006178 0.299727 -0.029412 -0.263179 0.357092 -0.505136 -0.472011 0.058079 -0.504459 -0.399850 0.585386 -0.434499 -0.401605 0.396644 0.969087 -0.873921 0.053457 -0.526216 0.162394 -0.018879 -0.076957 1.500339 -0.422945 -0.669990 -0.182739 0.593846 -0.046119 0.210740 -0.151588 -0.960284 -0.136366 -0.020644 0.441859 -0.797450 0.672011 0.232927 -0.968050 0.555408 -0.539129 -0.843725 -0.344745 0.480912 0.365222 -0.088802 1.235933 -1.030759 1.201906 0.195702 -0.155713 0.410590 -0.535595 -0.046671 -0.159612 -0.715518 -0.716148 0.067417 -0.126739 0.191130 -0.078290 0.184743 -0.508168 0.314921 -0.265366 -0.059190 -0.682784 0.255209 1.032199 0.139669 0.515654 -0.943903 -0.142304 0.147494 0.064971
综合 0.000628 -0.465863 0.821951 -1.064053 0.363399 -0.960533 -0.265858 -0.405306 0.011775 0.603912 0.797633 0.542472 1.055767 0.204327 -0.433425 0.484273 0.508721 -0.266806 0.238273 0.561517 0.702042 -0.002164 0.006211 -0.206342 -0.432458 0.309603 0.164152 0.012355 0.488422 -0.072050 -0.723641 0.529807 -1.092531 0.231660 -0.528701 -0.186530 -0.138102 0.243375 -1.737432 0.361902 0.246753 -0.667886 -1.680024 -0.323616 -0.359879 -0.065042 0.197658 -0.866832 1.453873 -0.433492 -0.468948 -1.418910 0.330155 0.153551 -1.007416 0.276170 0.786854 0.308213 0.659464 1.071929 0.026064 0.656780 -1.316806 -1.589075 -1.332368 0.643477 0.020062 -0.821086 1.168903 0.633835 0.165320 0.596086 -0.891518 1.033082 -0.327771 0.716220 0.222253 -0.063361 0.044710 0.251238 0.540877 -0.577221 0.315828 0.009170 1.467187 1.425595 0.664438 -0.566484 0.715026 -0.516234 0.551562 -0.046986 -0.770158 0.300587 -0.312097 0.321379 -0.576968 0.276295 0.237714 -0.166239
建设 0.302038 -0.856486 -0.474645 -0.051359 0.587776 -0.687589 -0.233269 -0.219619 -0.635637 0.288511 0.111697 -0.289240 1.358379 0.226838 0.770502 0.063313 0.574634 0.438438 0.791183 1.132832 0.475243 0.725884 -0.199496 -0.288141 -0.360981 0.221166 0.211124 -0.408678 -0.819917 -0.012088 -1.071807 0.142731 -0.868215 -0.162493 -0.370177 -0.466007 0.208393 0.125691 -0.631773 -0.375501 -1.101419 0.384991 -1.658914 0.650351 -1.036881 -0.672452 0.062686 0.089044 1.189229 -0.146849 -0.792033 -0.259145 0.206873 -0.098917 -0.212967 0.334654 0.662521 -0.612900 0.957588 -0.305715 -0.629821 0.894251 -1.392421 -0.339900 -0.453616 -0.085797 0.093232 -1.067286 0.581630 0.205222 0.548808 0.662890 -0.069595 1.054946 -0.509146 -0.150436 -0.590377 -0.377192 0.586403 0.009682 -0.197048 0.434726 -0.052136 0.129368 0.980786 1.311110 0.146641 -0.290515 0.230280 -0.368813 -0.126127 0.136184 -0.287455 0.051324 -0.592606 0.088409 0.297375 0.830000 -0.395356 0.070881
教育厅 -0.001610 -0.391977 -0.249248 -0.762941 0.553053 -0.371371 0.479875 -1.902527 -0.190465 1.410190 0.896995 1.089153 0.221053 0.369760 -1.065116 0.431675 0.933911 0.249298 -1.000001 0.955120 1.069852 0.323026 -0.647720 -0.196924 -0.484675 0.887626 -0.324723 -0.195456 -0.040060 -0.672556 -0.534098 -0.368209 -0.269527 0.697162 -0.540128 0.047583 -0.061311 0.447502 -1.211551 0.529183 0.493886 0.087750 -1.530660 -0.723666 -0.548820 -0.046203 -0.111123 -1.199002 1.297027 -0.284567 0.455060 -1.331354 -0.353227 0.067248 -1.141803 0.633516 0.298269 0.305866 0.723478 0.433317 -0.605175 0.506368 -0.041546 -1.487598 -1.209164 -0.426540 -0.077459 -1.254668 1.997240 -0.229242 -0.449616 0.629801 -1.098553 1.598605 0.318464 0.159603 0.189386 0.127828 -0.119213 -0.468429 0.015342 0.550848 0.372194 0.068885 0.815078 0.923704 -0.319567 -1.258909 0.778990 -1.430518 0.425625 -0.079246 -0.610506 0.542424 0.206790 0.819395 -0.230139 0.328428 -0.000959 -0.061796
高校 0.853487 -0.399454 -0.041738 -0.645774 0.342825 -1.120303 0.391670 -0.115270 -0.268030 0.512050 1.223969 -0.709734 1.307399 0.986875 0.735686 1.022410 0.098933 0.669150 0.938835 0.558552 0.967367 0.152814 -0.026309 -0.182159 -0.966681 0.042576 0.126246 0.121141 -1.128994 -0.290008 -1.301743 -0.458551 -0.574112 0.439201 -0.582668 -0.108612 -0.179673 0.304427 -0.492605 -0.422621 0.418493 -0.708001 -0.978380 0.157790 0.103996 -0.406371 -0.058245 -0.737604 0.996871 0.093600 -0.105222 -0.693662 -0.364405 -0.113154 -0.621226 0.477230 1.106935 -0.328195 0.662459 -0.103426 -0.069189 0.117721 -0.530168 -0.787345 -0.731256 0.223516 0.147909 -0.251650 0.978346 0.501887 -0.105948 0.443515 -0.013241 0.377478 0.289229 0.249871 0.379780 -0.574606 0.604167 0.838029 0.200298 0.347996 0.680203 0.522718 1.284796 1.116159 0.380336 -0.630426 0.012035 -0.705699 -0.558006 0.029709 -0.209255 0.254011 -0.687484 0.145016 -0.565369 0.513257 0.242720 -0.399226
综合类 -0.074072 -0.669656 -0.992319 0.001258 1.570411 -1.197286 0.038762 -0.575161 -0.051869 1.066854 1.639326 0.988567 -0.648268 -0.052252 -0.472085 1.778852 1.364675 0.525266 0.224743 1.127940 1.421669 0.006922 -0.783288 -0.385836 0.218353 -0.622508 -0.342477 0.545641 0.203093 -0.463399 -0.516911 -1.042966 -0.332347 0.188013 -1.468743 0.806394 -0.167635 0.204824 0.309898 1.211863 0.293576 -0.821485 -0.395762 -0.226203 0.580292 -0.090156 -0.700215 -0.480434 1.205111 0.943834 -0.184782 -0.940946 -0.410388 0.641312 -0.589966 -0.250159 0.322985 0.013756 -0.221898 -0.198229 -0.194486 -1.233673 0.378763 -0.453615 -1.345333 -0.790978 -0.371465 -0.592334 1.266131 0.802822 -0.466193 -0.417261 -0.116643 0.263827 0.177535 0.113553 -0.563733 0.092956 -0.147226 0.814639 -0.167600 -0.260023 0.306651 -1.236847 1.167068 1.859943 1.398008 0.248154 0.716252 -0.519763 -0.706933 -0.221966 -1.127859 1.092267 0.541475 0.581592 0.308972 0.360921 -1.536155 0.674792
全国 0.119821 -1.103586 -0.333663 0.106979 0.490264 0.351196 0.558150 -0.264394 -0.303819 0.872276 0.513707 0.998043 0.487253 0.502157 0.298753 0.212703 0.388572 0.693376 0.178446 0.681544 0.923267 0.486934 0.005882 -0.614734 -0.322430 -0.414461 0.139562 -0.233163 -0.337934 -0.332144 0.213765 -0.037201 -0.688496 0.022277 -0.803689 -0.524991 -0.803963 0.057947 -0.665461 0.169638 -0.328200 0.684234 -1.080030 0.103548 -0.095900 -0.081112 0.165213 -0.939976 1.705561 -0.224126 -0.222210 -0.789082 -0.046371 -1.294943 -0.852857 0.718488 0.050155 -0.326381 0.216249 0.570311 -0.509942 1.271648 0.440922 -0.788989 -0.143848 -0.400664 -0.113062 -0.492457 1.546429 0.231921 -0.701251 0.417122 -0.258213 1.479495 0.230910 -0.685859 -0.005815 -0.400207 0.454629 0.209050 -0.343566 0.026084 -0.054602 0.479340 1.065571 1.629311 0.407336 -0.478201 -0.218125 -0.568488 -0.762069 0.642747 -0.348091 0.505432 0.047926 0.455259 -1.082724 0.412116 -0.257103 -0.073379
教育 0.722702 -0.731937 -0.070188 -0.969110 0.312435 -0.306476 -0.238519 -0.832202 0.317849 0.349153 0.947259 0.355335 0.013619 -0.109795 -0.332107 0.321739 0.533181 0.228762 -0.204008 0.526382 0.305331 0.504241 -0.453652 0.207608 -1.055951 0.383597 0.080983 -0.258318 -0.596226 -0.187015 0.042616 0.127463 -0.853202 1.040621 -0.357065 0.371615 0.095093 0.060741 -1.205553 -0.233900 0.549248 -0.715533 -0.721479 -0.088042 -0.687919 -0.252414 -0.209539 -0.676988 0.849259 -0.538235 0.062505 -0.920676 0.169798 0.072279 -0.858191 0.375047 0.383184 0.567205 0.136474 0.439762 -0.282091 -0.029591 -0.734380 -0.869974 -0.811746 -0.325982 -0.239095 -0.748484 1.491215 -0.528194 -0.246608 0.769259 -0.737682 0.913669 -0.406986 -0.113882 0.024258 -0.617935 -0.237912 -0.345310 0.204801 -0.330083 0.782188 0.300234 0.792457 0.789383 -0.107033 -0.173608 0.069231 -0.359477 0.580333 0.280674 -0.486797 0.422523 -0.443274 0.091131 -0.381079 0.691221 -0.229807 -0.124267
民办 0.958379 0.031576 -1.168837 -0.990599 -0.364604 0.237474 0.516189 -1.203102 -0.236555 0.976985 0.869952 0.641018 -1.954799 -1.319240 -0.320816 0.269256 0.316530 -0.257157 0.776717 -0.088136 1.270701 0.605233 -0.467957 0.394478 -0.550163 0.044498 0.013706 0.772728 -0.903803 0.454612 0.435099 -1.575865 -0.045031 0.207312 -0.886639 0.235800 0.510275 -0.280277 0.487846 1.115181 0.187670 0.100382 -1.018818 0.364915 -0.036392 -0.811365 -1.617636 -0.529881 0.072917 0.424082 0.782832 0.004710 -0.730375 0.475218 -1.026553 0.425417 0.860557 1.258553 -0.052817 0.169319 -0.097569 -0.064696 -0.021785 -0.178304 -1.271049 -1.247382 0.273279 0.097293 1.930912 -0.161345 -0.518081 -0.520235 -1.151772 -0.476884 0.920508 -0.019653 0.354016 0.012588 -0.498054 -0.634346 0.417464 0.804672 -0.188604 -0.564546 1.095270 0.914848 0.500173 0.207996 0.169792 -0.570462 -0.166503 -0.400200 -0.049820 1.249586 0.471813 0.580715 0.297740 0.513242 -0.115290 1.176484
培养 -0.897548 -1.413895 0.502404 -0.719741 -0.204942 -0.089942 0.084094 -0.824742 0.151202 -0.256147 0.574108 0.656345 0.737614 1.207852 0.028208 -0.624211 -0.290278 -0.317731 -0.891382 1.069969 0.749797 1.140990 -0.099225 0.008527 0.055404 0.616460 0.392195 -0.441976 -0.615323 -0.790835 -0.227677 0.181093 -0.586078 -0.598262 -0.538564 -0.612691 0.143089 0.601447 -0.044265 -0.500518 -0.500814 0.315511 -1.844047 0.218208 -1.563696 0.004511 -0.199373 -0.415427 0.928304 -0.592468 -1.702539 -0.001906 -0.064555 -0.243489 -0.198874 0.574193 1.147657 -1.846398 0.288290 -0.086281 -0.229953 0.657798 -0.708684 -0.736676 -0.347159 -0.263247 -0.156335 -0.641223 0.526703 0.287297 -0.260216 1.001851 -1.347133 0.859876 -0.443957 0.112208 -0.493123 -0.527229 0.188503 0.262723 -0.033687 -0.016055 0.003266 0.147212 1.309148 0.996476 0.990288 0.397915 1.062182 -0.663056 -0.340048 0.372935 -0.250741 0.646123 -0.130403 0.790927 -0.560678 0.076098 0.128361 -0.772613
前身 -0.376444 -0.413480 0.493620 -1.074321 1.116033 -0.325770 0.200960 -0.755443 -0.887082 1.818709 0.598997 -0.076570 0.735422 0.800460 -0.477073 0.555149 -0.061102 0.346855 0.497479 1.329702 1.051868 1.103098 -0.936135 0.122287 -0.499297 1.062413 0.187594 0.003173 -0.072663 0.006114 -1.092299 0.500237 -1.150355 0.468811 0.419268 -0.583828 -0.445562 0.544652 -0.480044 -0.701631 0.956667 -0.663386 -1.105164 -0.820054 0.321902 -0.288990 0.161903 -0.281431 1.691166 -0.553213 -0.104440 -0.862301 -0.471065 0.068604 -1.631642 0.595954 0.065598 -0.305635 0.595164 0.457714 -0.406927 0.954626 -0.874542 -1.359237 -0.467006 0.306621 0.898836 -0.926116 1.370632 0.133742 1.298305 0.137505 -1.254454 0.470084 -1.071951 0.150258 -0.071540 -0.320210 -0.146929 0.457092 -0.580559 0.735869 -0.008474 -0.190514 1.352384 1.084636 0.594237 -0.846176 0.008852 -1.020513 0.944049 0.594797 -0.880984 0.072581 -1.270984 -0.050903 -0.028078 0.583423 -0.155970 0.723948
成立 -0.591047 -0.864892 0.686228 -0.488410 0.517393 -0.044237 0.993696 -0.850125 -0.136972 0.770155 0.462504 0.566050 0.291170 0.724380 -0.543545 0.162089 0.063491 0.465703 -0.022939 1.376141 0.264681 0.318087 -0.807530 0.024208 -0.329105 0.139310 0.076641 -0.056785 -0.226874 0.079880 -0.359269 0.042693 -0.840835 0.090589 0.137859 -0.058337 -0.440555 1.024795 -0.741010 -0.246280 0.629696 -0.298181 -1.142524 -0.012805 -0.466938 0.377747 0.273069 -0.227723 1.673495 0.301083 -0.394172 -0.542683 0.325676 0.175449 -0.527614 0.007891 0.738112 -0.075333 0.974337 0.536476 -0.469008 0.628962 -0.522162 -1.259660 -0.649283 -0.208033 0.458933 -0.756671 0.940316 0.527119 0.737523 0.506877 -1.171993 0.889847 -0.536365 0.046740 -0.604348 -0.612074 -1.010758 0.126172 -0.496135 0.235058 -0.133093 -0.052115 1.360252 0.926961 -0.011723 0.072639 0.335441 -0.857983 0.380583 0.262177 -0.238422 -0.104668 -0.267133 0.404148 -0.981905 0.114752 0.619847 -0.183851
中国 0.129543 -0.359374 -0.280070 0.175480 0.392811 -0.026369 0.101271 -0.289468 0.291367 0.454944 0.094279 0.422210 0.831858 0.909984 -0.307757 -0.433905 0.580793 -0.473988 0.002167 1.043395 0.574646 1.229252 -0.049717 -0.305840 -0.216187 0.220181 -0.100569 -0.866446 0.100009 -0.457105 -0.652289 -0.073502 -0.693811 0.131714 -0.405966 -0.767361 -0.810846 -0.338199 -0.416453 -0.535439 -0.011934 -0.346945 -0.284714 0.007150 -0.199995 0.362094 0.573823 -1.289061 0.874444 -0.348555 -0.117900 -0.103737 0.010936 0.116781 -0.978569 0.573170 1.126656 0.461302 0.250410 -0.149031 -0.414160 0.648214 -0.873707 -0.861696 -1.069076 -0.368548 0.649360 -0.204166 0.564056 0.256011 0.836298 0.451605 -1.481276 0.562229 -0.035702 0.124199 0.434383 0.227662 0.383692 -0.385543 -0.172797 0.491210 -0.560024 -0.213494 1.533229 0.926066 0.085437 -1.037426 -0.050858 -0.758265 0.390710 0.108085 -0.728477 -0.392937 -0.885780 -0.257407 -0.419663 -0.210190 -0.122737 0.173366
职业学院 -0.538296 0.345353 0.492225 0.849241 0.067219 0.926261 0.896189 -1.257183 0.904568 1.006046 -0.183353 -0.652740 0.509366 -0.137358 0.007070 -0.246607 0.267400 -0.812938 -1.270595 -1.074463 0.802619 0.426673 -0.662103 -0.284573 -0.094493 0.331281 -0.052934 -0.242747 0.226607 0.071404 -0.495695 0.643696 -0.551718 0.117944 0.547653 -0.520610 -0.704199 0.807290 -0.516639 0.352466 0.207849 0.638397 0.211820 0.481960 0.406825 -0.428390 0.058783 0.602088 0.545358 -0.289104 0.333757 0.235477 0.223027 -0.508782 -0.174331 0.160149 -0.557091 -0.048281 -0.947869 0.139166 -0.541610 0.533783 -0.049721 -0.882824 0.222266 -1.397962 -0.631100 0.325186 0.611492 -0.139232 -0.700358 0.303793 -0.694638 0.110190 0.075235 -0.257778 0.796067 -0.346494 0.395205 -0.955584 -0.758734 0.585432 0.503828 0.285719 0.214394 -1.085225 -0.145443 -0.684531 -0.819727 -0.309678 -0.087863 -0.400084 0.119342 1.072037 -0.383483 -0.057338 0.189235 0.342005 0.481979 0.314553
备案 -0.597120 -0.151678 0.320580 0.159125 0.053503 0.747111 -0.366055 -1.108162 -0.130094 1.171676 0.161499 0.583224 0.045433 0.351584 -0.194728 -0.125572 0.841026 0.052362 -1.259575 0.339551 0.963183 1.133513 -0.484510 0.320239 -0.112964 0.522001 0.252837 0.064335 0.274109 -0.354648 -0.280129 0.487526 -0.286412 0.364987 -0.470941 -0.461690 -0.338478 0.354916 -1.257255 -0.149360 0.100436 -0.276956 -1.244430 -0.508042 0.604424 -0.267383 -0.165684 -0.914106 1.393502 -0.600210 -0.535767 -1.158810 0.221771 0.416344 -0.235050 0.458145 0.839030 0.554374 0.847234 0.154273 -0.380997 0.564685 0.227888 -1.901221 -0.041478 -0.876668 0.282389 -1.027740 1.394736 0.220826 -0.036137 0.234250 -1.681038 0.544730 0.238628 -0.887048 -0.111225 0.171625 -0.560860 -0.494071 -0.946091 0.081009 0.963381 0.132315 0.964896 0.781449 -0.542105 -0.649988 0.794207 -0.712742 0.838394 -0.402920 0.036950 0.741591 0.028708 0.877544 -0.136843 0.843135 -0.028907 0.143334
人才 -0.068441 -1.059749 0.684949 -1.191212 0.502046 -0.479510 0.305867 -0.856039 -0.014800 -0.340507 0.534595 1.083686 0.121655 0.015869 -0.362774 -0.417053 0.325226 -0.270087 -0.085656 1.136273 0.541639 1.374058 -0.320753 -0.096730 0.655660 0.745757 0.453656 -0.239664 0.078866 -0.575219 -0.416321 1.270860 -0.890462 -0.430207 -0.240932 -1.163431 -1.290683 0.700335 -0.507186 -0.127468 -0.465859 -0.431338 -1.348321 -0.031203 -0.975678 0.064676 -0.347002 -0.348556 1.603841 0.111899 -0.833844 -0.161384 -0.821754 0.126702 -0.158667 0.904466 0.459389 -1.159468 0.901313 0.405964 -1.108360 0.473377 -1.454879 0.270257 -1.124004 0.369431 -0.281433 0.142142 1.329075 0.364238 0.948653 -0.190779 -1.510503 0.762544 0.156498 0.524586 0.298935 -0.677911 0.234568 -0.344477 -0.626666 0.079087 0.578779 -0.090539 0.786712 2.204751 0.661739 0.289594 0.005911 -0.472935 -0.401107 0.518680 -0.929332 0.433881 0.805470 0.943729 -1.004191 -0.171989 0.085663 -0.474008
坐落 0.327321 -0.725721 -0.233266 -0.871861 0.396278 -0.782919 0.344202 -0.754754 -0.878926 1.265478 -0.016983 -0.254058 1.005281 1.015677 0.145289 0.641561 1.004337 0.146601 0.832410 0.159642 1.850724 0.037206 -0.288050 -0.222586 -0.721120 -0.155302 0.252919 -0.422272 0.472632 -0.103096 -1.249518 -0.186576 -0.819001 0.672250 -0.283100 -0.048634 -0.224108 -0.235518 -0.565228 -0.575218 0.326971 0.415795 -1.723752 -0.573383 -0.019893 0.640618 -0.045232 -0.052220 1.282896 0.236134 -0.261020 -1.308008 0.083670 -0.184318 -1.872392 0.073204 1.146695 0.020735 0.066136 0.909163 -0.219534 0.816644 -0.464389 -1.365306 -0.816532 0.544465 0.601827 -0.648929 2.038025 -0.145234 0.449433 0.042820 -1.828339 1.036436 1.148007 -0.323959 0.314939 -0.421523 0.602740 0.419037 0.012093 0.651073 0.063472 -0.610955 1.818738 0.762130 0.861329 -0.856747 0.916460 -0.308362 -0.146957 0.016992 -0.866490 0.448247 -1.085200 0.576290 -0.689054 0.224736 -0.392377 0.094927
历史 -0.111562 -1.256031 0.206165 -0.311777 0.971157 0.632911 0.663828 -0.420175 -0.537324 1.349717 0.091603 -0.342352 1.238073 0.170814 -0.164301 0.089810 0.825521 -0.154369 0.725414 0.093734 0.785938 0.466373 -0.153885 -0.634924 -0.264001 0.953181 0.043082 -0.793885 0.283727 -0.425452 -0.670703 0.373526 -1.243325 0.047997 0.351384 0.082289 -0.515905 -1.232321 0.364417 -0.499651 0.784099 0.335492 -0.554705 -0.121615 0.564586 0.837513 0.840424 0.084468 1.290759 -0.418426 -0.034735 -0.809750 0.035648 -0.375521 -1.572936 0.960830 0.536083 0.389849 -0.347359 0.988038 -0.362884 0.745914 -1.005374 -0.999026 -0.499664 -0.524845 0.722797 0.272318 0.985101 -0.282920 0.807569 0.273620 -1.176782 0.414736 -0.222469 -0.272223 0.481249 -1.266233 0.818670 -0.071389 -0.479520 0.645017 -0.216418 -0.213022 1.693081 2.035631 1.206461 0.371435 -0.254759 -0.465367 0.529245 -0.423099 -0.608484 0.676544 -1.184872 -0.257012 -0.979000 -0.201448 -0.207967 0.137779
单位 0.533378 -0.582247 -0.562285 -0.368875 0.414702 -0.630167 0.135172 0.087175 -0.252184 0.092609 0.325961 -0.404424 1.199448 1.011623 0.422299 -0.095271 -0.119657 0.059681 0.416328 0.039011 0.633371 0.605446 -0.351391 -0.962680 -0.428074 -0.117054 -0.318470 -0.669372 -0.773424 -0.747390 -0.339971 0.240437 -0.144045 0.234484 -0.888418 0.110358 -0.745007 0.682845 -1.005530 -0.249519 -0.865209 0.475349 -1.461552 0.961027 0.356130 -0.247552 0.320505 -0.488210 0.785805 -0.148829 0.135123 -0.718423 -0.442662 -0.812360 -0.647343 0.197743 -0.119214 -0.696016 0.112956 0.198102 -0.212521 1.149101 -1.436392 -0.199578 -1.049108 -0.334742 0.278817 -0.965425 0.901899 0.798345 -0.526121 0.851523 0.181526 1.608821 -0.064866 -0.793163 -0.389522 -0.425216 0.916321 0.381514 0.192000 0.080840 -0.519038 0.298300 0.370628 0.317644 0.661548 -0.846369 -0.447233 -0.192299 -0.659071 0.470096 -0.067999 0.649735 -0.176058 0.246362 0.278023 -0.265287 -0.395452 -0.391535
占地 0.169709 -0.475867 0.584886 -0.465886 -0.168716 0.335505 -0.482596 -1.635096 -0.201247 1.399189 0.781275 0.152001 0.447154 0.680839 0.356541 -0.368419 0.138194 0.257504 -0.142613 -0.625093 2.105506 1.284300 -1.335288 0.145561 -1.020416 0.646525 -0.488850 -0.349160 -0.147022 0.614888 -0.374551 0.160773 -0.996025 1.177390 0.222825 0.593554 0.284266 -0.721119 -0.691535 0.325742 0.710550 -0.871780 -1.477632 1.041000 -0.627395 0.906617 -1.016797 -0.883933 1.178645 -0.420758 -0.183338 -0.641391 0.631404 0.449676 -1.042402 -0.376051 0.317638 0.939190 0.115347 -0.129488 -0.573721 0.263242 -0.107785 -0.761282 0.086194 0.175275 0.329840 -1.025216 1.951545 -0.536215 0.090429 0.722142 -1.453386 1.115586 0.320897 -0.825462 -0.580455 -1.189427 0.372059 -0.291880 -1.343276 -0.597671 0.388960 0.096897 0.989435 0.722692 0.203339 0.662259 1.299822 -0.599163 -0.198672 -0.412543 -0.568233 1.150368 -0.907767 -0.010131 -0.220819 1.113239 0.122172 0.082466
特色 0.677226 -0.725655 0.230032 -1.124115 0.322041 -0.970289 0.177047 -0.597192 -0.694989 0.618218 0.554389 -0.128908 0.454189 0.113640 -0.532842 0.408612 -0.360082 0.238387 0.400325 0.605760 0.946492 0.664914 0.018665 -0.465543 -0.206836 1.033340 -0.243267 0.185274 -0.629924 -0.337949 -0.457059 0.629964 -0.455514 -0.553867 -0.073540 -1.138892 0.348825 -0.508905 -0.739777 -0.142959 -0.012173 -0.181629 -1.701122 0.556633 -0.059074 0.224229 -0.159162 -0.255014 1.676846 -0.017101 -0.141307 -0.507624 -0.738965 -0.362513 -0.190719 -0.075341 1.165209 -0.674761 0.331096 1.093876 -0.221770 0.496883 -0.754767 -0.803976 -1.377621 0.485039 -0.335380 -0.503412 0.846994 0.929866 0.111256 0.302217 -0.482474 0.554592 -0.031316 0.061407 0.079863 -0.550344 -0.087052 0.350905 0.132788 -0.028742 -0.481973 -0.401021 0.856248 0.384937 0.467011 -0.397773 0.188530 -0.965626 -0.758282 0.485852 0.377515 0.425789 0.592507 0.780543 -0.084302 -0.011100 0.164890 0.157177
发展 0.646928 -0.351587 0.237487 -1.304454 -0.229900 -0.679587 0.113038 -1.021428 0.172115 0.180279 0.262532 -0.248065 -0.369363 0.021399 -0.376108 -0.160378 -0.223712 -0.425100 -0.190346 1.185536 0.497348 0.838486 -0.025747 0.206582 -0.228669 0.850614 0.212933 -0.372917 -0.966735 -0.554354 -0.313622 0.581102 -0.818530 0.246599 0.221420 -0.346042 0.357188 0.612235 -0.714036 -0.687725 0.005215 0.073487 -0.796651 0.133930 -0.812175 0.299875 0.230314 -0.383450 0.771766 0.193632 -0.385950 -0.182078 -0.228579 -0.410585 -0.670626 0.606355 0.791577 -0.338138 -0.076244 0.468222 -0.522859 0.637804 -0.394267 -0.752768 -0.397557 0.002433 0.613112 -0.016919 1.314230 -0.124644 0.152655 0.466124 -0.824114 0.643929 0.400030 -0.009303 -0.165243 -0.743313 0.011170 -0.191733 -0.042067 -0.103005 0.935648 -0.023978 1.208497 0.767764 -0.031493 -0.588559 0.540891 -0.610900 0.446028 1.083293 -0.296741 0.095437 -0.604747 0.496036 -0.488725 0.385728 -0.292286 0.115718
面积 -0.895958 -0.436389 0.345974 0.640415 -0.235181 0.369537 -0.210414 -1.585990 0.239720 1.618499 0.164476 0.174222 0.041605 0.840033 0.573043 -0.006301 0.973682 -0.151187 -0.875609 -1.097584 1.628397 1.027536 -1.079665 -0.518374 -0.563614 0.565671 0.235218 -0.301375 -0.697655 1.584693 -0.583426 0.549096 -0.551013 1.603322 -0.321768 1.388370 -0.123403 -0.724236 -0.348944 0.104349 0.738951 -0.815635 -0.038670 0.540788 0.698593 0.257898 -0.127543 0.082473 1.280721 -0.282570 0.928972 0.187720 0.230090 0.185278 -0.317381 0.158612 0.062753 1.275040 0.356784 0.648337 0.597849 -0.029763 0.285878 -0.474890 0.499140 -1.015365 0.859549 -0.933402 0.744860 0.053917 -0.208552 0.585254 -0.459487 0.950556 0.331772 -1.378345 -0.676743 0.235893 -0.832365 0.058702 -1.433922 -0.433456 -0.374826 0.249342 0.641184 -0.270828 0.234364 1.272462 0.220447 0.316552 0.132883 -1.328012 0.233563 1.133820 -1.514192 -0.796987 -0.019185 0.551029 0.217968 -0.188148
创办 0.011388 -0.545373 0.260056 -0.820615 0.510087 -0.402794 1.055803 -0.423353 0.377263 1.182174 0.824059 0.385931 0.157756 0.728202 -0.842419 0.371959 0.666433 0.160186 0.318777 0.786549 0.197053 0.769513 -0.468069 0.007058 0.063297 0.565203 -0.258835 0.102904 0.052536 0.096188 -0.898196 -0.472422 -0.824413 0.629145 0.135382 -0.128596 -0.178910 0.232290 -0.324583 -0.097017 0.713170 -0.204761 -1.186701 -0.671417 0.187249 -0.429652 -0.240100 -0.465906 0.952443 -0.137695 0.409512 -0.453180 -0.687036 0.453879 -1.335977 0.408947 1.370286 0.527633 0.622084 1.333828 0.390127 0.673865 -1.201216 -1.019022 -0.684020 -0.481394 0.698790 -0.439747 1.116815 0.334895 0.846959 0.715604 -0.781217 0.679664 -1.040937 0.100346 0.587711 -0.556939 -0.554605 -0.474842 0.117298 0.573654 0.280674 -0.255306 1.353980 0.575998 0.106184 -0.643132 0.128392 -0.753127 0.710393 -0.048175 -0.326477 0.024180 -1.044562 0.304624 -0.701982 0.565620 0.546063 -0.233217
位于 -0.013531 -0.143638 0.211331 -0.110933 0.498583 -0.052120 0.261911 -1.329512 -0.284557 1.266521 0.026560 -0.146350 0.352947 0.862193 -0.189860 -0.006902 -0.098424 0.115283 -0.198090 -0.113839 1.086180 0.632411 -0.248173 0.262241 -0.261972 0.621370 -0.040003 0.698140 0.105772 0.133526 -0.448449 0.315329 -1.005939 0.435433 1.041071 0.079270 -0.286981 -0.088077 -0.576065 0.100844 0.343455 0.136665 -0.830201 0.373953 -0.141734 0.008383 -0.426841 0.441321 1.176187 -0.219824 0.243969 -0.577046 -0.229864 -0.206838 -1.264289 0.168848 0.350854 0.228546 0.711453 0.456310 -0.186333 0.710402 -0.278655 -1.340882 0.170856 0.079610 1.158724 -0.121925 1.877017 0.110416 -0.157650 -0.206795 -1.478339 0.305970 -0.182232 -0.840766 -0.461031 -0.425862 -0.189554 0.004397 -1.280599 -0.080947 0.690263 -0.380233 1.179702 1.270136 0.315490 0.078372 0.260588 -0.299452 0.158373 -0.065629 -0.492252 0.827589 -0.091555 0.527295 0.035863 0.668316 -0.328597 0.559890
专业 0.218242 -0.228750 0.450934 -1.531021 0.020829 -0.296445 0.018584 -0.343270 -0.142378 0.765237 -0.060693 0.551106 0.001169 0.065916 -0.496144 -0.231500 0.275032 -0.474786 -0.667435 0.496955 -0.064576 0.890564 -0.733901 -0.277971 -0.500831 0.367230 0.384702 -0.527981 -0.397440 -0.128668 -0.619768 0.642457 -0.722626 -0.065235 -0.371443 -0.096482 0.040268 0.223252 -1.275305 -0.102393 -0.279571 0.483556 -1.494963 0.873820 -0.640027 0.191166 0.435692 -0.338623 1.122173 -0.053603 -0.401742 -0.784334 0.259159 -0.589366 0.069495 0.244527 0.486691 -0.583805 0.603655 0.879255 -0.266808 0.645330 -0.482585 -0.876345 -0.422159 0.334150 0.122373 -0.851257 1.203014 0.232587 -0.036483 1.018374 -0.954021 1.271320 0.509844 -0.376262 -0.101679 -0.703589 0.259237 -0.320297 -0.018667 -0.646962 0.588926 0.181870 0.408723 0.743133 0.570369 0.339147 0.955799 -0.050786 -0.188712 -0.573746 0.195570 0.667204 0.041720 0.082371 -0.018922 0.449589 0.495600 -0.432299
创建 0.282013 -1.395956 0.349021 -1.042287 0.304816 -0.095608 0.977462 -0.016692 -0.409858 1.142876 0.080483 0.017943 0.577776 0.880840 0.038375 0.433328 0.151931 -0.117338 0.391894 1.134632 0.626277 1.176471 -0.264089 -0.523322 0.296875 0.605130 -0.310371 -0.816772 -0.358536 -0.033433 -0.774978 -0.223438 -1.105521 -0.270937 -0.436832 -0.285566 -0.478881 0.210515 0.037864 -0.325966 0.494752 0.339007 -1.311637 -0.220468 -0.630095 0.103632 0.247002 -0.665540 1.423480 -0.111842 -0.116703 -0.321452 -0.360791 -0.149950 -0.994617 0.729119 0.760449 0.171515 0.600241 0.122069 -0.572603 0.807673 -0.872571 -0.481728 -0.586814 0.027484 0.230804 -0.605922 0.658757 0.716322 0.548768 0.263276 -1.170239 0.304446 -0.409642 -0.455341 -0.049111 -0.825941 -0.255861 -0.299994 -0.095964 0.821179 0.165694 -0.296594 1.670889 1.653199 0.580334 -0.751938 -0.089296 -0.798659 0.114354 -0.100555 -0.826078 0.117830 -0.762672 0.122369 -0.447518 0.888887 0.248377 -0.303020
区 -0.485926 -0.302585 -0.717472 0.561092 0.612332 0.102492 -0.048817 -1.480917 -0.043004 1.041692 -0.019185 -0.338718 0.476813 0.852522 -0.714070 -0.875941 0.337329 -0.363372 -0.729860 0.208476 0.943839 0.274990 0.063957 -0.180308 -0.387968 0.338882 -0.040412 0.477252 0.186893 0.238325 -0.486613 0.394516 -1.089372 0.322714 -0.021434 0.347739 -0.007673 -0.151340 -0.585735 -0.771827 0.226037 -0.151528 -0.909322 0.509764 -0.621440 0.582579 -0.443330 -0.477712 1.124322 -0.963470 -0.020224 -0.697787 -0.354759 0.543718 -0.576834 0.190775 0.638380 0.346080 0.651900 1.125286 -0.324392 0.513932 -0.564911 -1.163319 0.030239 -0.231142 0.722637 -0.177305 1.092809 -0.120685 0.015378 -0.094598 -1.012032 0.436347 -0.034162 -0.834317 -0.673543 -0.638493 0.048112 -0.253331 -0.557143 -0.096264 0.130330 -0.057923 1.783280 0.879560 0.556715 0.216343 0.904088 -0.657084 0.002814 -0.448529 0.102464 0.197161 -1.095398 0.524485 -0.479564 0.693738 0.008436 0.715587
文化 0.437405 -0.481726 0.368800 -0.619500 0.598495 0.226186 0.018816 -0.731896 0.194306 0.413981 -0.122234 -0.541832 1.353048 -0.048121 -0.120801 -0.164409 0.553103 -0.033602 0.224416 -0.403073 1.429895 0.358287 -0.543115 -0.014271 -0.655741 0.349621 0.960513 -0.600267 0.334744 -0.935935 -0.593515 0.850895 -1.109050 0.435069 -0.517805 0.030080 -0.014343 -0.362994 0.008657 -0.657095 0.495962 -0.335454 -0.747028 -0.008665 0.699337 0.508881 0.772277 0.002135 1.288373 -0.656700 -0.254299 -0.999945 0.944613 -0.093368 -1.858439 -0.177267 1.032120 0.305141 -0.216289 0.804178 -0.326312 0.179780 -0.490778 -1.003673 -0.407048 -0.201786 -0.036067 -0.179749 1.077987 -0.308148 0.146560 -0.181581 -1.175037 0.422339 1.015943 -0.300808 0.369780 -0.579606 1.314835 0.169767 -0.753241 0.088849 0.703874 -0.072743 1.546328 0.959499 0.759372 -0.200674 0.135522 -0.109554 -0.135914 -0.155034 -0.410736 0.824308 -1.679540 0.398556 -0.569173 0.128511 -1.106773 0.027067
教学 0.834551 -0.688365 0.024997 -0.752587 -0.202597 -0.661899 -0.977834 -1.417222 -0.579961 0.833430 0.703694 0.632065 0.433999 0.194875 1.040451 0.021724 0.880006 -0.334777 -0.350930 0.410777 0.838835 0.645903 -1.395855 0.200113 -1.159286 -0.157522 -0.053827 -0.357399 -1.303850 0.433608 -0.207936 0.375620 -0.834042 1.919249 -0.717011 0.779331 -0.106531 -0.404033 -0.614954 0.006670 -0.605220 -0.596652 -1.190046 0.048953 -0.888556 -1.078608 -0.593073 -0.905055 0.765901 -0.616394 0.339896 -1.131416 -0.292897 -0.126449 0.317003 0.419697 -0.078764 -0.023182 0.086323 0.858367 0.061676 -0.059140 -0.675978 -0.485689 -0.690962 0.257887 0.075765 -0.832057 1.081205 -0.196122 -1.126827 1.054702 -0.731796 1.312043 0.383141 0.031720 -0.181685 0.091355 1.088727 0.335433 -0.090534 -0.889223 0.247443 0.574537 0.588891 0.880697 0.262947 0.536093 0.864337 0.033718 -0.286523 -0.197676 -0.213056 1.092292 -0.292166 0.190520 0.087484 0.725703 -0.012579 -0.700571
师范类 0.252960 -1.188019 0.780235 -0.514327 2.012268 -1.077550 0.477168 -1.278552 -0.323404 -0.417152 1.337210 0.437517 0.089379 1.486131 -0.698797 1.219771 0.762664 -0.204533 0.326105 -0.138933 1.495322 0.830638 0.303168 -0.266881 1.004693 -0.122968 -0.236361 0.813323 -0.180218 -0.979370 -0.598823 -0.649206 -0.517189 1.003872 0.016880 2.109684 -1.364435 -0.711260 0.398085 -0.115140 0.401360 -2.155455 -0.996471 -0.108634 0.615934 0.166794 -0.246017 -0.384867 0.690218 0.211791 0.516734 -1.419130 -0.592788 0.485083 -2.054739 0.727305 -0.632107 0.193776 -0.226556 1.467372 -0.559304 0.660969 -1.730232 -0.346643 -0.771259 -0.540250 1.370326 0.371310 1.082094 -0.073813 0.452149 0.611515 -1.327200 0.816223 -0.835132 0.122052 -0.462768 -1.487587 0.431570 -0.519070 -0.662565 -1.237286 0.236586 -1.456427 0.825037 1.679374 0.621446 1.399316 0.331070 0.486707 0.985175 -0.139235 -1.057931 0.233767 -1.335978 0.622188 -0.382072 0.123752 -1.376245 -0.969460
更名 -0.435792 -0.700170 0.535862 -0.249790 0.262374 -0.307251 0.276234 -0.021790 -0.338842 1.294060 -0.166509 -0.140735 0.316167 1.490415 0.244562 0.702158 -0.432992 0.245724 0.647915 0.872778 0.351622 0.921159 -0.063338 0.434383 0.090642 0.128817 -0.214012 0.242418 -1.176892 0.873773 -0.424600 -0.561482 -0.871786 0.148893 0.275434 0.752336 -0.330371 0.304948 0.199514 -0.543472 0.687349 -0.793173 -0.906995 -1.270418 0.232132 -0.129705 -0.112002 -0.680604 1.030097 -0.552105 0.594828 -0.315664 -0.248066 0.530606 -0.955697 0.649199 0.110405 0.302983 0.729704 0.255473 0.568738 0.697165 -0.806330 -1.149690 0.059807 0.077516 0.800073 -0.345209 -0.823675 0.799883 0.847927 0.443749 -1.380112 -0.020628 -0.761884 0.024361 0.540562 -0.419850 -0.259080 -0.025953 -0.141174 0.075882 -0.300799 -0.640447 0.854521 0.453207 -0.131585 -0.712049 -0.019369 -0.593520 0.703681 0.124691 -0.108251 -0.649217 -0.730546 -0.028552 -0.443897 0.643929 0.352577 0.124429
建筑 -0.222445 -0.916933 -0.326697 -0.071801 0.218665 -0.062696 -0.408641 -0.981538 0.020830 1.512401 0.090543 0.076670 0.426930 0.637699 0.086396 -0.080957 0.651967 0.089308 -0.634475 -0.563887 1.611434 0.342148 -0.295514 -0.438584 -0.387902 0.369618 -0.558743 -0.418953 0.163768 1.271222 -0.353414 0.366462 -1.316015 0.909774 -0.441748 0.858035 -0.169198 -0.216910 -0.768680 0.155280 0.049352 0.251376 -0.956154 0.982991 -0.262761 0.187599 -0.597389 -0.266325 1.099661 -0.032063 0.230644 -0.532670 0.553976 0.037053 -0.986398 0.005973 -0.008145 0.795953 0.674545 0.619070 -0.621290 0.194312 -0.050688 -0.397592 0.081656 -0.322153 0.373342 -0.766071 1.186492 -0.172451 -0.644379 0.880284 -1.011043 1.900638 0.631752 -1.503700 -0.778934 -0.083265 -0.368799 -0.339515 -0.530027 -0.906911 0.107405 -0.283059 1.202579 0.638668 0.929062 0.634647 0.596839 0.260853 -0.311837 -0.580746 -0.069915 1.263484 -0.674295 0.103153 -0.180453 0.377195 -0.321587 -0.297131
财经类 -0.478841 -0.798029 0.209541 -0.776933 -0.353266 -0.735409 0.646339 -0.959352 -0.147380 2.205519 0.787916 -0.544196 0.042338 -0.409880 -0.283132 0.662318 0.349537 -1.004057 0.147042 0.138619 1.050516 0.253247 -0.966869 0.186815 0.188113 0.644629 -1.528606 -0.425107 0.262364 0.924297 -1.007306 0.447653 -0.917602 0.300426 -1.302306 -0.218204 0.802099 0.436440 0.346146 0.409817 0.932861 0.849083 -0.740976 -1.086662 -0.433591 -0.929031 -0.345326 -0.446506 1.713427 -0.536764 -0.652452 -0.805822 -1.160108 -0.021997 0.680026 0.612587 -0.529705 -0.344195 -0.177045 0.965342 -1.092672 0.985000 -0.940813 -1.427979 -0.611583 -0.281625 -1.464536 -0.288803 1.027368 -0.089992 -0.160484 0.381765 -0.893448 0.164860 -0.268416 0.579439 0.286853 -0.744429 -0.344231 -0.436699 1.238895 0.351691 0.496882 -0.410258 1.257326 -0.211839 1.977425 -0.741833 -0.256494 -0.916112 -0.228912 0.206545 -0.793267 0.147907 -0.716487 0.652564 -0.040400 1.963387 1.287622 -0.241486
独立 0.091956 -0.282887 -0.656879 -0.468652 0.556511 -0.202784 0.304190 -0.544620 -0.448999 0.686607 0.296781 1.348339 -0.010319 0.187996 -0.442206 0.149110 -0.004819 -0.573118 -0.888750 0.681905 0.172936 0.932229 0.292663 0.642662 -1.263078 0.390386 -1.138076 0.026513 -0.492130 0.516262 0.087539 0.110061 -0.150379 0.604541 -0.549439 0.007503 -0.424293 0.425812 -0.836880 -0.082355 0.351523 -0.571324 -0.209847 0.106544 -1.265009 -0.264681 0.165319 -1.201927 0.414063 0.057640 0.364270 -1.400226 -0.362029 0.601271 0.160885 0.995132 0.351001 0.726991 1.218702 1.020558 -0.123876 0.217184 -0.298145 -1.349165 -1.130405 0.394269 0.701105 0.475606 1.531607 0.107948 -1.086051 0.395714 -1.980954 1.132880 0.020429 -0.162987 -0.565542 0.508240 -0.414091 -0.175371 0.958729 -0.265555 -0.143854 -0.088386 1.391025 0.801661 -0.594142 -0.035562 -0.145212 -1.070349 0.476843 0.414165 0.006948 0.541050 0.040691 0.888081 -0.993655 0.454535 0.348535 -1.110682
专科学校 0.141053 -0.445066 1.053524 -0.243318 0.970244 -0.444735 0.704282 0.393463 0.859540 -0.183461 0.743414 0.286906 0.301707 1.428277 -1.040549 0.166842 0.308139 -0.308015 0.872623 0.659155 0.111183 0.422578 0.086983 -0.477917 0.968813 -0.433432 -0.563345 0.554930 -0.147359 -0.159962 0.457014 -0.022457 -1.019349 0.598499 0.102871 0.511609 -0.973136 -0.374789 0.355819 -0.470570 0.212606 -1.168305 -1.256146 -0.835701 1.068861 0.205739 0.337564 -0.332175 -0.085975 -0.629683 0.512632 0.140055 0.043632 0.917405 -1.475137 0.021977 -0.288973 0.078266 0.236330 1.020777 0.574233 0.543720 -1.696309 0.290291 0.590418 -0.147544 0.524807 0.002594 -1.029176 0.278638 0.700840 0.286956 -0.167280 0.349878 -1.621448 0.285914 -0.140458 -0.359050 -0.289869 -0.052169 -0.210414 -0.499847 -0.153743 -0.502120 -0.148224 0.320434 0.339580 0.127286 0.361475 0.681034 0.816552 0.449469 -0.629247 -0.684820 -1.204419 0.278203 -0.346343 -0.102503 -0.691397 -0.790437
举办 -0.143648 -0.935852 -0.387429 -0.079775 0.351301 0.014948 0.331240 -1.180392 0.223659 0.989720 0.527169 0.846028 0.153885 0.396162 -0.249671 -0.234172 0.538709 0.063597 -0.231859 0.930767 0.330418 0.837016 -0.256366 -0.885301 -0.164241 0.613230 -0.145962 -0.258460 0.129753 0.274387 -0.577852 0.467557 -0.757417 0.757315 -0.029012 0.174821 -0.070605 0.506302 -0.237814 -0.076520 0.799322 -0.313452 -0.576307 -0.257240 -0.961163 0.286994 0.057516 -1.158895 1.513712 -0.477327 0.209698 -0.850070 -0.725190 0.371137 -0.634678 0.203637 0.482112 0.453733 0.627922 0.724914 -0.214037 0.651645 -0.554292 -0.975552 -0.590492 -0.558395 -0.141584 -0.313523 0.869410 0.452251 0.193731 0.727582 -0.350925 0.402199 -0.485458 -0.538567 -0.202863 -0.108843 0.153945 -0.219275 -0.150452 0.136816 -0.077025 0.021773 1.437735 1.306623 0.017819 -0.190913 0.501497 -1.557696 0.209672 0.101606 -0.291541 0.358424 -0.630652 0.166410 -0.312096 0.752718 -0.303043 0.101118
管理 -1.343473 -0.715357 0.020852 -0.349004 0.449285 -0.105157 -0.333135 -0.805196 -0.310584 0.573499 0.588450 0.523818 0.594964 0.420576 -0.325746 -0.155594 0.923299 0.535708 0.199810 1.208346 0.162167 -0.065060 -0.921534 -0.118355 0.257960 0.235248 -0.588498 -0.307629 0.238627 0.741177 -0.311881 0.289627 -1.045334 -0.207258 -0.366040 -0.360896 -0.439784 1.223974 0.006155 0.065674 -0.138404 0.500801 -1.768203 -0.828644 -0.526326 -0.301480 -0.327098 -0.848430 1.152164 -0.690013 0.314446 -0.072180 0.060445 0.135870 0.046712 -0.790996 -0.074793 -0.762111 1.494603 1.099159 -0.280717 0.179229 -0.472298 -0.243319 0.058272 -0.004414 -0.701219 -1.115934 0.694274 -0.266670 0.156482 0.504749 -0.469018 0.871874 -1.142321 -0.713686 0.379666 0.568895 -0.179109 -0.689426 -0.431336 -0.003401 -0.077264 0.216921 0.705051 0.836197 0.161889 -0.132270 -0.103182 -0.733793 -0.394535 -0.095906 -0.057075 0.421289 -0.510917 0.066214 0.028270 1.421738 0.422779 0.437565
高等学校 0.068605 -0.283075 0.921125 -0.488761 0.567597 -0.059960 0.270073 -0.533259 -0.239030 1.095869 0.657569 0.545954 0.140574 0.358276 -0.655744 0.302309 0.193715 0.113292 -0.289271 0.531999 0.821312 0.632957 -0.542475 0.071752 -0.142491 0.712102 -0.227630 -0.229415 -0.706862 0.236928 -0.290584 0.103351 -0.896828 0.736733 0.143683 -0.098450 -0.729143 -0.153471 -0.592605 -0.393563 0.592449 -0.634379 -0.919613 -0.127574 0.038129 0.188282 0.341194 -0.665462 0.846277 -0.669730 0.137817 -0.163437 0.052205 0.551736 -1.158802 0.232220 0.598987 0.619244 0.932803 0.920310 -0.381731 0.412843 -0.181112 -1.280997 -0.400601 0.193935 0.265218 -0.901524 0.881858 0.115261 0.034796 0.393895 -1.364714 0.271715 0.036523 0.377007 0.174899 0.095800 -0.162806 -0.468201 -0.182799 -0.056311 0.024455 0.258718 0.836066 0.456938 -0.498906 -0.474244 -0.168163 -0.854190 0.026513 0.090984 -0.289312 0.180709 -0.345542 -0.230068 -0.621976 0.297533 0.321434 0.196085
重点 -0.149828 0.116551 0.224581 -0.672707 -0.234957 -0.981084 0.097848 0.996647 -0.957041 -0.344363 0.436160 -0.547361 0.584823 0.550487 0.752855 0.280700 -0.554612 0.751222 1.106147 0.541337 0.300981 1.272918 -0.396228 0.224994 -0.253846 0.697584 0.374994 -0.565149 -0.681383 0.647963 -1.037476 -0.022730 -0.197192 0.098026 -0.126816 -0.441281 0.153621 0.204231 -0.159415 -0.556848 0.109708 -0.029947 -1.470893 0.570413 0.333581 0.063006 0.240699 -0.178679 1.501471 -0.174501 -0.217397 0.209064 -0.288421 -0.227501 -0.350923 0.495744 0.332109 -0.986895 0.351910 -0.953368 -0.341436 0.137536 -0.628633 -0.071562 -1.217703 -0.152111 0.409537 -1.344350 0.218765 0.093113 0.745787 0.849436 -0.895243 0.125342 -0.444329 0.202687 -0.067965 -0.259797 0.137657 -0.550112 0.245583 0.486934 -0.718011 -0.013536 0.972368 0.643059 0.754297 0.073040 0.002921 -0.443275 -0.453101 -0.152066 -0.029706 0.213334 -1.169777 -0.131830 0.077292 0.022500 -0.073284 0.123695
校园 0.438883 -0.507428 0.319227 0.111038 0.347784 -0.207822 -0.796147 -0.830899 -0.523270 0.654009 0.098819 -0.522937 0.994141 0.482602 0.631886 -0.003568 1.119887 0.290423 -0.142728 -0.417310 1.215177 0.669220 -0.462533 -0.402170 -0.502922 -0.038107 0.404162 -0.453886 -0.187684 -0.420257 -0.055780 0.632769 -0.606592 0.864186 -0.028469 0.595507 -0.346192 -0.587541 -1.064691 -0.054140 -0.094220 -0.006481 -0.554667 0.870965 0.092237 0.251660 -0.069526 -0.280003 0.403878 -0.622138 0.822685 -1.339903 0.436913 -0.539313 -0.461445 0.141138 0.004551 0.391042 0.572526 0.511143 0.093886 0.571064 -0.359001 -1.129664 -0.218674 0.043747 0.136949 -0.627956 1.579535 -0.334912 -0.826687 0.523514 -0.648078 1.093743 1.087073 -1.059687 0.286739 -0.797456 0.735323 0.180511 -0.968600 -0.418460 0.815014 0.152421 0.757185 1.063490 0.713270 0.109583 0.296126 0.032833 -0.439913 -0.726692 -0.215170 1.036279 -0.415612 0.101137 -0.649565 0.633971 0.023556 0.644562
始建于 -0.721749 -0.819690 1.180363 -0.823009 0.452803 0.201281 0.301755 -0.852841 -1.075374 0.635385 0.244744 -0.178993 0.642787 0.671884 0.116152 0.105166 0.381953 0.173106 0.659862 0.882063 0.887139 0.598693 -0.145028 -0.254882 -0.696485 0.881543 0.007627 -0.573199 -0.397901 0.245888 -0.610123 0.155897 -0.557573 -0.300747 0.181006 0.445220 -0.696506 0.605042 -0.616115 -0.695705 0.425663 0.572669 -1.498976 -0.313419 0.308537 0.397721 0.254142 -0.109180 0.961179 -0.272117 -0.050015 -0.141674 0.366671 -0.457093 -0.704951 0.508792 -0.053910 -0.687603 0.928168 0.216429 -0.918154 0.961158 -0.791989 -1.193424 0.114930 -0.061732 0.154743 -0.893726 1.260245 -0.004383 0.791497 0.834192 -0.909485 0.753736 -0.634869 -0.581849 -0.017967 -0.768519 -0.430520 -0.148475 -0.405673 0.246424 -0.348100 -0.023042 1.044380 0.964725 0.336754 0.355708 0.152857 -0.216217 0.513229 -0.524714 0.103557 0.219137 -1.104041 -0.074936 -0.277673 0.527334 0.395793 -0.011846
双一流 -0.015638 0.656129 -1.044388 0.544477 0.581356 -1.189068 0.280337 1.259948 -0.476195 -0.215508 0.720579 0.211761 1.722032 0.592385 0.739210 0.803374 0.091078 0.990496 0.855220 2.543479 0.145787 1.092154 -0.613759 1.062510 -0.865897 0.225959 0.525424 0.230837 -0.733182 0.394495 -2.360241 -1.443632 0.239544 0.703267 0.162666 -1.402635 0.692486 -0.600781 0.646765 -0.454138 -0.640481 -0.341723 -0.020531 1.177461 -1.073818 -1.796926 -0.375283 -0.493296 0.630194 0.241892 -0.170400 -0.366023 0.070669 0.225190 -0.966263 1.318393 1.208145 -0.439701 0.802458 -1.669716 -0.642025 -0.527564 0.261813 0.115641 -1.526787 -0.495784 1.266531 -0.790505 1.013932 -0.201928 0.880946 0.833709 -0.451948 -0.561042 -1.343083 1.669847 0.130972 0.627130 0.673467 -0.892887 0.307126 0.920803 -0.923740 0.378853 2.541386 1.594277 0.395860 -0.611804 -0.249376 -1.240365 0.216736 0.260750 -0.312809 -0.677566 -1.587920 0.083640 0.234498 0.700420 -0.584591 1.181747
具有 -0.069345 -0.540820 0.806879 -0.507481 0.462532 0.568552 0.307617 -0.488162 0.428754 0.491559 0.853353 0.181166 0.178916 0.123469 -0.402550 0.116649 -0.069359 -0.091064 0.005328 0.345130 0.627897 0.568664 0.580078 0.016844 -0.402305 0.588956 -0.662236 -0.103032 -0.586248 -0.463553 -0.337301 0.493504 -0.554364 0.026019 0.010531 -0.339936 0.074721 0.208586 -0.413038 0.212373 1.069555 -0.906695 -0.748688 0.290761 -0.676109 0.843539 0.077028 -0.295998 1.364179 -0.084606 -0.750409 -0.635538 0.520213 0.484262 -0.679362 0.149742 1.092292 -0.112294 0.662578 0.653412 -0.203633 -0.109534 -0.291173 -1.098186 -1.391693 -0.374615 -0.161359 -0.276215 1.102296 -0.316978 -0.012430 0.456434 -1.480532 0.732823 0.097345 0.333113 -0.245849 -0.329823 -0.323930 0.037263 0.100007 -0.220259 -0.092917 -0.352252 2.041843 1.113621 0.421226 0.420844 0.466699 -0.992999 0.406862 0.403509 -1.047828 0.833449 -0.299088 0.900305 -1.276555 -0.157343 -0.443602 0.307929
政府 -0.459845 -0.499181 -0.044226 0.953518 0.549212 0.376533 -0.130267 -0.937628 0.046026 0.284556 0.411111 0.788226 1.036173 0.190275 -0.359635 -0.371562 0.643887 0.096887 -0.281471 0.324373 0.705521 0.235030 -0.733261 0.018296 -0.509996 0.711863 1.167209 -0.022938 0.100743 -0.514389 -0.991014 0.248417 -0.258078 0.669051 0.026841 0.324876 -0.526463 0.526512 -0.695528 -0.452876 0.574679 -0.415023 -0.733192 -0.128786 0.467314 -0.074061 0.484456 -0.399108 1.261437 -0.714295 -0.443743 -0.658063 0.711011 0.190771 -0.874102 -0.061349 0.012016 0.005243 0.853026 0.705917 -0.540160 1.164256 -0.298890 -1.612947 -0.269323 -0.159958 -0.212501 -0.983017 0.754897 0.604890 0.454084 0.913809 -0.930790 1.015948 -0.469863 0.416800 -0.873051 0.106460 -0.061300 -0.849612 0.014981 0.119008 0.043231 0.636207 1.175991 0.676280 0.125414 -0.173114 0.816256 -0.784652 0.054097 0.503060 0.245095 0.069852 -0.975205 0.220622 -0.322670 0.776039 -0.026787 0.355261
现有 0.420386 -1.567172 0.602569 -0.798963 -0.341572 -0.234345 -0.132138 -1.005050 0.288980 1.329069 0.349394 0.240813 -0.220674 0.617586 0.026047 0.160979 0.300411 -0.503522 -0.467809 -1.231513 1.296987 0.366340 -0.043974 -0.730225 -0.258232 0.445875 -0.464669 -0.288416 0.159265 1.399394 -1.256415 0.027333 -1.203142 0.613968 0.166011 0.840369 0.055052 -0.492876 -1.027383 0.007249 0.564720 -0.122662 -1.669428 0.611217 0.292482 -0.109612 -0.274372 -0.195451 1.177544 0.169960 -0.446133 0.044303 0.545209 0.304307 -0.901804 -0.052616 0.525767 0.636740 0.527642 0.153864 -0.633554 0.309570 -0.343921 -0.775740 0.652993 -0.090821 -0.113552 -0.806733 1.564591 -0.159954 -0.338529 0.852359 -0.597240 1.211556 0.748458 -1.111478 -0.781166 -0.754193 -0.242413 -0.322566 -0.534489 -0.725535 0.606493 0.376811 0.678517 0.247566 0.413186 1.091024 1.221999 0.070895 0.077298 -1.000973 0.267165 1.392814 -0.826810 -0.232335 -0.144057 1.277448 0.503319 -1.142083
工程 0.213219 -0.575258 0.093676 -0.445935 0.757134 0.177318 -0.986178 0.584299 -0.424666 0.561126 0.092771 -0.476336 1.124561 -0.154376 1.317894 0.472124 0.165114 0.442980 0.757981 0.438229 0.475672 1.103303 -0.666605 0.575860 -0.730761 0.398040 -0.563486 -0.679480 -0.326356 -0.487115 -0.073277 0.836657 -0.814548 -0.789877 1.014205 -1.128316 -0.312747 -0.095832 -0.150375 -0.046899 -0.071447 0.441882 -1.161912 1.408570 -0.077537 0.530341 -0.043088 -0.162776 0.620952 0.065247 -0.249186 0.626785 -0.177884 0.370086 -0.316621 -0.197689 0.581679 -0.576997 -0.704797 -0.450106 -0.592338 -0.066325 -0.360336 -0.318910 -0.295641 -0.479720 0.233542 -1.021683 -1.103609 0.230207 -0.222858 0.986049 -0.813912 -0.352447 0.162147 -0.656990 -0.141046 -0.190808 1.182765 0.022048 -0.644432 -0.001929 -0.931730 -0.340707 0.587154 0.557754 0.365563 -0.053877 -0.099453 -0.599081 -0.655425 0.364510 -0.108016 0.802142 -0.252272 -0.269475 0.438176 0.006403 -0.348819 0.569991
城市 0.622360 -0.287263 0.217609 -0.326677 0.253411 -0.730974 0.339786 -0.140338 0.602035 0.141608 0.071900 -0.439941 0.339531 0.605712 -0.192249 0.224982 0.565832 -0.360942 1.412744 -0.232934 1.454484 -0.185055 1.047754 -0.617851 -0.267407 -0.573582 -0.046681 0.143716 1.041756 0.216117 -0.717179 0.601566 -0.323339 0.238014 0.706113 -0.780274 -0.294297 -0.574097 -0.492960 -0.560854 -0.076459 0.267784 -0.364172 -0.007929 1.100638 0.944609 -0.736297 -0.050972 0.475408 0.174881 0.617569 -0.496099 0.464511 -0.768539 -1.735836 -0.580325 0.761809 0.621559 0.335685 0.829648 0.158081 0.756991 -0.632843 -0.637099 -0.035332 0.556595 0.777009 -0.300103 0.908384 0.069143 0.405860 0.096735 -0.613894 -0.154245 -0.027758 -0.572442 -0.029173 0.235430 0.211041 -0.154951 0.212928 -0.472798 -0.226428 -0.173348 1.047866 -0.194473 0.814083 -0.514027 0.236459 0.312039 0.234114 1.089980 -0.598561 0.037757 -1.156891 0.852464 -0.664588 -0.213971 -0.426738 0.460463
设立 0.109233 -0.623202 -0.286788 -0.607189 0.323945 -0.095576 0.508186 -1.443154 0.155524 0.845866 0.817908 -0.092814 0.365789 0.063336 -0.419282 0.061505 0.027759 -0.338142 -0.557671 0.423391 0.596678 0.255957 -0.554536 0.382927 -1.277325 -0.079356 -0.041489 0.059237 -0.146173 0.486711 -0.209899 0.078489 -0.893804 0.648460 0.168303 0.255942 -0.253311 0.561669 -0.901817 -0.483446 0.517762 -0.142428 -0.789061 -0.158383 -0.383949 0.069297 -0.154646 -0.876721 1.018366 -0.155925 0.530321 -0.853196 0.087542 0.578571 -0.787503 0.371715 0.399828 0.741269 0.200561 0.728708 -0.604219 0.052292 0.061881 -1.345985 -0.558857 -0.383131 0.433306 -0.242524 1.297621 -0.660066 -0.598510 -0.005361 -1.283394 0.421554 0.841009 -0.637523 -0.472899 0.128784 0.040847 0.020518 -0.407630 0.538931 0.743724 0.073541 1.086065 0.665058 -0.458039 -0.124033 0.064855 -0.856995 0.601434 0.076213 -0.170040 0.270327 -0.385652 0.568188 -0.447170 0.817231 -0.111655 -0.052085
高水平 0.169468 -1.014588 -0.213924 -0.490257 0.690762 -0.275753 -0.171982 -0.245883 -0.735273 0.279944 0.270067 -0.280753 1.435462 -0.066421 0.101432 -0.003023 0.335291 0.280513 0.852979 0.802614 0.734688 0.832024 -0.857034 -0.796320 -0.491494 0.700989 -0.062909 -1.107141 -0.238634 -0.846502 -0.461302 -0.024983 -0.317104 -0.472028 -0.554271 -0.624801 -0.641374 0.145676 -0.828761 -0.432820 -0.410465 0.802657 -1.621490 0.810094 0.050740 0.033975 0.575539 -0.342478 0.674087 -0.435483 -0.889258 -0.461157 0.675794 -0.614642 -0.314695 0.081189 0.431501 -0.899044 0.330727 -0.030899 -1.007385 1.042529 -1.413681 -1.060025 -0.255982 -0.333766 -0.164063 -0.833640 0.700072 0.554957 0.166658 1.199135 -0.190007 1.500234 -0.532817 -0.611307 -0.112195 -0.518171 0.829209 0.434503 -0.381669 -0.194169 -0.081996 0.785821 0.710508 0.861168 0.343158 0.043835 0.139080 -0.731480 -0.306553 0.083440 0.828832 0.560309 -0.566581 0.368223 0.337474 0.152089 0.376037 -0.666119
科技 0.466447 -0.136835 -1.046147 0.367348 0.108563 -0.628158 -0.242891 -0.603146 -0.043230 0.313980 0.008633 -0.515895 0.298115 -0.261389 0.966161 0.121811 0.553435 0.067524 0.488107 0.545950 0.281642 -0.762930 0.229160 -0.610855 -0.598872 -0.283898 0.074602 -0.057740 -0.207332 -0.610541 -0.563702 -0.136867 0.325964 0.114336 -0.431015 -0.659184 0.149468 0.885211 -0.168401 -0.037931 -0.478351 0.705316 -0.273751 0.421684 -0.789997 -0.003562 -0.056027 -0.342622 0.168631 -0.078669 0.304851 0.060009 -0.601217 -0.244610 0.219332 -0.747208 1.165334 0.343193 0.011668 -0.010689 -0.165394 -0.039027 -0.018852 -0.641974 -0.154596 0.089671 0.412717 -0.548273 0.286178 0.178611 -0.600110 0.547810 0.624099 0.177679 -0.250896 -0.782697 -0.227697 0.891653 0.413089 0.700734 0.093507 -0.119043 -0.239640 0.385758 0.791426 0.116146 0.028446 -0.943003 0.628531 -0.803054 -0.329254 -0.069548 0.376167 0.800032 -0.256004 0.240690 0.197118 0.456623 -0.193215 0.480353
校区 0.033579 -1.005929 0.108883 -0.139483 -0.355608 -0.527319 -0.080611 -1.461510 -0.262070 1.414887 -0.018855 -0.697135 -0.676578 0.252406 0.052900 -0.513221 0.614304 -0.729436 -0.727508 -0.893579 1.465807 1.370334 -0.063462 -0.195335 -0.401350 -0.027832 -0.601599 0.030402 -0.161867 1.660386 -0.840319 0.093630 -0.947926 0.534352 -0.496135 1.670254 0.353308 -1.047708 0.646394 -0.315427 0.286558 -0.681248 -0.992234 0.618158 -0.932952 0.529696 0.205722 0.761769 1.243024 -0.151226 0.088225 0.149669 -0.290959 0.992664 -0.324437 0.279115 0.006878 1.476426 0.654441 0.362397 -0.248536 0.214984 -0.492234 -0.038883 0.521830 0.162587 0.233105 -0.802156 0.437740 -0.691723 0.006102 -0.505868 -0.713936 0.164829 0.813854 -0.050887 -0.970125 -0.241968 -0.651827 -0.268592 -0.639150 0.255809 0.003855 -1.119675 0.847476 0.350925 0.640704 0.681806 0.969649 0.082914 -0.190244 -0.850052 -0.635249 0.277454 -1.163072 -0.061248 0.059077 1.016448 -0.162218 -0.346554
高 0.242784 -0.742399 1.013762 -0.921256 0.298466 -0.112075 0.194441 -0.861869 0.408775 1.057122 0.425845 0.113841 0.013587 0.522060 -0.310694 0.130469 0.239405 -0.212357 -0.319883 0.865587 0.623411 0.804429 -0.310266 -0.307092 0.318282 0.386706 -0.151047 -0.588726 -0.379598 -0.720373 -0.582479 0.386997 -0.612804 -0.277176 -0.449081 -0.045508 -0.374428 0.470910 -0.787975 0.362635 0.063282 0.091045 -0.919271 0.136263 -0.012059 0.265712 -0.084501 0.158152 1.826534 0.799091 -0.979373 -0.338334 -0.234149 -0.086683 -0.272906 0.612100 0.106834 -0.830545 -0.135373 0.740502 -0.370287 0.506838 -0.145311 -0.431277 -1.112453 -0.352602 -0.434847 -0.352160 0.864369 1.088555 0.497975 0.681420 -1.237202 0.639028 0.387700 0.454361 -0.467196 -1.221349 -0.301077 -0.324671 -0.340103 -0.070529 0.858578 -0.330512 0.526815 1.385907 0.764782 0.141194 0.749592 -0.432000 -0.092967 0.680835 -0.847495 0.114300 0.787826 1.067923 -0.679469 -0.150047 0.106219 0.237022
升格 0.029278 -0.368891 1.484391 -0.993524 0.656928 -0.328369 1.039463 -0.334867 -0.411360 1.234746 0.520649 -0.082491 0.045788 1.352749 0.251868 0.755411 -0.487349 -0.283891 0.562619 0.566204 0.872879 1.260226 -0.155629 -0.472235 -0.479798 0.333977 -0.485783 -0.080952 -0.951371 0.376626 -0.687052 0.421636 -0.869266 0.591748 0.300130 0.489509 -1.140748 0.399653 -0.484627 -0.215598 0.285592 -0.270516 -1.081820 -1.194099 0.659776 -0.291569 -0.043077 -0.734983 1.434839 -0.577314 0.344410 -0.065067 -0.360130 -0.664592 -0.990972 1.011239 -0.446500 -0.643619 0.637604 0.132836 -0.202372 1.411005 -0.993149 -0.969174 -0.119032 -0.058806 0.682992 -0.812184 0.325613 0.621572 0.051507 0.282751 -1.129514 0.633476 -0.716414 -0.674548 0.315351 0.202344 -0.322100 0.557078 -0.856358 0.028823 0.037007 -0.415143 0.581611 0.688562 0.498320 -0.239655 -0.542354 -0.153508 0.756216 0.086544 -1.083553 -0.034291 0.352111 -0.306099 0.386846 -0.300592 -0.247856 -0.352233
校 -0.765641 -0.639013 0.438773 -0.139902 0.048818 -0.179968 0.214014 -0.511507 0.142983 -0.037430 0.259253 -0.147994 0.750670 -0.065946 0.558999 0.082280 0.059745 -0.153202 0.765891 0.147386 1.135609 0.600060 -0.212705 0.494991 0.150160 0.270895 0.401906 -0.933448 0.345083 -0.518099 -0.314888 0.717291 -0.948523 -0.140767 -0.453805 0.108387 -0.054369 0.278983 -0.340564 -0.560170 0.217498 0.235915 -1.511351 0.203895 0.467967 0.417467 -0.301790 -0.002125 1.263326 -0.137624 -0.597601 -0.253925 0.119868 -0.394561 -0.658494 -0.214381 -0.214237 -0.764678 -0.397505 0.750130 -0.667287 0.670873 -0.477309 -0.553264 -0.188591 -0.050654 0.067168 -0.789160 1.323837 0.231268 0.496707 0.455740 -1.131161 0.074693 -0.293388 -0.513200 -0.384550 -0.690166 -0.091106 0.162779 -0.573760 -0.140405 0.005479 -0.198260 0.264022 0.554523 0.717173 0.308958 0.504058 -0.076861 -0.025142 0.197732 -0.176540 0.698569 -0.601787 0.383727 -0.500441 0.326453 0.061577 0.854149
成为 0.078875 -0.211574 0.082972 -0.430768 0.539876 -0.690293 0.367005 0.003068 -0.929402 0.274454 0.710909 0.097434 0.737272 0.115694 0.009221 0.425355 -0.313174 0.181989 0.736045 1.186728 0.576928 0.842014 0.307876 -1.009009 -0.889595 1.028230 -0.497058 -0.360705 -0.302344 0.056550 -1.003475 0.075854 -0.576485 0.074622 -0.307710 -0.274221 -0.222122 0.588231 -0.448505 0.062446 0.685074 -0.133919 -1.673651 -0.041565 -0.430630 -0.300247 0.336528 -1.111421 1.455000 -0.307499 0.352025 -0.743560 -0.082335 -0.113226 -0.584057 0.439923 0.074235 -0.691660 0.793407 0.456043 -1.036376 0.493275 -0.645502 -0.459589 -0.585529 -0.149739 0.003651 -0.466836 0.341867 0.246918 0.247273 1.215992 0.017541 0.863204 -0.776797 -0.286638 -0.130821 0.179411 0.180668 0.110673 0.390783 0.085261 -0.705158 0.239944 1.410198 0.988170 0.373888 -0.133878 0.471399 -0.914772 0.597835 -0.096554 0.097154 -0.296838 -0.689937 0.611950 0.336653 0.025636 0.051155 -0.558928
合并 -0.811927 -1.541410 0.865411 -0.468024 0.414351 -0.253454 0.318164 0.222874 0.090401 0.937075 0.398402 -0.028195 1.671847 0.872473 0.392233 0.910264 1.077031 -0.046126 0.865949 0.570166 0.904799 1.046508 -0.669235 -0.622393 0.389026 0.242810 -0.014440 -0.749833 0.608046 -0.437171 -1.546240 -0.330364 -0.645691 0.455061 0.389238 0.433319 -0.169173 -0.292995 -0.137202 -0.816144 0.499524 0.052353 -1.223224 -1.477933 1.143239 0.237598 0.420512 -0.121906 1.233901 -0.505845 -0.669321 0.027825 0.902736 0.063925 -0.895103 0.452135 -0.341775 -0.189787 0.547086 0.138273 -0.697227 1.373557 -0.906620 -0.667582 0.871706 -0.443477 0.491425 -1.895852 0.868126 1.362080 1.394751 1.468682 -0.670043 0.563829 -0.987838 0.482934 0.096132 -0.580819 -0.229182 -0.111317 -0.723136 -0.435759 0.133284 -0.200178 0.429528 0.656569 0.139421 0.105783 0.834632 -0.385581 0.582711 0.096964 -0.495930 -0.267967 -1.524128 -0.793975 -0.008536 -0.034976 0.941452 -0.120359
职业教育 -0.893056 -0.595505 0.758736 0.484135 0.359187 0.267876 -0.176826 -0.882199 0.017746 0.010246 -0.293509 0.588799 -0.200782 -0.202502 0.669816 0.084325 0.652554 0.167787 -0.413082 0.647692 0.660800 0.499366 0.269130 -0.153871 0.151627 0.229724 0.582172 -0.651351 0.008233 -0.345396 -0.254460 1.190200 -0.356607 -0.179875 0.327000 -0.599685 0.005965 0.697271 -1.180278 -0.815380 -0.143748 0.709694 -0.579728 0.322573 0.016479 0.274921 -0.220183 -0.179687 1.349854 -0.041299 -1.054057 -0.238620 -0.026050 -0.879518 -0.037575 -0.246109 0.077591 -1.361101 0.423954 0.189532 -0.619268 0.739023 0.171695 -1.178888 -0.474905 -0.652007 0.234139 -0.504052 1.291505 0.274325 0.136727 1.133048 -0.474023 1.209807 -0.661562 -0.678560 -0.147654 -0.674680 -0.060943 -0.767063 -0.489028 -1.001677 0.437091 0.257015 0.247805 0.891728 -0.126309 -0.415094 0.395074 -0.185216 -0.311159 0.336086 -0.056315 1.084925 0.529437 0.068920 -1.359922 0.190604 -0.425716 0.907362
创新 0.487421 -0.988834 0.081141 -0.708378 0.994991 -1.130012 0.083275 -0.622331 -0.337848 0.406187 0.617452 -0.319363 0.562430 -0.677756 0.392263 0.636749 0.337573 -0.001611 0.934662 1.219274 1.075977 0.425711 -0.115221 -0.435601 0.045763 0.482741 -0.064489 -0.499311 -0.466216 -0.222798 -0.759015 0.290567 -0.648266 -0.266969 -0.234775 -0.041263 0.566477 0.427725 -0.768127 -0.501487 -0.422367 -0.237311 -0.880799 0.953342 0.275346 0.150631 -0.452695 -0.216560 1.481322 0.552545 -0.630486 -0.448575 0.534897 0.110732 -0.379656 -0.102896 1.296844 -0.793563 -0.125632 0.242022 -0.979484 -0.008896 -0.864333 -0.564928 -1.759119 -1.007755 -0.025221 -0.112341 0.929265 0.935592 0.499662 0.664898 0.155696 0.488113 -0.191703 0.165960 -0.464084 -0.884861 0.765342 0.243061 -0.038936 -0.309572 0.117449 -0.066884 1.009586 1.268409 -0.058794 0.580532 0.363795 -0.499367 -1.176178 0.711410 -0.178216 0.703894 0.327114 0.301768 -0.543186 0.129071 -0.929988 0.362782
基地 -0.085463 -0.423401 0.432778 0.675213 -0.216272 -0.251170 -0.551351 -0.634921 -0.398628 -0.628064 0.567793 0.451823 0.178406 0.774243 0.453382 -0.466652 0.347241 -0.168141 -0.046304 0.734171 1.120549 1.569829 -0.215028 -1.086567 0.847702 -0.474875 0.923248 -1.082875 0.048154 -0.150963 -0.064841 0.205333 -0.180327 -0.791056 -0.902596 0.050570 -0.408458 0.557931 -1.173119 -0.705626 -1.055705 0.415776 -1.772347 0.957392 -0.458022 1.110869 -0.384484 -1.007459 1.273561 -0.087579 -0.852785 -0.430701 0.421838 -0.668787 0.624585 -0.826066 -0.174641 -1.036256 0.419403 -0.602852 -0.175218 0.706247 -0.621245 -0.811153 -1.176090 -0.698181 -0.403419 -1.204133 1.454719 0.863542 -0.165376 0.732853 -0.391722 0.961995 0.020681 -1.352784 0.058345 -0.869914 0.693220 -0.335175 -0.080584 -0.081727 0.163926 -0.364462 -0.222784 0.930530 0.771594 0.025353 0.550570 0.160683 -1.798675 -0.416433 -0.002758 0.715188 0.222283 0.059259 -0.537527 0.879832 -0.756657 0.695392
坚持 0.483331 -0.898690 0.848586 -0.817377 -0.324914 -0.802452 -0.455741 -1.301536 0.525502 -0.314871 0.460655 0.407779 -0.983936 -0.446971 -0.115309 0.475562 -0.693889 -0.321852 0.428395 1.109443 0.756646 0.029108 0.061268 0.759697 -0.278406 0.295790 0.944780 0.237336 -0.321276 -0.733503 -0.174149 0.826227 -0.727862 -0.619691 -0.157361 -1.204764 0.594742 0.277788 -0.960242 -0.428201 0.249843 -0.616898 -1.830785 0.288381 -0.533137 0.148821 -0.768043 -0.094607 1.922410 0.170142 -1.240961 -0.674558 -0.645078 -0.002416 -0.613621 0.288695 1.229861 -0.618969 -0.673645 0.722083 -0.272742 0.555657 -0.631404 -1.105943 -0.893745 -0.548090 0.766290 -0.125148 0.189660 0.674869 0.584622 -0.111900 -0.295244 0.000661 -0.432610 0.310229 -0.835522 -0.818178 -0.818375 0.821661 -0.222499 -0.639308 0.603513 -0.125034 1.006149 0.396748 -0.101055 -0.255173 1.070800 -0.602103 0.926558 1.264679 0.261780 -0.367866 0.313670 1.838684 -0.397754 -0.523826 0.244979 0.412814
工业 0.067494 -0.905879 0.983010 -0.715102 0.302370 -0.286143 -0.319801 0.079114 -0.965577 0.087382 -0.229057 -0.324850 0.842834 0.436771 0.850997 1.431517 0.681278 0.478545 0.429241 1.126752 0.123387 0.237428 -0.606206 -0.703837 0.790795 0.596174 0.113524 -0.654866 0.091508 -0.419719 -0.813658 0.419660 -0.096994 -0.070003 0.575895 -1.252647 -0.220605 0.092767 -0.102810 -0.292108 -0.251109 0.938420 -0.501210 0.459859 -0.129686 0.335942 0.044850 -0.621499 0.378231 -0.405667 0.124391 -0.075769 0.074457 -0.660292 0.137753 -0.195438 0.223882 -0.696878 0.509219 0.201865 -0.606874 0.414872 -0.022722 -0.670680 -0.350621 0.380308 0.377797 -1.150108 0.468792 0.772131 0.424013 0.998340 0.247060 -0.109665 -0.563052 -0.451053 0.894023 0.270739 0.306289 -0.491427 -0.664074 -0.322326 -0.027587 0.220574 0.309004 0.755370 -0.257370 -0.711858 -0.110455 -0.274023 -0.616172 -0.805952 -0.049837 0.101414 -0.122591 -0.925876 -0.728081 0.712770 0.489626 1.033494
工作 1.051793 -0.591644 0.321069 -0.817345 0.928275 -0.810727 0.736032 0.132394 -0.520110 1.021714 0.645239 0.994698 0.938324 0.825313 -0.331236 0.576457 1.105518 -0.145375 0.197119 1.401823 0.273891 0.983037 -0.636983 -0.737539 -1.277384 -0.753435 0.488242 -0.001240 -0.120573 -0.743295 -0.578064 -0.446225 -0.617052 0.974515 -1.064776 0.655886 -1.382141 -0.335848 -1.614137 0.096961 -0.751643 -0.037606 -0.918523 -0.326154 0.303934 -0.736671 0.467726 -0.489531 0.841951 -0.764378 -0.638582 -0.873920 0.656114 -0.595125 -0.331706 1.069858 -0.533206 -1.055747 0.254642 0.627674 -0.137635 1.232677 -0.780155 -1.050328 -1.087907 0.199110 0.009142 -1.189084 0.659530 1.186871 -0.380370 0.952880 -1.071673 1.575832 0.006113 0.485884 -0.113612 0.662142 0.954524 0.136924 -0.123516 -0.225147 0.284805 -0.037005 0.206666 1.208464 0.449733 0.340602 0.502167 0.133094 -0.396494 0.003651 -0.607718 -0.672621 0.001074 -0.079685 0.144738 -0.279469 0.332726 -1.022649
为主 0.454076 -1.576206 0.952247 -0.933366 0.093117 -0.432072 0.233081 -0.155195 -0.615259 0.021055 1.258116 -0.214719 0.769874 0.823886 0.064364 1.021592 -0.136198 0.261478 1.062318 0.811444 1.080269 -0.162120 -0.447825 -0.303085 -0.152092 0.943425 -0.204664 -0.031212 -0.749061 0.476637 -0.647750 -0.629712 -0.931758 -0.078196 -0.239629 -0.354870 -0.492307 0.456400 -0.421301 0.129999 0.689191 -0.328791 -1.756141 -0.225583 -0.581376 -0.112479 -0.433993 -1.655999 1.222582 -0.626804 0.408969 -0.377919 -0.146466 0.318737 -0.851732 0.104698 0.636511 -0.294245 1.132538 0.507756 -0.622086 0.690382 -1.100024 -1.112466 -0.686179 -0.084032 -0.650284 -0.398228 0.871309 0.297964 0.691100 0.745217 -0.333523 0.878059 -0.446320 -0.104737 0.601372 -1.091736 -0.124788 0.119607 -0.076824 -0.766362 -0.057594 0.218143 1.752993 1.623394 0.352522 -0.078029 -0.151568 -0.625701 -0.383465 -0.205382 -0.091110 -0.305290 -0.436558 -0.020649 -1.193816 1.491374 1.021133 0.219554
河南省 -0.684406 0.414016 0.965435 0.516814 0.445697 0.901161 -0.581286 -0.547074 1.750354 2.316257 1.744767 -0.847512 -1.841987 1.206864 -0.468966 -0.596420 0.677144 0.379192 1.162353 -0.214663 -0.124542 -1.238702 -0.440455 1.450622 0.264572 1.089630 -1.023439 0.316929 -1.761388 0.026444 -0.844298 0.015322 -0.443455 -1.012674 0.279592 0.424081 1.501729 -1.134569 -0.222255 0.424386 -0.073745 0.447740 -0.164024 0.268744 1.278438 0.933701 -1.312544 0.579742 0.509109 0.349514 -0.860639 1.577982 -1.406980 0.798245 -0.220129 0.825520 2.622541 0.325081 1.302157 -0.024960 1.871401 0.804811 -1.839986 -0.983640 -0.095665 -1.624868 -0.151509 -0.815437 1.315752 -0.447707 0.482978 0.667501 0.924774 1.081468 0.200208 0.094284 -0.594669 -1.755366 -1.437034 2.430526 -0.360196 -0.784643 -0.116342 -0.818406 0.401019 -0.494975 1.526532 0.380395 -0.029900 -0.120402 -0.077598 -0.170768 -0.855125 1.023094 0.776286 -0.518279 -0.330254 0.402318 1.230396 1.251402
211 -0.442506 0.990588 -0.672865 0.565345 -0.104648 -0.300407 0.823458 1.059086 -0.561731 0.286492 0.423524 -0.651048 0.942606 0.099533 1.564308 -0.383874 -0.188447 0.568617 0.599061 2.217152 -0.182527 1.668565 -0.090297 1.482619 -0.931954 0.434903 -0.045944 0.032372 -0.524819 0.495152 -2.299866 -0.716598 0.070042 0.603629 0.116537 -2.400090 0.657446 0.149136 1.243157 -0.114885 0.215059 0.574736 0.061717 1.759176 -0.527209 -0.893379 -0.515855 -0.231116 1.462354 0.834737 0.143957 0.535302 -0.305827 0.155736 -0.592974 1.011298 1.961839 -0.275376 0.723343 -1.294858 -1.329428 0.099033 0.821283 0.070557 -1.094104 -0.982230 2.171518 -0.731639 -0.061583 -0.673579 1.395565 0.675120 -0.740142 -1.360043 -0.688193 1.315876 0.080016 0.860199 0.324492 -1.515132 0.013056 1.248177 -0.947517 0.138794 3.441411 2.240277 0.792357 -0.715704 0.301747 -0.812564 0.403308 0.675104 -0.606292 -0.835178 -1.672555 -0.147581 0.089846 0.070332 -0.077710 2.005964
计划 0.983550 -0.436594 0.304015 -0.902071 0.142665 0.827456 -0.525846 0.205187 -0.933637 0.466364 0.073586 -0.026913 -0.070662 0.435050 0.437528 0.376188 0.662834 0.855163 0.357748 0.183001 0.263254 1.000888 -0.129926 -0.533181 -0.428843 0.030342 -0.437378 -0.589603 -1.342692 -0.737799 -0.140073 -0.107710 -0.297821 -0.197353 -0.471818 -0.108838 -0.609914 -0.079201 -0.133232 0.599221 -0.460872 0.213301 -1.700199 1.083229 0.227624 0.015286 -0.120877 -0.896304 1.051190 -0.257806 -0.740149 -0.971573 -0.127625 -1.213437 -0.160112 0.463101 0.461855 -0.628270 0.527083 0.642524 -0.588051 1.190712 -0.236886 -0.991096 -0.569306 -0.559459 -0.399936 -0.851288 0.833555 -0.136573 -0.594013 0.808065 -0.793294 0.934848 0.471583 -0.434769 0.900203 -0.834401 0.992408 -0.677790 0.006103 0.226604 0.359761 0.277677 0.634115 1.276751 -0.410516 -0.421157 -0.287518 -0.450369 -0.920447 0.056311 0.015058 0.424737 0.036170 0.064158 -0.065148 0.403615 -0.329185 -0.508401
师范 0.407293 -1.247245 1.490934 -0.313853 1.665886 -0.733026 0.367211 -0.284422 0.711762 -0.654154 0.624821 0.154077 -0.215634 1.247437 -0.983532 0.694983 0.783409 -0.095867 1.022162 0.116247 0.003603 0.428524 0.018305 -1.055329 1.450860 -0.990796 -0.161407 0.952957 0.306436 -1.173079 -1.063915 -0.058167 -0.554842 1.738042 0.454614 1.670874 -0.967495 -1.211909 1.044773 -0.506581 0.671100 -1.489131 0.036221 -0.696155 0.816208 0.450610 0.413303 0.256177 -0.083837 -0.641585 0.349103 -0.661344 -0.406285 0.914979 -1.389579 -0.126927 -0.707865 -0.045382 0.649825 0.885246 0.386861 0.302554 -2.020598 -0.383351 -0.017045 -0.209418 1.004929 -0.541542 0.201031 0.337855 0.739778 0.455805 0.192206 0.083517 -1.485614 0.469269 -0.862903 -0.877556 0.188535 -0.160953 -0.663726 -1.340721 -0.057524 -0.750214 -0.094196 0.779538 0.966037 1.352389 0.717580 0.442036 0.628296 0.604541 -1.163045 -0.461070 -2.228534 0.396701 0.123301 0.095080 -1.282875 -0.877571
交通 -0.160104 -0.204571 -0.106764 0.406597 0.746427 0.749981 0.136290 -0.618352 -0.176165 2.187188 -0.775350 -0.623279 0.583324 0.392764 -0.897018 0.065143 0.227687 0.424146 -0.786185 0.091206 1.753625 0.217948 0.102961 -0.246952 -0.004615 0.481671 -0.782618 0.067395 0.765691 0.197322 0.028803 0.550280 -1.052224 -0.663395 0.966439 -0.956572 -0.076462 -0.575131 -0.525087 -0.026423 0.479220 0.877677 -0.777163 0.501458 0.200203 0.368044 -0.526065 -0.515832 1.776570 -0.081119 -0.311781 -0.772532 0.729724 0.418799 -1.273054 0.246492 0.686897 1.204199 1.004448 0.584897 -0.490659 0.612258 0.464678 -0.911283 0.049318 -0.391673 0.167308 -0.202981 0.724509 -0.028781 0.051010 -0.555252 -1.618232 0.453843 0.885608 -0.283596 -0.375568 -0.755187 -0.436216 -1.062078 -0.611302 -0.295116 0.615690 -0.369284 2.129042 1.380222 0.208575 -1.192377 0.449840 -1.035680 -0.126326 0.544674 -0.317369 0.358930 0.635571 1.563980 -1.346997 0.129376 -0.535568 1.474446
经济 -0.214090 -0.682351 0.258338 -0.523715 0.156217 -0.175482 -0.118090 -1.604026 0.431694 1.760537 0.025783 -0.706411 -0.145192 -0.620587 0.022690 -0.723508 0.022714 -0.787446 0.613290 0.284676 1.018922 -0.187479 -0.138260 -0.014184 -1.036828 0.435790 0.021506 -0.277942 0.493218 1.205441 -0.680843 0.453674 -0.974198 -0.463124 -0.811248 -0.299521 0.261885 0.343773 -0.143420 -0.124056 0.112042 0.632602 -0.763499 0.122786 -0.335277 -0.094575 -0.734440 -0.065971 1.248610 0.109665 -0.414344 -0.364248 -0.216844 -0.138019 -0.095251 0.591855 1.075167 -0.223649 0.549566 1.299361 -0.687545 0.644027 -0.175430 -1.203701 -0.146501 0.111072 0.251291 0.321367 0.634511 -0.381931 0.487887 0.096958 -0.740498 -0.011930 0.353102 -0.031262 -0.402423 -0.310113 -0.027832 -0.369744 0.159519 -0.235916 0.936351 0.480616 1.418931 0.941878 1.000553 0.417568 0.666231 -0.541719 0.258067 0.242236 -0.035822 0.119692 -0.018869 0.504310 -0.653212 0.978218 1.216456 0.338462
组建 -1.019694 -1.644805 1.000276 -0.484701 0.148366 0.043912 0.604139 -0.317771 0.047814 0.277578 0.727209 0.562944 0.810039 0.767450 -0.368692 0.387077 0.642527 0.498710 0.533184 0.854243 -0.061527 0.655047 0.129430 -0.170727 -0.028213 0.453721 -0.856688 -0.528330 0.534224 0.156966 -1.039780 -0.443278 -0.805368 0.108507 0.845021 0.409332 -0.198163 -0.085264 -0.498479 -0.411214 0.576905 -0.036633 -1.448821 -0.429127 0.872319 0.050896 -0.110907 -0.274678 0.753996 0.185425 -0.643225 0.091969 0.727168 -0.145674 -0.450397 0.727776 -0.405044 -0.378713 0.836055 0.785968 -1.156101 1.829015 -0.524225 -0.659465 0.430775 -0.621654 0.055053 -1.521987 0.580711 0.729855 1.239714 1.456650 -0.164290 0.559497 -1.209706 0.387723 -0.664804 -0.461329 -1.582306 -0.171290 -1.050647 0.160164 -0.614738 -0.258605 0.366767 0.331124 -0.402444 0.658310 0.625037 -0.586041 1.018174 0.453248 0.071283 -0.822645 -1.051875 -0.684748 0.130289 -0.245799 0.699085 -0.575581
学位 1.975424 -0.408867 0.258057 -1.109137 -1.218966 -1.390004 0.029804 0.607290 -0.190803 0.538991 1.478638 -1.231993 0.128247 0.877784 -0.489113 0.167456 -0.907614 0.086631 1.482973 0.069972 0.508027 -0.922715 -0.461596 -0.591792 -1.713288 -1.067795 -0.565877 0.276560 -1.090479 1.377441 -0.628708 -1.231813 -0.321878 1.734268 -1.169043 1.242183 -0.891240 -0.381513 -0.559406 0.026621 0.044617 -0.141770 -0.776752 0.274296 -0.502397 -0.299752 0.206655 -0.128366 0.081639 -0.821380 0.290029 -0.477637 0.087267 0.091558 -1.155936 0.534625 0.022602 1.155126 0.243336 0.068122 0.016416 0.122606 -1.696016 -0.849803 -1.474804 1.076640 -0.350457 -0.512365 0.313666 -0.165628 -1.040793 0.465517 -0.326349 0.774807 0.246878 1.044245 0.104867 -0.021716 0.492461 0.865129 1.140107 -0.405148 -0.397384 0.380378 1.543442 0.011554 1.591440 -0.204565 -0.112939 0.063607 0.366718 0.173910 -0.362919 -0.441988 -0.541555 0.182031 0.332359 0.080966 0.083853 -1.986784
江苏省 -0.040231 -2.395466 -0.261495 -0.955595 1.064928 1.151867 1.229908 -0.789469 -1.899503 0.695306 -1.537188 -0.143074 0.729227 -0.796469 0.776059 0.978868 1.826034 0.593673 1.818109 -0.906455 0.860714 1.374871 0.198295 0.773395 1.078189 0.692710 0.030620 0.188656 1.109338 -1.713628 -0.515050 0.050554 0.701967 0.612782 0.749650 -0.932378 0.218036 -0.740315 1.724461 -0.491979 -0.460558 1.889370 0.721774 0.687315 0.234555 -1.192510 0.048390 2.066312 -0.527655 0.550742 -0.871411 -0.035910 -0.214486 0.308274 0.155698 0.700904 1.350783 0.739355 1.111334 1.531975 -0.657599 1.500649 -1.024112 -0.077104 0.212367 0.540188 0.988277 -0.371400 1.339742 0.820323 0.524486 -0.437305 -0.514675 -0.071441 -0.793460 -0.984148 -1.925137 -0.685063 -1.396825 -0.527536 -1.370559 0.137078 -0.360020 -0.540474 2.214957 0.773635 -0.108104 0.912288 -0.032943 0.089158 -0.182153 -0.024492 0.321342 1.191150 -1.173129 1.076574 -1.190000 1.153791 0.039032 -0.675346
广东省 0.115602 0.477506 -1.392563 0.648967 2.512482 0.197505 1.226615 -0.547759 0.408748 1.157715 1.049329 0.464857 0.037011 -0.218606 -1.801906 -0.251889 0.207664 0.904189 0.481855 1.546867 -0.345583 -0.410964 1.838979 -1.992260 -1.106152 0.971536 0.733295 0.534456 -0.030803 0.336437 0.109643 -0.026053 -1.370878 -1.447445 -0.373003 0.650115 -0.024946 0.519982 -1.163599 -0.395968 0.040596 0.721436 -2.722681 0.220481 0.274297 0.295483 0.538858 0.374422 2.278325 -1.861206 -0.478214 0.066778 0.810232 0.765473 -0.091297 0.231009 1.046245 -0.328139 1.194607 0.901121 -0.581550 0.141611 -1.330393 -0.061887 -0.228645 0.369975 -0.847430 -0.595262 0.394538 0.000719 0.090368 0.618267 0.767599 0.743808 -1.698383 -1.865192 -2.327192 -0.175748 -0.358802 0.015228 0.096933 1.286237 0.027944 -0.115001 0.445200 1.602017 -0.270361 0.980393 1.306449 -0.006766 0.066934 -0.927436 0.458411 0.067505 -0.234122 1.971148 0.998025 0.601467 -1.568352 -0.804772
山东省 -0.609699 -0.097028 1.752951 -0.209189 -0.942175 0.874848 1.506440 -0.393729 -0.358285 1.322303 0.702215 -0.303782 0.405728 0.459238 1.353612 1.285096 -1.152457 0.481650 0.910813 0.622301 -0.475758 0.197319 -1.784177 -0.832921 -0.496554 -1.194834 1.425700 0.094906 0.464515 1.229338 -0.569710 0.334998 0.022104 0.127271 -0.404052 -0.098786 0.930822 0.739950 -0.388435 0.050270 1.511169 -0.109796 -0.045811 -0.038883 0.354032 -0.442681 -0.321791 0.520033 3.640505 -0.630889 -0.793088 -0.389666 0.618710 0.865739 0.822894 -0.794624 -0.534478 -0.052092 0.154234 0.382904 0.902352 0.103084 0.252497 -0.740722 -0.609734 -2.888279 -0.886739 -2.205707 -0.500309 1.797640 0.231576 -0.131595 0.752032 -0.983788 -0.537477 -1.429131 -0.389315 -0.630532 0.025808 2.564492 0.158599 -0.760635 -1.030493 -0.930107 0.751656 -1.044846 0.936431 1.917417 -0.574470 0.128458 -0.409894 -0.895741 -1.036419 0.305585 0.138581 0.984915 -0.317589 -0.022638 -0.822893 1.329083
共建 0.568675 -0.973368 0.398880 0.254869 0.348885 -0.891049 -0.084762 0.644707 -0.510225 -0.152224 0.974558 -0.779207 1.786157 0.834276 0.173913 0.340304 -0.034248 1.061038 1.327671 1.168744 0.444912 -0.195359 -0.531046 -0.674255 -0.720291 0.063975 -0.439189 0.231123 -1.191853 0.365393 -1.642406 -1.043484 -0.764205 -0.005574 -0.389773 0.059899 -1.209206 0.954790 -0.470741 -0.024138 0.072247 -0.735680 -1.728240 0.331790 0.460040 -0.575325 0.537771 -1.061497 0.686648 0.006671 -0.066905 0.013229 0.677234 -0.029472 -1.352539 0.356056 0.465349 -0.558868 1.440776 -0.313248 -0.479913 0.767499 -0.921091 -1.084315 -0.543737 -0.191756 -0.425408 -0.998148 0.097021 0.678878 0.465378 1.223913 -0.136106 1.276222 -1.106636 0.603107 0.511409 0.100561 0.041742 -0.492799 -0.220056 -0.170368 -0.032661 0.882780 1.740482 1.763241 0.079364 -0.680191 0.013424 -1.445769 -0.023953 0.721667 0.385839 -0.563592 -1.196872 0.010884 -0.146623 1.247409 0.252871 -0.215438
试点 0.955673 -0.034910 -0.276387 0.018597 0.116431 -1.225397 -0.442832 -0.296445 -1.401809 0.153308 0.828814 -0.654066 1.009382 0.260750 0.305224 0.641898 0.769869 0.799981 0.607093 0.680416 0.538745 -0.016313 -0.608108 -1.242353 -0.616233 -0.366656 0.287623 -0.941605 -1.061610 -0.188011 -0.266616 -0.002707 -0.000464 -0.291751 -0.852344 0.263937 -0.689936 0.235463 -2.367430 -0.472400 -0.564843 1.270694 -1.438239 1.005301 -0.045878 0.549446 0.703592 0.294793 0.987151 0.030509 -0.688071 -0.600225 0.115896 -1.314213 -0.255357 -0.294730 -0.073513 -0.708413 -0.050063 0.661072 0.341219 0.546217 -0.764603 -1.492043 -1.530211 -0.320940 -0.516069 -1.612560 1.736245 0.933317 -0.449149 1.213599 -0.114608 1.285985 -0.732657 -0.020733 0.531948 -0.954758 0.389652 0.293354 0.619252 -0.190785 -0.054028 0.222453 0.244210 0.727692 0.420332 -0.871182 0.040622 -0.277847 -1.485032 0.382342 0.639212 0.956118 0.381677 0.133056 -0.422043 0.618464 -0.364619 0.848349
高等院校 -0.159506 -0.312075 0.376265 0.096203 0.052758 0.197463 0.154666 -0.996058 0.322981 0.605046 0.519348 -0.202427 0.540877 0.343098 -0.206961 0.155277 0.799193 -0.152089 -0.640751 -0.384626 1.107803 0.245478 0.133155 0.241641 -1.131289 0.207952 -0.170489 -0.101813 -0.258291 0.127758 -0.742136 0.124183 -0.540584 0.003381 -0.340565 -0.040680 -0.868439 0.660935 -1.219255 0.318155 0.692510 -0.006289 -1.190293 0.522314 -0.534768 0.329246 -0.357339 -0.443960 1.054252 -0.165466 0.073206 -0.741237 0.098397 -0.177760 -0.911975 -0.011416 0.132152 0.168007 0.677329 1.386396 -0.412984 0.373336 0.229499 -1.520012 -0.269374 -0.001162 -0.040322 -0.698216 0.865963 -0.638298 -0.353973 0.698481 -1.308910 0.739454 0.508625 0.148254 0.131560 -0.082522 0.090968 -0.568668 -0.219815 -0.114273 0.381587 0.645404 1.397717 0.605919 -0.170372 -0.530044 0.423533 -0.484952 0.430365 -0.420732 -0.068237 0.285401 -0.664815 0.479706 -0.838661 0.529417 0.752698 0.227988
名城 0.335426 -0.973656 0.227884 -0.429217 1.123029 -0.212491 0.320210 -0.054183 -0.671306 1.621309 0.027725 -1.096778 1.035984 1.011539 -0.133725 0.482174 0.502696 0.317200 0.951716 -0.871103 1.713482 -0.104804 0.211272 -0.800075 -0.134029 0.535897 0.247655 -0.658159 0.335301 -0.060618 -1.145424 0.504745 -0.951972 -0.007274 -0.251689 0.042536 -0.694077 -1.171120 0.219902 -1.103315 0.452103 -0.022621 -0.828370 0.216304 1.455178 -0.140559 1.027906 0.320566 1.391277 -0.237458 -0.069055 -0.548349 0.037462 0.452959 -2.116614 0.983262 0.415007 0.279366 0.053745 0.818689 -0.051618 0.918371 -0.935731 -0.078474 -0.710975 -0.206342 0.260641 -0.076712 1.279264 -0.165576 0.460289 0.024260 -0.905510 0.813643 1.102992 0.131467 0.530142 -1.136700 0.796921 0.531081 -0.474079 0.539128 0.063993 -0.724209 1.449674 0.709630 1.086876 -0.522852 -0.671439 0.015922 -0.337678 -0.213695 -0.534849 0.648471 -1.229678 0.167518 -0.998804 -0.348389 -0.260241 0.180748
招生 0.397630 0.375457 -0.415817 -0.690278 -0.502954 0.651676 0.323333 -0.961745 -0.343895 -0.068055 0.551172 0.947543 -0.792980 0.337175 0.032057 0.241325 0.460617 0.004106 -1.341292 -0.305324 0.216632 0.404667 0.463028 0.126073 -1.024383 -0.113397 -1.375610 0.133115 -0.385721 0.130313 0.216868 0.250545 -0.111073 0.851741 0.257911 -0.012703 -0.347718 0.827253 -1.872305 0.952771 0.711045 0.136621 -1.088396 0.188926 -1.112217 0.184026 -0.096103 -1.274547 1.182493 -0.288733 0.463740 -1.046397 -0.572945 -0.141193 -0.352094 0.563817 0.085479 0.475062 0.153338 1.371584 -0.593482 0.388386 0.178789 -1.113322 -0.046406 -0.966311 -0.072930 0.107461 1.306957 -0.530025 -1.322054 0.463385 -1.211295 1.061913 0.351277 -0.419427 0.319778 -0.388930 -0.576925 -0.478825 0.075635 -0.792155 -0.207443 -0.125893 2.028275 0.523550 -0.991589 -0.018684 0.145752 -0.679571 0.635221 -0.236245 0.207726 0.505555 -0.072644 0.919670 -0.219835 -0.055542 -0.395847 -0.472344
省 -0.688179 -0.685943 0.231301 -0.065960 0.500679 -0.246687 -0.048438 -0.635830 0.154315 -0.150204 0.909089 0.084089 0.723149 1.119733 -0.374133 -0.141912 0.501585 0.960832 0.291046 0.011276 -0.165298 -0.827998 -0.419012 -0.139768 -0.364916 -0.105313 -0.400355 0.172845 -0.114775 0.117609 -0.763024 0.285781 -0.947066 0.699630 0.236552 0.544195 -0.884789 0.590524 -0.829792 0.266003 0.410942 -0.199547 -0.776522 -0.033141 0.099112 -0.110014 -0.042210 0.126207 0.627939 -0.326517 -0.053535 0.133265 0.146852 0.363640 -0.764233 -0.260995 -0.404775 -0.730397 1.224911 0.446086 -0.093190 -0.016232 -1.016857 -0.616321 -0.173145 -0.544243 -0.594124 -0.842810 1.548974 -0.607092 -0.056721 0.679854 -0.731970 0.794390 -0.506893 -0.215463 -0.438006 -0.139024 -0.521600 0.322819 -0.389386 -0.419140 -0.215509 0.210348 0.903304 0.729766 0.711099 1.018718 -0.086744 -0.094810 -0.236866 0.411934 -0.147871 0.219396 -0.993568 0.043808 -0.009461 0.460337 -0.004599 0.324351
中 0.128390 -1.204068 0.743656 -0.539953 -0.341680 -0.205593 -0.361483 -0.494767 0.096414 0.531379 0.504306 -0.547353 0.546348 0.348665 -0.455343 0.019368 0.473356 -0.118479 0.246883 0.922633 0.350933 0.495460 -0.591255 0.103873 -0.310121 0.496457 0.591894 -0.591625 -0.162951 -0.409983 -0.210825 0.169414 -0.555049 0.103592 -0.444120 0.047966 -0.169508 -0.749162 -0.343100 -0.394670 0.252012 0.007927 -0.508152 0.053293 -0.193424 0.153938 0.303197 0.039737 0.871177 -0.775034 -0.474353 -0.431181 0.595256 0.190535 -0.420732 1.088007 0.318751 0.502278 0.587256 0.591953 -0.279468 0.979231 -0.963210 -0.714140 -1.093439 -0.074120 -0.026772 -0.974739 0.378770 -0.097518 0.965287 0.702356 -0.488683 1.165881 -0.097370 0.590535 -0.572162 -0.639240 -0.567520 0.291337 -0.195932 -0.176724 0.366704 -0.445810 0.950281 0.772198 0.668614 -0.220012 0.106096 0.266199 0.736663 0.495104 -0.563709 -0.905782 -0.777358 0.586424 -0.923405 0.440354 0.446776 -0.015138
优秀 0.846116 -0.823306 0.249060 -1.210660 0.528776 0.208671 0.404258 -0.080218 -1.134618 0.717201 0.135343 -0.359826 0.696463 0.774566 0.203650 0.480510 1.240544 0.349411 0.636083 -0.094627 0.314666 0.500281 0.156452 -1.113507 -0.361527 -0.123808 -0.433401 -1.046676 0.128201 -0.848466 -0.830159 0.517650 -0.236453 0.226186 -0.854460 0.448072 -0.282939 -0.482126 -1.083170 -0.055418 -0.327946 0.455315 -0.531133 -0.138286 0.480307 -0.274150 0.511187 -0.416642 1.006662 -0.343803 -0.587215 -1.690095 0.307988 -1.221060 -0.560849 1.411433 -0.432362 -0.824470 0.369619 0.662802 -0.422220 1.621307 -1.190342 -0.240851 -1.172547 -0.529971 -0.803996 -0.252290 1.692579 0.337345 0.086467 0.683643 -0.142642 1.735002 0.117672 0.207725 0.571286 -1.567404 0.694366 -0.112462 0.211186 0.195687 0.616181 -0.136815 0.691814 1.375891 0.787576 -0.044007 -0.228387 0.267947 -0.369080 0.263537 -0.487636 0.040772 0.092298 0.446403 -0.640739 -0.247504 -0.190364 -0.993265
层次 -0.163440 -0.598354 0.096396 -0.389857 0.795245 -0.128861 -0.083717 -1.625148 -0.201285 1.080873 -0.250076 0.058846 0.378601 0.446402 -0.306659 0.490792 -0.143393 -0.401789 -1.050727 0.755527 0.896167 0.742791 0.122593 -0.164795 -0.240963 0.784175 -0.171306 0.029975 -0.460549 -0.302579 -0.214262 0.155638 -0.528682 0.217952 0.450388 0.023246 0.078720 1.067500 -0.841046 -0.057018 0.375759 -0.675568 -0.523685 0.253835 -0.551131 -0.751671 0.235765 -0.111889 0.776736 -0.319071 0.128281 -1.063665 0.248042 0.097224 -0.142860 0.521779 -0.314348 0.289329 1.074121 0.560541 -0.862624 1.045305 -0.228160 -1.603296 0.058043 -0.229505 0.736517 0.315491 1.606902 0.456928 -0.502076 0.173436 -1.226097 0.903635 0.321683 -0.361353 -0.345300 -0.290396 -0.920080 -0.165333 -0.410349 0.066498 0.650006 -0.598136 1.277140 0.531246 -0.700434 -0.692459 -0.025624 -0.851238 1.009139 0.057427 -0.122972 0.312444 -0.286599 0.287854 0.196627 0.245768 -0.144716 0.174168
北京市 -0.858901 -0.083957 0.932185 -0.974801 -1.011272 -0.545487 -0.824372 -0.330016 0.326055 0.746326 -0.230055 0.671226 -0.388969 -1.323482 -1.225823 -1.146256 1.707314 -0.791970 0.068581 2.528549 0.008241 0.427284 -2.279220 1.817166 0.534134 1.176305 1.395203 0.152176 2.464004 2.022917 -1.508784 -0.062382 0.273514 0.099541 -0.922262 -1.517270 0.886534 0.981675 0.423162 1.687913 -1.495967 0.135239 0.837279 -0.513673 -1.269396 -0.532903 -0.834065 -0.722557 0.790996 -0.635963 -0.520852 0.266559 1.549005 0.497782 -0.862988 -0.344098 1.564618 -0.392115 1.415561 -1.949863 -2.147562 -0.707369 -0.281064 -0.726894 -2.023678 -1.977787 -0.733572 -1.394445 0.585190 -1.216017 2.265592 -0.390184 -1.007458 -0.142181 -0.677465 1.012422 2.156098 2.509748 1.582536 -1.656773 -0.351668 -1.106292 -0.065277 0.258094 1.690734 1.332526 0.769217 0.096571 -0.468437 -0.301498 0.914945 -0.360162 -1.194393 0.107158 -0.024028 -0.223550 -0.123020 0.947786 0.432366 0.769809
