3800 100
、 -0.478127 -0.373279 -0.680238 -1.538300 0.784127 1.520462 -0.157714 0.240540 -0.937682 -0.857816 -0.938126 0.995778 0.102942 0.342291 0.308712 -0.297795 -0.747311 -0.429501 -0.073088 0.520653 0.275791 -0.312951 -0.949785 0.771774 -0.473233 1.332977 -0.460083 0.475291 -0.632125 -0.550912 -0.529794 -0.462458 0.860407 -0.153206 0.058965 1.242015 0.469298 1.212601 0.484633 1.759691 -1.301394 -1.100908 0.458478 0.940409 -0.165641 -0.484633 0.530189 0.745625 0.084505 -0.351971 -0.430455 0.073745 1.564114 -0.247627 -0.251287 -0.316144 1.334261 1.407045 0.031184 -0.427045 -0.019772 -0.013215 0.184081 0.383788 -0.496333 0.273317 -0.149721 0.357422 -0.343994 -0.266179 0.917653 0.286373 0.204495 -0.007841 -0.608503 0.015177 0.115355 0.760637 0.070735 -1.593083 1.407024 -1.084087 -0.721651 0.930902 -0.916525 0.350429 -0.276471 0.632366 1.321030 0.960340 0.005793 -1.308887 -0.409172 0.042327 0.799020 0.185274 -0.374245 -0.145924 0.531641 -0.683837
的 -0.339184 0.296459 0.061852 0.239183 0.380326 0.591873 0.858138 0.727386 -0.345693 -0.326163 -0.493741 0.575725 -0.465031 0.239336 0.316433 0.781411 -0.077215 -0.037243 0.136557 -0.161615 0.009628 -0.954060 -0.293205 -1.240739 0.219667 -0.664710 -0.417702 1.255385 0.924642 -0.968528 0.592928 -0.445816 -0.549775 -0.425242 0.101616 -0.707547 0.120908 1.184017 -0.178458 -1.088005 -0.025762 -0.578116 -0.815063 -0.404282 -0.772845 0.223881 0.325852 -0.111230 0.597486 -0.135250 0.270099 0.867127 0.550386 -0.096397 0.614207 0.025855 -0.041446 -0.069387 -0.038067 -0.160731 -0.545219 0.139632 -0.548429 0.855444 0.127225 0.223441 0.174852 0.331866 0.027224 1.213324 0.753918 0.853319 0.830255 0.748025 0.156418 0.297555 0.076238 -0.431568 -0.173788 1.092790 -0.378209 0.047215 -0.768357 0.611618 -0.803972 -0.405731 0.576432 0.720732 -0.737365 0.318263 -0.690557 -0.889124 -0.700092 0.497582 -0.231537 0.557461 -1.370207 0.114919 0.116098 0.731242
年 0.956159 -0.574712 1.406182 -0.098227 0.438453 -1.918234 -0.651058 0.615332 -0.553110 0.721517 1.719625 0.021402 0.462819 -0.661103 0.709060 1.823095 1.728871 -0.498861 -1.514495 0.690398 0.293615 0.458394 -0.070523 0.165500 0.384390 -0.441780 0.337013 0.234393 1.147497 0.319612 -0.477645 -0.996302 0.613726 -0.805449 -2.078764 -0.977443 -0.740570 -1.175339 -1.242742 -2.410265 -0.623063 0.853218 1.036285 -0.453568 -0.254287 -0.463515 0.526651 -1.020815 0.414472 0.312925 -0.937644 -0.249392 -0.267607 -1.486658 -0.269109 -0.900057 -0.307189 -1.630609 -0.892354 -0.594973 -0.025809 0.794039 -0.323673 -0.758601 -0.096436 0.742941 -0.752893 1.636027 0.932378 0.019199 -0.204770 0.689195 1.935562 1.090373 1.550904 -0.784786 -0.227259 -0.897549 0.464245 1.913107 0.075491 -0.540075 -1.263399 1.934074 0.252538 0.752815 0.283301 -0.377773 -0.142907 0.172586 -1.257952 0.278838 -0.382717 0.687327 0.164064 0.606211 -1.139710 -0.360769 0.727053 0.349318
学院 -0.480648 0.295925 0.979222 -1.349904 0.313005 -0.925056 0.079474 0.088893 -0.459811 0.399576 0.722783 -0.202627 -0.371285 -0.776721 0.232564 1.216408 -0.165852 0.376192 -0.903425 -1.374460 -0.597902 0.045650 -0.317297 -0.601820 -1.495766 0.567778 0.047671 0.240289 -0.498372 -0.944833 0.967669 -0.154471 -0.467092 -0.794584 -0.002067 -0.848847 -0.091809 0.469886 0.336871 -0.478035 -0.075145 -0.166210 -0.581463 0.543388 -0.666499 -0.540986 0.073794 -0.212435 -0.302568 -1.124396 0.283836 -0.584844 0.410187 -0.523289 -0.121013 -0.539487 0.539096 0.016362 -0.176336 0.108378 -0.337994 1.158384 0.189987 -0.137180 -0.510023 0.616099 -0.660734 1.330776 -0.198509 -0.257104 -0.064267 -0.023466 0.302728 0.395555 -0.543679 -0.187473 -1.500898 -0.826120 1.341250 1.722559 -0.035793 -0.895474 0.698839 -0.428341 0.688424 0.652768 0.132980 -0.101275 -0.163380 0.301689 -1.048854 0.188849 -0.159732 1.817083 0.784966 0.753555 0.304418 0.666768 -0.761383 -0.180854
是 -0.675213 -0.539038 -0.209431 -0.073942 -0.116653 1.323454 0.341688 1.216107 -0.595486 -0.142323 -0.430937 1.441372 0.043198 0.601432 0.269143 1.074457 -0.441764 0.637168 0.851543 0.264045 -0.071968 -0.956154 -0.162201 -2.393047 -0.114889 -0.949102 -0.099876 0.662662 0.529321 -0.158637 -0.087032 -0.222211 -0.258018 -0.064526 -0.600337 -0.685450 -0.131862 1.514931 0.387646 -0.463656 -0.415187 -1.750298 -0.572950 -0.082714 -0.110797 -0.026509 -0.390754 -0.371352 0.134776 0.201148 -0.301578 0.686655 -1.092019 -0.094848 0.019727 0.386623 0.239780 -0.563719 -1.151988 0.647356 -1.038110 0.814323 -0.105115 0.557218 -0.108538 1.229415 -0.241411 1.152851 0.031859 -0.232066 0.402330 1.591197 1.004700 0.728677 -0.089166 0.458141 -0.485330 -0.556781 0.479329 2.070754 -0.210347 0.009117 -0.924368 0.746171 -0.098289 -0.415500 0.298355 0.706949 -0.967518 0.107043 -0.814197 -0.569615 0.157077 0.741477 -0.928527 0.591159 -0.096177 0.347032 0.736980 0.384151
学校 -0.341737 -0.512007 1.054332 -0.438036 -0.134410 -0.540078 0.330508 0.241749 -0.889983 0.007660 0.165874 -0.535751 0.114060 -0.883345 0.583443 0.543366 0.936710 0.435057 -0.483884 0.606466 0.663287 -0.078663 0.084286 -0.562975 0.160739 0.149915 -0.492737 0.395127 0.887302 -0.535652 -0.344967 -0.625423 0.932602 0.073399 -1.672054 -0.411415 0.235872 -0.366819 -0.013211 -1.056798 -0.319569 0.538856 -0.047240 -0.398834 -0.067906 -0.670207 0.001724 0.118995 0.300464 0.414551 -0.115970 -0.323612 -0.091253 -0.825948 -0.457938 -0.445100 1.021130 0.121494 -0.797903 -0.637727 -0.597605 -0.722559 -0.229398 -0.498815 -0.184218 -0.221227 -0.370503 0.065136 -0.348650 0.925056 0.075296 -0.288405 1.512274 0.188444 1.164949 1.067197 0.761462 0.013256 0.444285 0.173644 1.251870 0.095118 -0.915803 1.441835 0.024535 -0.344232 -0.067653 -0.862754 -0.495746 0.323783 -0.188632 -0.103631 -0.498802 -0.227963 0.159476 0.514611 -1.521832 0.674897 0.535483 -0.972323
“ 0.350609 -0.018633 -0.334294 -0.651949 0.161299 1.940148 0.672485 0.273760 0.210176 1.137387 0.044630 0.134699 0.303236 -0.089495 -0.806882 -0.996551 -0.568089 0.962607 0.377402 0.120699 -0.849049 0.327963 0.183609 1.337945 0.192407 -1.049659 -0.346782 2.055561 0.024948 0.421591 1.062163 -0.988535 -0.437694 -0.072420 -1.226857 0.093154 0.455211 0.469794 -0.611021 0.820334 -0.783486 -0.715220 0.160977 0.537221 -1.001588 0.084001 -0.521571 -0.552624 -0.053086 1.208214 -0.005963 0.921462 -0.740509 -0.533436 0.090012 0.849373 0.126071 -0.711826 -0.899640 0.126428 -0.555862 0.881176 -0.487903 -1.326080 -0.165447 -0.114235 1.066588 0.213810 -1.235073 0.438075 1.181497 0.034333 -1.200651 -0.047623 0.613233 -0.109229 0.680650 -0.827246 -0.601344 0.441266 -0.893231 -0.204409 -0.331795 1.734754 1.825393 0.643783 0.804048 0.850037 2.013893 0.837308 0.962590 0.692481 0.115260 0.686918 -0.026093 -0.188487 -1.959156 0.981217 1.548057 0.144403
公办 0.640187 -0.441937 0.351878 -1.215084 -0.338878 0.673931 -0.624568 1.009226 -0.855802 1.205749 -0.400903 0.765196 -0.452830 0.201547 0.818167 0.968822 -0.093630 -0.064159 1.956768 0.368239 0.334301 -0.241720 0.884158 -2.380281 0.347836 -0.766069 0.309717 -0.525986 -0.085377 -0.021769 -0.134573 -0.179392 -1.010086 -1.002921 -1.438778 0.635438 -0.931349 0.078566 1.233604 -0.318479 0.067882 -0.285024 0.073269 -0.054384 0.630508 1.191848 0.173033 0.567125 -0.245862 0.049280 0.379400 -0.508643 -0.049159 -0.509093 -0.403119 -0.550110 -0.139435 0.368981 -1.159542 -0.600478 0.617002 1.878221 0.815342 -0.798141 -1.579659 1.528891 -0.738059 0.644370 -0.965134 -1.341925 0.233974 0.673896 0.005728 -0.901119 -1.017028 -0.533622 0.607899 -1.184311 1.335150 3.066504 1.481843 -0.611618 0.316073 -1.177912 0.605861 0.375974 -0.414571 -0.054113 -0.687394 -0.320593 -1.634982 0.571852 0.405155 0.320639 -0.887191 1.690260 0.013600 1.685711 1.457816 0.711582
为 1.239689 0.330253 1.439313 -0.210938 -0.161839 -1.040661 -0.231432 -0.456646 -0.525906 0.272678 0.746112 -0.321198 -0.537396 -2.070934 -0.047635 0.744531 1.745930 -0.582331 -1.961054 0.557157 0.840934 0.610514 -0.720438 0.381151 0.403231 -1.533046 -0.722201 0.021653 1.172535 -0.306276 -0.132889 0.132137 1.051101 -0.405875 -1.016352 -0.749875 -0.262917 -0.438186 -2.215667 0.318140 -0.466426 0.637734 0.886391 0.299447 -0.130503 -0.314031 -0.039956 -1.962687 -0.388604 -0.120726 0.051027 0.057699 -0.411026 -0.079386 1.346595 -0.015826 0.515909 -1.067980 0.341743 -0.577708 -0.441721 -0.350997 -0.415346 0.513876 0.014508 -0.916512 0.358900 1.098657 0.269918 0.214002 1.603889 0.618844 1.574502 0.420719 1.792295 -0.750156 0.558719 -0.568307 1.107479 0.574887 0.981619 0.276236 -0.310780 0.563500 -0.144695 -0.615095 -0.502886 -0.241238 1.142751 0.261371 -0.564090 0.903397 0.174765 1.133484 0.978345 0.716072 0.247943 0.401415 0.792088 -0.340680
职业 0.441683 -0.704547 1.300580 0.070730 0.542480 0.389001 -0.272680 0.876593 1.034708 1.432554 -0.233099 0.993503 -0.967409 -1.128586 -0.248084 0.481477 -0.738726 -1.181192 1.426399 -0.469030 -1.736653 1.990918 0.734121 -1.956083 -0.532777 -0.127021 0.160767 0.897591 -0.203891 -1.607165 0.602784 -0.361370 0.319287 0.556366 -0.334357 -0.939865 1.089606 0.440801 -0.018837 -1.301942 -0.638274 -0.853985 0.059207 0.412280 -1.099937 0.041143 -0.561020 -0.037704 0.116461 -0.792656 0.095302 0.647958 -0.959504 -0.073315 0.406841 -0.573081 1.428802 -0.440843 -0.825637 1.378120 -0.232180 1.569612 2.388388 -0.034464 -1.377732 1.463976 0.097815 1.601697 -0.982816 -1.224804 0.188872 -1.362273 0.339532 0.548070 -0.488401 0.799668 1.666395 -0.534485 3.146909 3.887652 0.834627 -0.924120 -0.245700 1.105622 -0.443780 0.605210 -0.277906 0.612010 0.399565 0.873730 -0.346616 0.433518 -0.582628 1.234930 -0.415412 1.015407 -0.454970 0.981365 -0.594352 0.323021
” 0.311237 0.242536 -0.831610 -0.442799 0.418330 1.902128 0.797875 0.102951 0.112194 0.590347 0.289693 -0.408110 0.664378 -0.407477 -0.766347 -1.111546 -0.626251 0.736702 -0.377204 0.491496 -0.959315 -0.525522 0.001999 1.963818 0.190367 -1.211666 -0.791922 1.721194 -0.006934 1.102077 1.100568 -1.464825 -0.162711 0.460134 -0.819223 0.348944 0.914362 0.762859 -0.682305 0.693868 -0.263783 -0.824137 0.680527 0.266920 -1.374853 -0.910649 -0.580306 -0.356159 -0.040220 2.244700 0.080778 1.423894 -0.407076 -0.556944 -0.072189 0.438608 -0.227412 -0.442503 -0.955240 0.263412 0.137464 0.694153 -0.128564 -1.310514 -0.418265 -0.077185 1.059878 -0.327233 -1.477290 0.313372 1.277204 -0.486150 -1.510106 0.047043 0.848943 -0.596360 0.669276 -0.533989 -0.963338 -0.134263 -1.054225 0.478065 -0.563294 1.564177 1.232653 0.568016 0.190858 0.913962 1.574617 0.988741 1.152782 1.256434 0.415973 0.929414 0.155040 -0.315874 -1.154531 0.624355 1.259309 0.008573
大学 -0.081778 0.092477 0.149142 -0.127557 0.953209 -0.650473 0.720513 0.341094 -1.905634 0.242680 -0.329563 -0.193390 0.890351 -0.405555 2.017312 -1.139468 0.030594 0.476219 -1.002715 1.368555 -0.447167 -1.456214 -1.427262 -1.087632 0.113197 0.015502 -0.183202 1.533350 -1.595889 0.502907 0.678646 -0.126034 0.792425 -0.210695 -0.271633 0.372976 0.485600 0.928894 0.348718 -0.150972 1.766756 -0.410429 -0.058036 -0.404495 2.129412 -0.890869 -0.447912 -1.097547 -0.644926 -0.322691 0.016091 1.028240 -1.114498 -0.698718 -0.814901 0.733513 -0.612410 0.399567 -0.367153 -1.201383 0.207648 -0.193136 -1.291911 -0.731906 0.309449 0.417474 -0.809750 -0.121205 1.593008 0.574898 -0.428971 1.243010 -0.225881 2.102483 0.189915 -0.734109 -1.305828 -0.532201 -0.335764 0.832991 -0.047962 0.431190 -1.205085 0.755012 0.441364 0.134909 -0.462826 -1.247159 -0.906766 -1.012590 -0.351971 1.948676 0.939406 -0.941544 -0.006786 0.463869 -1.414681 -1.188076 -1.008336 -0.115187
高职 0.492572 -0.322942 1.815463 -1.104433 -1.131066 0.772451 0.230749 0.876622 0.108849 1.875714 -0.124261 1.007191 -0.240777 -0.887766 0.377893 -0.137040 -0.124171 0.088682 1.139750 0.287844 -0.956213 2.164815 1.019865 -2.490142 0.479033 -1.254043 1.118329 -0.645268 -0.841678 -1.083354 -0.820537 -0.163093 0.038089 0.708492 -0.617669 -0.509781 -0.045562 -0.953804 1.626753 1.299222 0.073644 -0.956620 0.581280 -0.082080 -0.849167 -0.187332 -0.627928 -0.522485 0.343524 1.007037 0.445321 -0.105470 -0.731696 -0.474722 0.013389 -0.615601 1.019934 -0.331757 -1.115968 0.709081 -0.375126 0.141076 2.586587 0.296370 -0.553872 0.872425 -0.716690 1.023185 -1.068687 -1.168023 -0.008834 -0.686720 0.019987 1.711710 -1.231484 0.424887 2.240224 -0.569741 0.462954 3.177270 1.519105 -0.442413 0.020169 -0.185594 0.480494 1.343208 -0.522216 0.146177 0.333661 0.665251 -0.056614 1.051355 -0.823397 0.919204 0.616906 1.571327 0.588657 0.731409 1.370642 -0.748089
教育部 -0.222442 0.007668 -0.121460 -0.848294 -0.324890 -0.141111 -0.516148 1.394946 -0.076674 0.253035 0.949822 1.261222 0.058410 -0.249636 0.652111 0.890114 0.027152 -1.171576 -0.515609 1.603506 -0.815233 -0.496074 0.158542 -0.934470 -0.590288 -0.575437 0.363053 0.167683 -0.737918 0.293494 0.037959 -0.548450 0.553055 -0.506627 -1.281645 -1.353240 -0.322988 1.250872 0.874263 -0.276113 0.670258 -0.829824 0.866217 -0.008227 -1.052990 -0.316166 -0.422832 -0.539734 0.756117 -0.180362 -0.817321 0.816365 -0.095020 -0.791359 -0.571977 0.253374 0.482901 -0.814530 -1.280863 -0.539357 -0.749568 1.085232 -0.815550 0.529160 -1.617679 0.777670 -1.390299 0.580391 0.869867 -0.997798 1.109206 1.218147 -0.941781 1.319483 1.647082 -0.321484 -0.716424 -0.270640 0.594078 2.063175 -0.742308 -1.215690 0.259433 0.973130 0.630099 0.106651 0.274925 -0.098730 -0.181706 0.722298 -1.520169 -0.169534 0.664828 1.587725 0.394231 -0.445863 0.475919 0.837423 0.235483 -0.174686
院校 0.325596 -0.056405 1.327777 0.032418 -0.198684 1.121065 0.833309 0.653023 0.154406 -0.662889 -0.594358 1.424732 -0.364655 -0.806153 -0.093731 0.627883 -0.499565 -0.602785 0.306051 -0.159204 0.211751 0.807953 1.378214 -1.695204 -0.776776 -0.303822 -0.255757 0.417975 0.066932 -0.508224 -0.569993 -0.825296 0.153759 1.086515 -1.732204 -0.636454 0.732531 0.221817 0.569387 -0.552419 -0.496878 0.049202 -0.288971 -0.665256 -1.473835 -0.202368 -1.094496 -0.395593 -0.413978 0.128621 -0.245624 0.694768 -0.946793 -1.177300 0.767171 -0.425796 0.832011 -1.400637 -1.386827 0.042780 -1.084555 0.826042 1.436346 -0.023004 -0.492471 0.139416 0.610123 1.178865 0.435593 -0.804276 0.208186 1.260167 -0.189337 1.108324 0.120413 1.116435 0.953527 -1.199572 -0.536841 1.667447 0.300500 -0.564764 -1.222271 1.433259 0.169527 0.202148 0.266255 -0.727973 -0.596031 1.577462 -0.237993 -0.471805 -0.138092 0.894658 -0.299219 0.379781 0.003015 0.417717 1.506421 -0.151333
技术 1.677749 0.076018 0.743117 -1.133783 0.151409 0.163143 0.090692 1.065241 -0.166529 1.672710 0.732480 0.260321 -0.293770 -0.123700 -0.739057 1.637938 0.131045 0.355499 0.696159 -1.279014 -0.509945 0.666481 -0.284081 -0.317457 -0.392908 -0.440544 0.491716 0.079212 -0.060083 -0.419401 0.045272 0.505249 -0.383272 -0.063921 -0.243238 -0.507718 -0.520997 0.416357 0.810111 -0.995080 -0.222944 -0.852598 -1.073686 0.257094 -0.868864 0.770662 -0.954951 -1.032191 -0.580821 0.571068 1.265389 0.887009 -0.825694 -0.629063 1.283418 -0.553120 0.408585 0.336260 -0.887201 1.045154 0.981481 1.539597 1.743111 -0.699444 0.209747 1.364699 -0.776884 1.634710 -1.253428 -1.469789 -0.258465 -0.955640 0.302668 0.897337 -1.506339 0.522425 0.306640 -1.735156 1.661899 3.545770 1.037327 -0.238879 0.426426 -0.723904 0.547465 1.946458 -0.452187 0.475356 0.923003 1.420406 -0.402964 0.660312 -0.758417 2.663752 -0.175631 2.390559 -1.001470 0.356151 -0.780029 -0.678600
国家 -0.772463 -0.597653 -0.730386 -0.691411 0.126174 0.908171 -0.567025 1.097330 0.938010 0.402539 -0.115703 1.631763 0.090418 -0.383864 0.206802 0.066707 -0.797755 -0.293985 -0.697892 0.338157 -1.013337 -0.191563 0.060718 -1.041917 0.280530 -0.411169 -0.727556 0.363437 -1.009741 0.093693 0.347133 -0.926849 0.314615 0.216029 -0.949718 0.135677 1.712004 0.654947 0.624470 0.166445 0.220777 -0.528676 0.602509 0.687854 -0.240124 0.500462 -1.488277 -1.185771 -0.719457 0.191183 -1.551037 0.762413 -0.786856 -0.859786 0.371079 0.173226 0.628635 -0.292707 -1.252851 0.665700 -0.815649 1.254405 0.299570 0.029332 -0.867814 0.434776 -0.045634 0.283156 -0.592166 -0.345296 0.605636 0.985046 -1.162480 2.012521 0.828674 -0.130427 -0.712062 -0.850368 0.402687 1.144403 -0.301962 0.190662 -1.050057 2.729053 0.429476 0.352743 0.989194 -0.565369 -0.578998 1.936633 -1.354088 -0.848737 0.298383 1.529576 -0.157909 -0.005049 0.003250 0.551831 -0.731011 -0.584020
批准 0.601974 -0.182039 1.250107 -0.174144 -0.102013 -0.994620 -0.360888 1.482777 -0.318211 0.570472 1.279222 1.171093 -1.070074 -0.804191 0.449054 1.188532 0.080362 -0.750513 -1.930177 0.151697 -0.254534 0.230291 -0.515821 -1.627079 0.105215 0.371548 -0.070880 -0.162838 -0.135367 1.391112 0.415637 0.054022 0.191091 -0.482032 -0.312116 -1.002797 1.119116 1.134426 0.071215 -1.071658 -0.468823 -0.797727 0.844200 0.587032 -0.857373 -1.452722 -0.553151 -0.909403 -0.480347 -0.767091 0.312181 -0.382928 -0.358304 -0.497263 -0.806769 -1.134267 -0.491202 -0.721181 -0.984187 -0.622804 -0.169798 0.373783 -0.678218 0.139479 -2.388374 1.369273 -2.148387 1.087076 0.079959 -1.407237 1.435271 0.418737 -1.079491 -0.077619 2.125888 0.590399 0.319872 -0.803451 0.426437 3.136648 -0.804102 -1.738462 0.042192 1.177504 0.259535 0.320682 0.451369 0.291977 -0.307743 0.238071 -1.221038 -0.430747 0.251143 1.961784 0.668098 0.609913 0.941620 1.386888 -0.223728 0.136641
和 0.276505 -0.107988 -1.109696 -0.144679 0.346669 0.237101 0.709337 0.532484 -0.427601 -1.635948 -0.090425 0.196024 0.857564 -1.050730 0.685561 -0.133337 0.352276 0.155775 0.109368 0.646822 0.590854 -1.036150 -1.002225 0.387320 -0.045209 0.435510 -0.102059 1.461022 -0.215533 -0.319100 -0.280055 -0.168691 0.229075 -0.270499 0.011969 0.422313 0.355937 0.531386 0.354899 -0.344479 -0.655390 0.015685 -0.340452 1.085100 0.619138 0.665949 0.327381 -0.110546 0.098206 0.007809 -0.499349 0.933168 0.314203 -0.921700 0.039198 0.256069 0.437877 0.524843 -0.357911 0.115913 -1.140824 0.469571 -0.203580 -0.119304 0.018809 -0.250943 0.340909 0.060188 -0.058916 0.946191 0.158169 -0.010671 0.761226 1.274798 -0.135250 0.814015 0.022523 -0.108863 -0.642501 -0.523248 0.343674 0.674055 -0.739125 0.403306 -0.200804 -0.442803 -1.179505 -1.275565 -0.442754 0.479465 -0.748656 -1.240289 -0.544838 0.035685 -0.359071 0.611795 -0.714706 -0.218481 -0.035317 -1.344783
专科 0.276635 -0.767606 0.948122 -1.884880 0.313837 0.464427 -0.484500 0.520469 0.827736 1.738487 0.400690 0.449556 -1.062312 -1.372122 -0.164725 -0.039980 -0.547227 0.743166 1.761890 -0.406056 -0.754990 1.443124 1.227123 -2.357283 -0.033091 -1.275367 0.878971 -1.746426 -1.119031 -0.932426 -0.064237 -0.225489 0.203190 -0.250650 -0.725168 0.084982 -0.176414 -0.032888 0.880723 -0.565313 -0.003787 -1.493233 0.503622 -0.026599 -1.144318 -0.066730 0.557623 -0.384073 0.440534 0.715945 0.386184 -0.144805 -0.559385 -0.927553 -0.079949 -1.421196 0.579075 -0.245797 -0.318249 0.244437 -0.132417 1.674010 1.706562 -0.245085 -0.986140 1.725419 -1.678122 1.336141 -0.081564 -0.702477 -0.251092 -0.779387 0.671438 -0.348660 -1.258474 -0.465814 1.949344 -0.943033 1.628677 3.155368 0.716319 -0.596317 0.630726 -1.153692 -0.309652 -0.007856 -0.379861 0.606115 0.288319 0.474399 -0.455193 0.065299 -0.147056 1.292960 0.006449 1.218551 0.770361 0.733026 1.212345 -0.867600
于 -0.249967 -0.151530 0.026205 0.700424 0.218288 -1.146570 0.473723 1.269730 -0.412210 0.929348 -0.463158 0.682896 -0.610216 0.231507 0.418821 0.799883 1.268582 0.144127 -0.843036 0.104977 -0.196360 -0.222960 -0.683697 -1.516944 1.261943 -0.799832 -0.898436 0.172697 1.237988 -0.926440 -0.468071 -0.657796 -0.020007 -0.769119 -1.107985 -1.101726 -0.768955 0.359227 -0.500134 -1.411142 0.513610 -0.138172 0.224468 -0.817609 -0.808932 0.132238 -0.966016 0.485081 0.465341 -0.438128 -0.497068 0.176425 0.239256 0.744454 -0.709664 0.308901 0.020314 0.338160 -0.268626 -0.407183 0.104134 0.350425 0.056473 -0.267872 0.010714 1.279989 -0.519323 -0.645241 -0.786984 -0.081406 -0.248004 1.192103 0.936776 1.035552 0.459564 -0.407992 -0.604312 -0.840003 0.810546 1.766085 0.315719 0.337805 -1.589379 1.032441 -0.801707 0.744400 0.350471 1.049985 -1.176541 -0.638250 -0.852179 0.682246 -0.893709 0.874017 0.053525 0.826159 -1.629684 0.470814 0.381017 -0.140587
高等 0.102077 -0.991536 1.014281 -0.441940 -1.497423 0.897757 0.550371 0.953125 -0.379460 -0.135503 0.349996 1.944703 -1.296304 0.777371 -0.101946 1.219019 -0.381277 0.219442 -0.246588 0.037552 0.450898 0.500795 0.379140 -2.226013 -0.589489 -1.154917 -0.615130 0.012451 0.916911 0.152715 -0.211640 0.623332 0.378728 0.929251 -0.504279 -0.942565 1.026081 0.191959 0.453119 -1.887165 -0.313826 -0.695845 -0.698873 -0.185920 -0.922080 0.933832 -0.634011 0.294263 -0.801929 0.898022 -0.309424 0.936135 -1.111275 -0.585143 1.005858 -1.368389 0.717861 -0.939998 -2.070950 0.258478 -1.033100 0.853643 1.631769 1.199468 -0.578077 0.448151 0.375227 0.906260 -0.712125 -1.082124 0.499389 0.753041 0.285116 1.604485 0.118740 1.465041 2.065527 -0.918508 -0.304635 1.958539 -0.225318 -0.437695 -1.431562 1.160693 -0.515011 0.451801 0.428833 1.221613 -0.758544 0.278533 -1.067605 -1.313010 -0.866958 1.165836 -0.181861 1.083853 0.426034 -0.017302 1.120769 -0.756462
全日制 -0.307095 -0.712583 0.641759 0.116830 -0.006353 -0.143384 -0.108287 2.231625 -0.038819 -0.534600 0.935431 1.498059 -1.218002 -0.701072 0.075769 1.381332 -0.502923 -1.225491 -0.098104 0.464524 -0.224533 -0.161345 0.210088 -2.509037 -0.528251 0.610676 1.408336 -0.834408 0.234185 -0.811843 0.125464 0.635598 -0.797276 0.036225 -0.719821 -1.750016 0.440731 0.905615 0.625286 -0.099307 0.664434 0.216282 -0.367021 -0.333190 -0.761239 -0.457063 -0.195291 0.842507 0.167547 -0.379567 -0.241733 0.207927 -0.064604 -0.438430 0.605485 -0.667438 0.569211 -0.104831 -0.578739 -0.288672 -0.422374 0.676503 -0.494965 0.351012 -1.492502 1.461672 -0.329312 0.841160 -0.123950 -0.476003 0.579480 0.964733 -0.402507 0.159943 0.225044 1.630631 0.920563 -0.299706 0.412553 1.986687 -0.447130 -0.705473 -0.428280 0.749711 -0.169607 0.967019 0.252650 -0.148054 -1.901396 0.890819 -0.188928 -1.100038 -0.542541 1.904820 -0.960818 0.334246 -0.516875 0.893867 0.770840 1.069751
所 0.463422 -0.674183 0.427261 0.247464 -0.508343 1.308244 1.255097 0.831020 -0.324444 -0.487013 0.561099 1.220382 -0.489988 0.138845 0.247250 0.554963 -0.786719 -1.130042 1.376010 -0.135991 -0.078654 -1.537999 0.560484 -1.747845 -1.269525 -0.261408 0.279619 0.668996 0.729015 -0.381162 -0.263363 0.089433 0.363230 -0.354930 0.151274 -0.703293 1.214658 0.533748 -0.113575 -1.810091 0.853910 -0.780154 -1.603120 -0.419389 -0.448092 -0.416772 -0.997045 0.408900 -0.170899 -0.330589 0.139079 0.907041 -1.167500 -0.056440 0.545087 -0.174511 0.662654 -0.708411 -1.001282 0.511910 -0.187339 0.934465 0.494884 0.354483 -0.414435 0.630011 0.465021 1.222560 0.957335 0.030467 0.562820 1.061465 0.788509 1.209719 -1.046764 0.895523 1.138269 -0.191847 0.381752 2.289183 -0.870533 -0.495223 -0.509286 1.268889 0.510356 -0.295031 0.087530 0.483973 -1.270880 0.245520 -0.388779 -0.378083 0.266852 -0.473896 -0.876221 0.303638 -0.568164 -0.854247 0.188079 1.197781
职业学院 -1.323793 -0.632299 -0.985602 -1.020756 -0.507136 0.489186 -0.656557 0.891215 -0.318338 -0.045334 1.957470 1.279427 -1.068929 -1.368636 0.041102 0.833401 -0.744546 0.666943 0.967057 0.689843 -0.595037 0.039466 0.744708 -3.469551 0.157634 -1.523009 0.472623 -2.422837 0.845219 -1.200642 -0.355749 0.385645 1.531684 -1.665724 0.508599 0.277111 -0.311469 -0.318039 0.658719 0.299702 -0.464230 -0.155545 1.451103 -0.942405 -0.746897 -1.663047 -0.278755 -0.069874 0.333897 -0.309260 -0.298643 -1.457866 -0.111936 -1.528738 -0.033487 -0.454675 -0.747551 -0.936021 -1.166040 -0.101786 0.204229 0.868745 0.598835 -0.378763 -2.492132 2.431025 -2.658874 0.846541 -0.739753 -0.981957 1.107714 0.150851 0.167695 -0.232022 1.369497 0.020280 0.469353 -0.877309 0.730878 3.119838 -0.069551 -1.639933 0.889201 0.474486 0.408641 0.319749 -0.757799 1.011145 -0.075209 0.202800 -0.883774 -0.497391 -1.103241 1.610098 0.029155 1.086467 1.228038 1.424692 0.914323 -0.423151
普通 -0.209531 -0.910901 0.376627 -0.399075 -0.252100 0.249286 -0.252730 1.832347 0.513670 -1.028895 0.338349 1.636890 -0.941214 -0.711555 0.449759 1.123565 -0.253228 -0.889814 -0.653812 0.348826 0.055982 0.284972 -0.299466 -2.357098 -0.734180 0.208421 0.553074 -1.910747 0.939621 -0.098993 0.059581 0.976702 -0.455050 -0.300003 -0.814658 -1.992473 0.116633 1.644035 -0.207429 -0.848151 0.951956 -0.638671 -0.569750 -0.631086 -1.037026 -0.198856 0.072045 0.197649 0.439150 -0.994925 -0.053284 0.245926 -0.198160 -0.258550 -0.004033 -0.383996 0.382007 -0.364807 -0.489807 -0.878221 -0.779058 1.152928 -0.932855 0.621038 -1.974329 0.597241 -0.898822 0.269167 0.603104 0.014935 0.831971 1.276546 0.284360 0.298199 0.291723 0.635001 0.871809 -0.862978 0.227943 2.385176 -0.294919 -0.516730 -0.373979 0.677142 -0.203064 -0.349625 0.930248 -0.043420 -1.518289 0.732722 -0.120380 -0.540975 0.084347 1.971410 -0.151391 0.366513 0.403508 1.413013 1.324062 1.506754
高校 0.069377 0.215382 -0.402929 0.152106 0.826330 0.277182 0.657187 1.564009 -0.928568 -0.425847 -0.417673 0.070389 1.633657 -1.013004 0.554492 -0.690359 -0.169928 -0.974300 -0.352526 1.878826 -0.333845 -0.688311 -0.809266 -1.135585 -0.795618 -0.113830 1.086254 1.228151 -1.134930 0.038964 0.049892 -1.124715 0.203181 0.047550 -1.533496 -0.124255 0.305822 1.407838 1.152465 0.387878 1.289998 -1.467382 0.937199 0.259478 -0.448483 -0.324231 -1.346882 -0.962691 0.779010 0.064354 0.067836 0.771692 -0.932389 -0.231500 -0.595108 0.819882 0.538038 -0.526877 -1.687879 -0.442553 -1.581011 1.074354 -1.425047 -0.882982 0.285226 -0.276803 -0.703802 0.785479 0.506246 0.452463 0.722534 1.944483 -1.105074 1.486933 0.920571 -0.784320 0.319845 -0.643666 -0.957519 -0.121471 -1.095798 0.780202 -1.042528 1.838745 0.880983 -0.601544 -0.522049 -2.024347 -0.772739 0.627035 -0.748434 -0.631726 0.955662 -0.019047 0.536296 -0.402130 -1.119924 0.571653 0.749908 0.403156
建设 1.102710 0.072517 -0.538665 0.067004 0.846699 0.464441 0.305324 0.871008 -0.657421 0.482274 -0.071525 -0.029377 1.396967 -1.496567 0.443285 -0.805393 -0.006883 0.282163 0.846242 0.784531 0.852072 -0.098642 -0.552312 -0.844455 -0.504795 -1.371347 -0.677571 1.643600 -1.296826 0.242141 -0.613667 -1.429575 -0.163260 1.691569 -2.958513 0.694286 -0.103300 0.210283 1.153959 0.342617 0.995872 -0.118552 1.017468 0.618843 0.576398 0.589513 -1.274870 -1.451337 -0.067333 0.538811 -0.775601 1.005705 -0.577186 -0.717375 0.483208 -0.239255 2.212924 -1.419438 -1.499144 0.430548 -1.285275 0.412783 0.650336 -0.405460 -0.023965 -1.021297 1.285457 0.662207 -0.827089 -0.156251 -0.689036 1.194492 -1.718219 1.596846 -0.218823 0.455494 0.511827 -1.118373 -0.945959 -0.619725 -0.670608 0.797937 -0.336091 2.031280 1.364872 -0.333415 -1.008757 -2.223019 -0.255021 1.139602 0.282819 -0.037764 0.956297 -0.261615 0.379182 -0.580922 -1.043358 0.662066 1.010342 -0.643572
一 -0.065000 0.747371 -0.460145 0.442365 -0.855852 1.349470 0.192425 1.078390 -0.561479 -0.006476 -0.022658 1.127877 -1.283806 -0.015816 0.101908 0.204130 -1.511794 -0.416789 1.243623 -0.468796 0.368021 -1.296243 -0.313193 -1.472926 -0.954559 -0.320596 0.270015 0.670943 0.944730 0.332612 0.319802 1.391448 -0.866913 -0.791422 0.398859 -0.565046 0.220830 1.539358 -0.342522 -1.277932 0.992639 -1.014607 -1.665795 -0.452330 -0.714400 -0.062555 -0.028239 0.095863 0.288901 -0.580314 0.856505 1.015826 -0.408623 -0.987685 0.928572 0.026462 0.061237 0.112664 -0.882244 0.144271 0.823947 1.407826 -0.198682 0.654689 -1.644598 0.055934 -0.449138 0.595123 0.291654 0.404940 0.434832 0.956543 0.240227 1.158399 -1.473450 0.696656 0.707094 -0.953072 0.461770 1.086480 -0.464562 -0.822366 0.185723 0.167250 0.133039 0.037512 -0.105717 0.043781 -1.311636 -0.145847 -0.861700 -0.666029 -0.609710 0.215368 -0.705438 -0.122835 0.108748 0.053104 1.942989 0.980318
经 -0.253591 -0.131485 0.656429 -1.368679 -0.521122 -0.817253 -0.838316 0.607850 -0.499052 -0.097108 1.642903 0.524026 -0.654990 -0.852951 0.162331 1.667409 0.598891 0.065839 -1.876223 0.406088 -0.229692 -0.804372 -0.613781 -1.785288 -0.653168 -0.819292 0.379441 -0.642643 -0.047330 -0.053893 -0.163826 0.330727 -0.039325 -1.185315 -1.224362 -0.879021 -0.266470 0.159342 -0.329993 -0.356895 0.533303 -1.293763 0.114820 -0.224251 -0.031043 -1.401180 0.235844 -0.640712 -0.037324 -0.472732 -0.238815 -0.230409 -0.468558 -1.196732 -0.246831 -0.322697 0.180249 -1.027010 -0.876092 -0.440068 -0.180305 1.008352 -0.542784 -0.321050 -1.537912 1.708105 -2.070912 0.300966 -0.193864 -1.017880 1.183635 0.969164 0.031061 0.253927 1.293396 0.775368 0.073719 -1.251137 0.802528 2.601617 -1.285855 -1.292621 -0.209713 1.182131 0.222357 0.130867 0.959673 0.535857 -0.456077 0.240928 -0.957172 -0.032099 0.103715 1.826923 0.842779 0.589077 0.775820 0.796270 0.412377 0.580449
普通本科 0.324726 -0.128817 -0.843038 -0.758106 -0.629261 -0.388534 0.284565 0.073792 -0.975531 3.009550 -0.447719 -0.190568 0.193848 0.459951 1.626905 -0.629304 -1.571848 1.055574 0.362877 0.944514 -0.363415 -0.800419 -0.206258 -2.306772 0.413321 -1.354334 1.011101 0.650299 -2.738713 1.387789 0.583267 -0.295940 -0.557523 -0.658337 -1.011968 -0.182735 -1.609236 0.311416 0.660252 0.779117 0.630343 -1.827207 0.573339 -0.820646 -0.534673 -0.621018 -0.241215 -0.539105 0.248498 -0.325868 1.123868 -0.127918 0.695685 0.470813 -2.734409 0.844952 -0.997543 1.407919 0.058532 -0.825020 1.052013 0.823541 0.343300 -0.929740 -0.197705 1.161813 -2.198400 -1.179939 1.373197 -0.024534 0.390919 1.645536 -0.159168 0.214578 -1.295512 -2.055528 -1.125250 -1.455053 1.640544 2.219322 2.162717 0.555942 0.636507 -1.733507 0.277986 -0.284835 -1.012188 0.752366 0.338780 -1.752769 -1.010226 2.184863 0.851659 -0.475194 2.383394 0.645555 0.469802 1.119574 1.633562 -0.030909
办学 1.102282 -0.069387 1.249061 -0.085206 -0.935226 -0.430347 1.255646 -0.535209 -0.619535 -0.978865 -0.093830 -1.555212 -0.617872 -1.715707 -0.093147 -0.384185 1.430598 -0.332443 -0.336211 -0.962433 0.737968 0.363657 -1.656658 -0.282998 0.810875 -0.137030 -0.195394 0.197940 0.464529 -0.857054 -0.542172 0.451046 -0.158299 -1.689872 0.684319 -1.183010 0.117974 0.264464 0.864656 -0.937286 -0.234685 -0.365449 -0.842529 0.797085 -0.404860 -0.141843 1.111526 -0.123593 1.014101 1.196178 0.007683 1.370370 0.702945 -1.479162 0.499820 -0.588964 0.811894 -1.150473 1.019141 -0.341081 -0.222765 -1.100934 -0.981775 -0.079796 -0.388585 -0.580081 0.100072 0.535420 -0.709476 0.866122 0.489182 0.321262 0.514702 0.199881 -0.979816 0.775852 1.230236 -0.662804 -1.002777 -0.160168 -1.262381 -0.456987 -0.305471 0.060144 1.188826 0.277433 1.121272 -1.138063 -0.598876 0.391525 -0.148880 -0.907258 -0.262465 -0.394966 -0.369523 1.038032 0.653821 0.164356 -0.037528 -0.401572
全国 0.660705 -1.579136 0.512911 -0.944703 -0.398744 1.494631 0.733058 0.164357 0.989484 -0.379013 -0.158187 1.535636 0.731027 -0.565221 0.191626 -0.534641 -1.358373 -0.255935 0.011913 0.350583 -0.379438 1.128403 0.836757 0.409077 -0.740480 0.353853 0.607368 0.298176 -0.326264 -0.370270 -0.275650 -1.658582 0.008624 0.608380 -0.945425 -0.903201 1.791182 -0.771120 0.046598 1.717137 -0.134624 -1.123883 -0.201352 -0.607248 -1.429357 -0.098369 -0.977314 -1.011668 -0.506093 -0.457269 -1.129045 -0.328736 -1.464592 -0.715975 0.380942 0.671749 0.797527 -0.781223 -1.337321 0.149160 -2.064533 0.739833 0.544996 -0.126530 -0.133508 -0.491105 0.259844 0.393611 0.451700 0.285510 1.187161 0.881167 0.250457 1.116741 -0.177473 -0.562739 0.195030 0.188252 -1.446876 0.985640 0.114111 0.373533 -1.381339 1.678312 0.773608 -0.271576 -0.553155 -0.492807 0.367157 1.175311 0.032461 -0.178860 0.608369 0.254383 -1.178571 -0.326401 0.431342 0.260470 0.023418 0.086339
人民政府 -0.466203 -0.086239 -1.156351 -1.572628 -0.047861 0.637611 -1.013331 1.522200 -0.373990 0.151563 0.951061 1.515619 -0.851487 -0.397126 0.632385 1.792556 -0.446945 -0.479040 -0.635070 0.663257 -0.625866 -0.623246 0.023855 -2.845800 -0.399271 -0.385172 0.103829 -1.550055 -0.158426 0.008389 0.312636 -0.054220 0.037354 -0.381333 -0.707887 -0.886139 -0.214894 0.599745 0.579222 -0.309740 -0.524685 -0.280627 0.328847 -0.346951 -0.615505 0.176826 -0.063042 -0.113984 0.827740 -0.310708 0.114687 0.289230 -0.516534 -1.064044 -0.647611 -0.309080 0.516027 -0.184951 -0.665394 -0.222658 -0.473003 1.897843 0.417547 0.576682 -2.258875 2.048432 -1.991524 0.719312 -0.009438 -0.649165 1.124771 0.263814 -0.291569 1.167133 1.582186 1.572604 0.389120 -0.850583 1.355343 3.169581 -0.692168 -1.711711 0.057835 1.374691 0.072292 0.400230 0.233222 0.454791 -1.000978 1.530581 -1.314678 0.025214 -0.583754 1.218752 -0.250134 1.160150 -0.142863 0.812769 0.750118 0.247958
本科 0.102851 0.122590 1.320861 0.204820 0.075077 -1.125287 0.322797 0.825318 -0.727652 -0.752640 -0.265823 0.477097 0.520750 -1.132974 0.880768 1.024273 0.488407 -1.296831 -1.228845 0.815735 0.488725 -0.264845 -0.885991 -0.969048 -1.303442 0.700584 0.696568 0.973802 0.056147 0.632245 -0.192614 0.480618 -0.721803 -0.425528 -1.227006 -2.113243 0.110911 0.980226 -0.741313 -0.305307 1.103309 -1.149595 -0.554720 -0.181500 -1.709432 -1.240880 -0.001401 -0.688846 0.120681 -1.038636 0.143938 0.214694 0.404038 -0.119809 -0.259228 0.262454 -0.320874 -1.496434 -0.511919 -1.125218 -1.126243 1.021956 -2.154144 0.244787 -0.625176 -0.335481 -0.958124 0.506263 0.844967 0.174624 0.320666 2.558336 0.286083 0.303814 0.855070 -0.858938 0.814168 -0.869649 -0.071228 0.902613 -0.668402 -0.535767 -0.895002 -0.992829 0.957868 -1.408847 -0.060274 -0.985105 -0.661936 -0.066199 -0.677879 -0.252657 0.515317 0.569547 1.264066 -1.415044 0.129030 0.748584 2.116558 1.381098
月 0.322178 0.721595 1.439314 -0.233527 1.409837 -2.636633 -2.026872 1.417944 -0.890327 0.977497 3.300052 -0.564933 -0.651924 -1.664826 1.322356 1.085500 0.322098 -1.023971 -1.224547 -0.283498 -1.354980 0.518455 -0.648882 0.393578 -0.663796 0.715856 -0.566855 -0.229678 0.060146 0.684938 -0.198300 -0.370577 -0.207108 -0.002474 -1.062480 -0.336425 0.022295 -1.520659 -0.812701 -2.891022 -0.184598 1.387882 1.325543 1.215154 0.973580 0.362028 -0.799794 -0.820848 -0.623419 -0.734493 1.143056 0.174522 0.440510 -1.318568 -1.154157 -1.292146 0.345757 -0.320490 0.162013 -1.118103 1.127468 0.797435 -0.247303 0.578099 -1.065358 0.098167 -0.497567 2.018665 1.695680 -1.301746 -1.177630 0.349738 0.825516 0.857207 1.501090 0.495231 -1.256290 -0.401629 -0.618091 1.618707 -1.033131 -1.150731 0.629379 1.988605 0.224885 0.977905 0.043983 -0.030403 -0.421881 0.091985 -0.507222 0.640497 0.878387 -0.222451 -0.132631 -0.396459 -0.781858 -0.105125 0.133890 0.100641
教育 0.548652 -0.461512 0.630718 0.742258 -0.018245 -0.293789 0.565845 0.505428 -0.106568 -1.671881 -0.393088 1.326935 0.717378 0.222097 0.514225 -0.893308 0.975542 -1.230794 0.396694 0.407683 0.780762 -0.280201 0.593330 -0.501702 -1.145076 0.650550 0.550643 0.278431 -0.542386 -0.005323 0.400374 -0.196327 0.407766 0.161957 0.159902 -0.553273 0.857554 -0.193894 0.565244 1.127220 -1.380114 -0.808849 -0.132773 0.296459 0.011196 0.306153 0.128357 -0.224210 1.503986 -1.322871 -1.217894 -0.044694 -0.275810 -0.902852 0.501436 0.617451 1.312457 -1.288316 -0.846516 0.023751 -1.510068 -0.701569 0.723519 0.162440 0.127223 -0.044011 -0.199477 0.846787 0.187815 1.702704 1.458001 0.542127 1.287892 1.221103 0.306307 1.741061 0.733233 -0.348573 -1.889468 -0.579300 -1.279292 -0.325717 -1.849623 -0.247929 -0.480019 -0.276261 0.299718 0.926711 -0.377609 -0.434366 -0.774419 -1.646667 0.227895 1.484902 -0.247901 0.134151 0.532548 -0.575771 -0.362918 0.731284
单位 1.643100 -0.689520 1.551281 -0.011854 1.860864 0.314261 0.251336 -0.485153 0.371754 0.834426 -1.765709 -0.058744 1.162101 -0.571250 0.862261 0.240194 -0.221751 -0.262259 -0.121471 0.379292 -0.296465 1.946545 0.957477 -0.191119 -0.368021 0.257375 0.992962 1.491879 -1.789587 -0.642093 -0.464576 -2.481393 0.464213 1.481504 -2.913568 0.129789 0.484977 -0.963427 1.402769 1.988119 -1.135565 0.302806 0.930310 0.834711 -0.755804 -1.477185 -0.679960 -1.820468 -0.656526 0.762389 -0.722225 -0.754086 -0.881006 -0.891275 -0.884788 -0.246332 1.284643 -1.391377 -1.289728 0.488265 -2.396620 0.327779 1.623209 -0.615463 -0.639320 -1.030394 0.844901 0.833046 -1.353715 -0.373605 -1.229895 0.160096 0.317718 1.548669 0.163311 0.726157 0.646037 -1.623731 -1.703038 -0.497951 0.767196 0.551003 -1.851415 0.086608 1.086556 -0.966468 -0.876414 -2.482045 0.715475 0.788207 0.060793 0.458249 0.982874 -0.148864 0.440129 -0.584592 0.362677 1.566327 1.324813 -0.920351
民办 0.547054 -0.176834 0.896360 -0.564445 0.018874 -0.874177 -0.494989 0.110111 0.130616 0.806016 0.250988 1.005302 -0.373026 -0.276498 -0.299550 -0.148378 0.401550 -0.223034 -0.153804 -0.064159 -0.166222 0.017686 -0.588130 -1.695076 0.336802 -0.297128 1.062942 -1.180760 -1.063971 -0.574008 -0.118621 0.518605 0.552521 -1.704296 -0.038521 -0.707294 -0.122696 0.090469 1.105552 1.386733 1.486287 -1.094916 0.367142 -1.029883 -1.107991 -0.661214 -0.153438 -0.721961 -0.550719 -1.082420 0.010308 -0.898019 0.359615 -0.373785 -0.053192 0.753260 -0.469023 -0.700606 0.059642 -1.237607 -0.465754 -0.662801 -1.016064 -0.557252 -2.030653 0.570798 -1.510941 -0.290354 -0.243261 -0.659810 1.637205 1.623694 -0.504360 -0.634133 -0.281767 -1.316734 -0.614336 -0.874150 1.055429 2.660566 -0.381385 0.125480 0.391567 -1.492645 0.586782 0.819357 -0.037619 -0.639470 0.230462 0.050547 0.013398 1.135790 -0.415403 1.319385 1.499332 -0.070978 0.904057 0.564973 -0.726804 2.078871
中国 0.232620 -1.502704 -0.358263 0.267667 1.145167 0.592610 1.327008 -0.241018 0.577404 0.449347 -0.575948 0.927018 0.447050 1.795348 -0.221179 -1.345662 -0.147757 0.778297 -0.042439 0.877054 -0.699603 -0.368993 0.009152 -0.686568 0.227385 -0.097639 -0.009171 0.485690 -0.672629 -0.076070 0.215425 -0.986352 -0.582420 -0.779026 0.151004 0.038102 0.592821 0.474409 1.087732 0.260920 -0.047183 0.611844 0.082408 -1.200579 -0.590498 0.019471 -1.882979 -0.532570 0.054868 0.259862 -1.228216 0.486715 -2.541598 -0.360069 -0.189040 0.494982 -0.386976 0.259954 -1.486795 0.832149 -1.318388 -0.402700 0.024457 0.323669 0.838008 -0.695495 0.797774 -0.819857 0.072586 -0.121932 0.920195 1.901127 -0.578887 1.529109 -0.835055 -0.418589 -1.133359 0.400468 0.428106 0.209229 0.406222 1.509551 -1.188816 0.551627 -0.048038 0.415300 -0.793810 0.183133 0.098718 -1.185877 -0.469892 1.598106 0.426757 -0.424996 0.180476 0.507027 -1.428389 0.139470 0.477717 -0.076972
与 -0.110675 0.157970 -1.304271 -0.909706 0.650661 0.080869 0.019546 1.080482 -2.052386 -0.516996 1.028470 -0.142060 0.037806 -1.340003 0.658861 -0.602279 0.187976 0.905970 0.181779 1.072870 -0.378228 -1.416752 -2.625372 -0.693365 -0.717709 1.112072 -0.102273 0.042088 -0.463117 -0.231476 -0.557564 -0.007724 1.387856 -0.289778 0.837082 -0.092375 0.408928 0.314515 -0.188891 0.771847 -0.337612 -0.247077 1.005915 1.292436 0.403571 0.272810 -0.992886 -0.294815 0.034382 0.270569 -0.874432 1.477968 0.110734 0.039154 0.187042 0.336463 -0.347994 1.511888 -0.647134 0.661739 -0.526721 0.619559 -0.859917 -0.183482 0.311788 0.340692 0.617494 1.067141 0.032899 0.169504 0.036314 -0.013355 -0.561562 1.413380 -0.155352 -0.160560 -0.305684 0.166105 0.707783 -1.336858 -0.188458 -0.073579 -0.812582 -0.471454 0.788799 0.862824 -0.182331 -0.671736 -0.019860 -0.673576 -1.355954 -0.716974 -0.083596 -0.357836 0.276125 0.338274 -0.282743 -0.610122 -1.198085 -0.665186
在 -0.611005 -0.003921 -0.906360 -0.066455 -0.753208 0.248393 1.407171 -0.107511 0.588143 -0.953022 0.512977 -0.298044 0.322173 0.263495 -0.103046 1.150893 1.314196 -0.179442 -1.660580 0.596177 0.141138 -0.244031 -0.187611 0.310836 0.513935 0.544620 -1.042427 1.168120 1.347958 -0.212610 0.269271 0.821393 -1.040183 -0.318908 0.053942 -1.187396 0.190557 -0.241241 0.185645 -2.327220 0.967280 0.606566 -0.269457 -0.842813 -0.088278 1.076177 -0.813763 0.895942 0.712929 0.042350 0.589059 0.789458 -0.114867 -0.599028 0.428275 0.368020 -0.784138 0.262924 -0.251765 0.082478 -0.381781 0.345056 -1.334566 -0.556947 0.392551 1.087967 -0.407704 -1.001232 0.420456 -0.090978 0.210653 1.285004 0.873800 0.192961 -0.429299 -0.833761 -0.916625 1.931621 -0.007945 -0.241197 -0.512282 0.159088 -0.730904 0.150577 0.368857 -0.010837 0.222325 0.555413 -0.757533 -0.071761 -0.338156 -0.082798 0.215737 -1.001321 0.444846 0.039225 0.424288 0.716325 0.852662 -0.413663
培养 1.168679 0.924331 -0.371897 0.028484 -0.095999 0.237432 0.102278 0.856914 1.063468 -1.457022 -0.820362 -0.001517 1.393213 -2.127745 -0.902894 0.185919 0.582936 -0.387412 0.141231 -0.708089 0.460297 -0.453712 0.682974 0.745198 -1.301564 -0.515839 0.387287 0.402010 0.666907 -0.877702 -0.741319 -0.496814 -0.663722 0.431480 -0.409163 1.114824 1.699600 0.703226 -0.786328 0.509354 -0.171249 0.377822 -0.826236 -0.418716 -0.302829 0.417733 -0.041807 -2.532477 -0.207873 -0.135388 -0.625139 1.285633 -0.042600 -1.771855 1.649334 -0.704880 0.183232 -0.815755 -1.129464 0.367809 0.274882 1.244378 0.431956 1.221438 1.024510 -0.226948 -0.558929 2.036231 -0.705662 2.776033 2.200358 0.586101 1.148527 0.739558 0.400263 0.787542 0.095619 -0.281391 0.023122 -0.214819 0.197473 -0.575379 -0.237522 -0.399628 -0.353950 -2.152081 -1.203458 -1.602890 1.620719 -0.370018 0.827266 -0.696920 -0.447276 1.502190 -1.388743 -0.725943 -0.874391 0.306384 1.494432 -0.684309
由 1.172672 -1.956411 -0.485601 -0.534754 0.813003 -0.515374 -0.076722 1.077981 -1.390561 0.464851 0.773805 1.036419 -0.800727 -0.578467 0.887068 0.926522 0.643738 -0.375922 -0.530498 1.241641 -0.799968 -1.106016 -0.306497 -2.154720 -1.149826 1.211022 0.084428 -0.545462 0.789743 0.547860 -0.070150 0.066936 -1.296900 -0.841017 -0.331994 -0.755466 -0.698843 1.090135 -0.423247 -1.346018 -0.825651 0.805910 -0.236823 0.098798 0.555091 -0.254654 -0.231633 1.025350 0.810730 0.293448 0.439966 0.664274 -0.355879 -0.225853 -1.633395 0.083645 -0.299292 -0.467859 -0.375747 -1.063634 -0.918520 0.507406 -0.155651 0.179606 -0.940495 1.216508 -2.224853 0.273114 0.118980 -1.026152 0.469327 0.164705 -0.605652 0.663641 1.047536 0.644129 -1.292447 -1.382477 1.057364 0.906559 0.153640 -0.651356 -0.912243 0.591153 0.234141 0.682035 0.053187 0.013348 -1.768447 -0.224985 -0.631489 0.128198 -0.261198 -0.124131 -0.602901 1.392074 -0.161934 -0.288434 -1.119762 0.151891
综合类 0.672233 -0.840629 0.337322 -1.502245 0.441045 0.360018 -0.281591 0.076723 0.263408 1.332603 0.268130 0.442072 -0.430657 -0.074953 0.049916 0.344220 -0.941167 0.770212 1.163578 -0.748549 -0.851965 -0.041005 1.085729 -3.282333 0.138146 -1.207828 0.287424 0.056477 -0.903705 0.251432 0.156297 0.367083 -0.831135 -1.782951 -0.445682 -0.024736 -1.805392 -0.026360 0.598765 0.019017 -0.441667 -0.796213 -0.189393 -0.724381 -0.533302 0.014451 -0.412433 1.011209 0.396475 -0.173532 -0.170181 -0.550377 -0.786054 -0.452896 -1.633317 0.399057 -0.334028 -0.357346 0.596746 0.092346 0.041775 0.915221 0.620631 -1.874256 -0.447250 1.610683 -0.389501 -0.704216 -0.396468 -0.931181 0.050903 1.306215 -1.031477 -0.677222 -0.688344 -2.087012 -0.399496 -1.346939 1.027099 2.357670 0.017650 -1.123735 0.369315 -1.504579 0.481292 0.049609 0.071258 0.796782 0.447233 -1.076319 0.014348 1.380325 0.615682 0.616549 0.452988 1.128087 -0.209392 0.993350 1.324472 -0.205092
成立 0.672411 -0.293033 0.705519 -0.152710 -0.629807 -1.267481 -0.554260 0.646522 -1.552862 0.572389 1.440641 0.826595 -0.844260 -0.620353 1.288688 1.447595 0.434840 -0.997706 -1.449453 0.095863 -0.450415 0.037578 0.426069 -0.880121 0.584030 -0.043614 -0.395725 -0.280123 0.544268 0.488099 -0.471804 -0.940466 0.394129 0.009697 -0.301670 0.335130 -0.218958 0.347208 -0.713821 -1.967907 -0.468932 -0.915191 0.222721 -0.265748 -0.459228 -0.437140 -0.012814 -0.544748 -0.145110 -0.432717 0.369061 -0.293093 0.458598 -0.886655 -0.484948 0.294025 -0.190479 -0.148828 -0.326752 0.558205 0.393225 0.401144 -0.141346 -0.484677 -0.722833 1.414815 -1.350437 0.554293 0.734946 0.170374 0.123391 0.373463 0.459824 -0.005932 1.329737 0.849693 -0.591089 -1.043367 0.423258 1.743285 -1.306571 -0.570653 -0.697467 1.066989 0.172744 -0.059854 -0.172070 1.814625 -1.019554 -0.556601 -0.582721 -0.145701 0.562892 1.415484 -1.012350 1.034483 -0.235985 0.265082 -0.382119 0.296247
理工类 0.667389 -1.333882 -0.233403 -1.656475 0.764038 -0.808566 -1.326812 -0.011694 -0.543838 1.603451 -0.152319 -0.237777 -0.089418 -1.290736 0.279573 -0.530984 -1.817526 0.587556 1.736153 -0.194913 -1.071742 0.342978 -0.612615 -2.268298 -0.136215 -0.526237 0.291202 -1.601989 -2.281525 0.339574 -0.230768 -0.539896 -0.132348 -1.459218 -0.161879 0.241362 -1.249736 0.587820 0.584204 -1.050175 0.059436 -0.875226 -0.034639 -0.297269 0.945192 -0.646665 0.503369 -1.377316 -0.297629 0.607714 -0.383629 0.637088 -1.399619 -0.834826 -1.014176 0.781925 0.554408 1.024068 0.452033 0.529515 0.792616 1.868293 1.081945 -2.680867 -0.863593 1.643344 0.286715 -0.614037 0.098088 -1.747195 0.758049 0.298366 -0.977534 0.314622 -1.498333 -1.536748 -0.590030 -0.938405 3.703133 2.201384 1.040070 -0.401005 0.734795 -0.402188 -0.189688 0.494474 -0.714190 -0.253461 0.836776 -0.566346 -0.608363 1.441806 0.795437 1.571775 -0.270607 0.914391 0.668792 1.570722 -0.032806 -0.512650
人才 0.976235 0.720005 -0.275373 -0.495141 0.057897 -0.187736 0.064313 0.312826 1.306596 -0.658873 -0.822331 0.046893 0.907818 -2.212683 -1.070077 0.162143 0.529682 -0.208002 1.200100 0.143085 0.109946 -0.449720 1.264210 -0.075080 -1.196661 -0.749989 0.962838 0.539738 1.273366 -1.226903 -0.965182 -0.310702 -1.052803 -0.181261 -0.158001 1.374651 1.841732 0.421146 -0.923552 -0.128532 -0.828007 0.220301 -0.836547 -0.566329 0.184905 0.281048 -0.479917 -2.399975 0.074861 0.148060 -0.354435 1.741687 0.362579 -1.856514 1.402093 -0.789851 0.502022 -0.908376 -1.276924 0.914476 0.700914 1.264737 1.063571 1.549797 1.307434 -0.288010 -0.171395 2.101551 -0.640815 2.443867 1.622829 0.084194 1.492537 0.751467 -0.011561 1.088627 0.822106 -0.448063 1.326399 -0.310892 0.530325 -0.953906 0.148390 0.252852 -0.017427 -2.474414 -1.651489 -1.298711 1.579176 0.290971 0.547126 -0.999353 -0.665771 1.317308 -1.577125 -0.314500 -1.222594 0.585699 1.136909 -1.207186
专科学校 0.671265 -1.004403 1.481372 0.012001 -1.863538 -0.268783 -0.784514 1.153638 -1.496004 -0.017376 -0.224324 0.291929 0.001226 -0.001120 0.532178 0.615230 1.024254 -0.763123 -2.395481 1.069824 0.318462 -0.727283 0.404323 -1.168698 -0.324897 -1.216916 0.067330 -0.415105 1.184939 1.119803 0.055795 1.679550 1.645730 -0.381894 -1.860511 0.088818 0.309722 -0.266805 -1.027713 -3.169530 0.045779 -0.506466 0.933177 1.175205 1.363533 0.244722 0.164870 1.615256 -1.049441 1.403503 -1.340841 -1.114978 -1.642044 -0.032441 0.166160 -2.115072 0.860941 0.272998 -1.932912 -1.282468 -0.697893 1.777911 -0.492902 0.989814 -1.093070 1.143281 -0.246369 1.094055 -0.023402 -0.509413 -0.448399 0.127671 2.086742 -0.944149 2.229144 0.676458 1.916472 0.369708 -0.671533 0.919722 0.998300 -0.917984 -0.161852 1.326087 -0.247717 -0.215928 0.573122 0.607390 -0.340793 -1.752610 -0.613539 0.950866 0.359633 1.037180 0.063085 0.761430 1.160426 -0.702034 2.053000 -2.134154
以 1.313230 0.710622 0.038054 0.582691 -0.149906 0.663350 0.178984 -0.549077 -0.990851 -1.206903 0.087394 0.426900 -1.736076 -1.458472 -0.522217 -0.862310 0.647576 -0.704962 1.011107 0.230654 1.267004 -1.145490 -1.089423 0.259436 -0.848376 -0.876069 0.040366 0.304313 0.086125 -0.676854 -0.394517 0.344958 0.089057 0.391227 -0.266121 -0.238973 0.457010 0.134941 -1.704828 1.663276 0.082401 -1.263470 1.093137 0.953803 0.620546 -0.761168 -0.040421 -0.273267 0.434806 0.380970 -0.005873 1.018908 -0.632634 -0.453351 2.334986 0.327659 1.004749 0.122379 0.030310 -0.027529 0.654852 0.164390 0.746730 1.738194 -0.930332 -1.239011 0.000358 0.375716 -1.717821 0.323797 1.651004 0.871852 0.338781 0.112368 0.414897 0.190421 1.884739 -0.690872 0.422465 -0.773846 -0.291161 -2.191651 -1.035264 -0.897679 0.756816 0.015059 -0.088188 0.059779 1.264149 0.660026 -0.973805 -0.194671 -1.837867 0.633563 0.445758 2.051427 -0.076193 -0.504624 0.736827 0.442418
前身 0.203092 -1.733006 -0.197179 0.668319 0.098744 -0.864554 1.020861 1.553936 -0.857546 1.051371 -0.110932 0.139307 -1.609662 -0.011372 0.838254 0.689662 0.597346 0.011617 -0.802392 0.955324 -0.067260 -0.023805 -0.641633 -1.779928 1.102472 -0.573197 -0.756974 -0.253380 2.894355 -0.576410 -0.055587 -0.922214 -0.193378 -0.730696 -0.598754 0.271530 -1.285855 0.666195 -0.564914 -1.870170 -0.226608 0.186023 -0.159454 -0.538023 0.232565 -0.253162 0.849005 -0.180368 0.492098 -0.324582 -0.213395 -0.523538 -0.057649 -0.033434 -0.655085 -0.333032 -0.786363 0.877162 0.291611 -0.033470 -0.837291 0.687744 -0.194091 -0.998551 0.128557 1.137653 -0.793170 -0.205359 0.711733 0.728846 -0.402092 0.981186 1.068823 -0.045227 0.430464 -0.119552 -0.823497 -1.030061 0.445118 2.042720 0.439065 0.130916 -0.770939 1.561530 -0.958840 -0.296506 -0.722135 0.961418 -1.453518 -1.012518 -1.053320 -0.079966 -0.587508 0.908277 -1.032342 1.059360 -1.635690 0.694548 0.759047 0.509953
历史 0.243569 -1.527255 -0.312445 1.055148 -0.901279 -0.517651 1.017550 0.433105 -0.639683 0.803735 -1.917905 0.551222 -0.766534 0.102057 0.650519 -0.281536 -0.059848 0.460014 0.705459 -0.121498 0.013335 -0.375945 0.070551 -1.741886 2.326319 -0.234300 -0.468313 0.341735 1.738790 -1.762646 -0.836098 -0.097888 -1.707841 -1.641073 0.288832 -1.265959 -0.154783 1.372941 0.347544 -2.156597 0.620762 -0.918291 -0.763711 -0.452264 -1.931922 0.177329 0.432460 1.243788 1.021724 0.345914 -0.285466 0.347740 1.412520 -1.277988 -0.585913 -0.817721 -0.243292 0.022416 1.353048 0.263303 0.219324 0.669780 -1.074853 -1.153853 -0.206336 0.690053 1.230027 -0.740481 -0.200470 1.241883 -1.494739 0.654010 0.570164 1.703129 -2.215962 -1.286220 1.451528 -0.304292 0.083094 0.291748 0.122649 1.154139 -0.795426 1.134238 0.202402 -0.578570 -0.636167 -0.198814 -2.525169 -0.506854 -1.428340 -0.626519 0.623564 -0.256094 -0.820364 -0.015906 0.511537 2.175629 1.189960 -0.233774
面积 -1.218134 -0.521405 0.659129 -0.427567 -0.150928 -2.161894 -0.823759 0.396257 -1.236592 0.408298 0.863682 -1.236010 -0.764250 -0.588061 0.173310 1.898937 -0.417488 0.129104 1.682452 -0.237038 2.111298 -0.269137 1.214958 -0.647023 -0.730415 0.375595 -1.245287 -1.437822 -0.930309 0.131761 0.372195 -0.418918 -0.985638 2.288246 -1.319026 -1.380501 1.402027 -1.661504 0.846599 -1.891951 3.300293 1.358894 -1.351632 -0.412523 -1.137806 0.234585 -0.151831 1.690435 0.966981 -1.125193 -0.791081 -0.199993 1.096940 1.002471 -0.537182 -1.487016 2.946875 0.575281 -0.458445 1.051850 0.013896 -0.988378 0.059663 0.830032 -2.379934 -0.745449 0.528063 -1.050612 -0.802464 -0.418716 -0.791497 -1.068660 -0.405874 -0.152069 -0.925725 0.506365 2.028228 0.919872 0.310868 -2.082624 1.632587 0.293153 1.124808 -0.096895 -0.208189 -0.878027 -1.069395 -1.797373 -1.004871 1.019797 0.955937 -0.984999 0.580004 -1.449389 1.231964 -1.445308 -1.017895 1.265573 0.063242 -0.314915
个 0.345303 0.509052 -0.069067 0.023451 -0.205601 -2.359685 -0.815769 0.509388 -2.217644 -1.026237 1.627163 -0.167500 1.189768 -1.506497 0.228741 -0.663745 -0.646337 0.122145 -0.866457 -0.549672 1.019408 1.123314 -0.610074 1.990112 -1.894223 1.627219 -0.390710 -0.829953 -1.432219 0.495028 -0.800819 0.030949 0.062186 1.289107 -0.631425 0.244365 -1.154930 -1.208683 0.337616 0.025503 0.781140 -0.864615 -0.440651 1.040223 -1.108467 0.156258 -0.391559 1.558534 -1.311418 -0.685867 1.224736 0.198846 2.722814 0.730721 0.196345 -0.578925 2.746698 0.546995 0.806285 0.580998 -0.354557 0.622175 -1.552318 1.902425 -2.412576 0.376903 1.212217 1.735516 0.541788 -0.296937 -1.336088 1.472821 0.128640 -0.703667 -1.145706 0.798012 0.318704 1.396949 -1.882709 -1.201603 2.055423 1.015468 -0.076995 -0.123775 -0.035611 0.786397 -1.047640 -1.351776 0.332091 -0.815020 1.047494 -1.340899 0.261857 -1.335543 0.709373 -1.007081 -2.038480 0.388271 -0.848763 -0.001461
备案 -0.635652 -1.188205 -0.555074 -0.987592 -0.232054 0.457408 -0.811318 1.098052 0.725050 -0.285414 1.910118 2.189344 -0.696037 -0.012148 -0.156320 1.497846 -0.965330 -0.948644 0.050734 0.276240 -0.485185 -0.314456 0.865709 -2.909669 0.022019 -0.887971 1.021057 -1.796277 0.065316 -0.744064 0.441709 0.059538 0.814454 -1.412305 -0.082754 -0.812962 0.548523 0.751346 1.320512 -0.779239 -0.471884 -0.386710 0.774271 -1.030023 -0.674611 -0.506226 -0.265142 0.031555 -0.281441 -0.295959 0.643954 -0.252953 -0.668231 -0.437101 0.017136 -0.303611 -0.189077 -0.338991 -1.126634 -0.294000 -0.102782 1.514564 0.676489 0.458831 -2.409969 1.547983 -2.066364 0.050035 -0.019876 -1.059463 1.279507 0.239307 -0.344599 -0.126645 1.602074 1.468719 1.088667 -0.020628 1.534235 3.435554 -1.399708 -1.090073 0.597743 1.495687 -0.542454 0.483166 0.356480 1.039582 -0.448407 1.254992 -0.221842 -1.014870 -1.188564 2.231737 0.235330 1.566450 0.370687 1.141958 0.074877 0.184030
坐落 -1.504888 -0.534734 -0.094214 0.015598 -0.126068 -0.244608 0.351616 0.936200 0.821610 0.504292 -0.420879 0.812559 -0.400533 0.857678 0.089840 0.347311 -1.197632 0.720381 0.511212 -0.625091 -0.072616 -0.584413 -0.217838 -0.880716 0.533671 0.538432 -1.505129 0.285017 0.172683 -0.509698 -0.108891 0.264959 -1.034378 0.109310 -0.348610 -1.872274 0.287141 1.194633 0.588653 -0.428575 1.069361 -0.378530 -0.692335 -0.490348 -2.811779 1.467777 -2.091489 1.057993 0.142245 -0.841219 -1.016034 1.046067 -0.643414 -0.053887 -0.246014 0.740298 -0.560851 1.676909 -0.097137 0.578720 -1.062928 0.547637 -1.751039 -1.165504 -0.881508 -0.087925 0.960427 -2.446035 -1.418465 0.341726 -0.475226 1.521635 -0.057204 0.013012 -1.303174 -2.102423 -0.855951 1.087002 0.577601 0.982526 1.335509 -0.051477 0.175085 0.064591 -0.791475 0.115762 0.151448 -0.068864 -1.237357 -0.169408 -0.457593 0.023538 0.593321 -0.301022 0.120905 0.335440 -0.407928 2.731270 0.875168 -0.514244
科技 0.071748 -0.958394 -0.909090 -1.501186 1.293988 -0.596508 -0.753670 0.560434 0.300003 0.130195 1.435392 -0.295915 -1.409205 -0.257626 0.852412 -0.504567 -0.179209 0.065742 1.250373 0.774986 -1.307068 -0.059752 -1.885062 -0.706706 -0.295905 0.562090 0.215569 -0.226122 -0.707569 -0.325882 -0.203940 0.494668 -0.140671 -2.153887 0.657571 -1.970162 0.406543 0.759854 1.081775 1.528654 -0.465796 -0.412694 0.820519 0.490946 0.858067 -0.478964 -0.936125 -0.923478 0.994857 -1.597474 -2.205423 0.859796 -0.313293 -0.716340 -1.012686 0.262941 -0.780480 1.112940 -0.312156 -0.383322 -0.130268 1.096160 -0.921989 -0.802678 -1.351728 0.258784 -1.542264 0.171647 1.317509 0.416745 1.550274 0.322181 -1.119493 0.688053 0.067738 -0.744866 -0.230316 -0.575143 0.524049 0.967302 -0.500384 -1.661090 -0.488310 -1.077863 0.174096 -0.304565 0.096637 -1.406785 -0.076141 -0.252807 -1.131613 -0.177095 0.153256 1.137467 -0.338199 -0.589986 0.287160 1.091793 -0.338883 0.491529
特色 1.244529 -0.324538 0.136879 0.769758 0.341503 1.191307 1.046796 0.511114 0.072985 -0.735065 -0.773394 0.200610 0.023005 -1.285089 0.018812 -2.075381 0.488909 -0.372714 2.370371 -0.074296 0.851184 -0.053328 -1.434196 -0.859408 -0.377177 -0.377290 0.215898 1.316181 -0.463103 -1.597058 -0.599804 -0.426661 -0.207337 -0.332998 -1.107197 -1.145817 0.149072 0.417026 0.499429 1.368008 -0.005238 -0.188762 0.437083 0.098208 -0.320595 -0.617128 0.008348 -0.869656 0.287845 0.556371 0.005520 1.471781 -0.687915 -1.914513 1.914445 -0.151043 1.608229 -0.348322 0.025063 -0.590625 0.016031 0.352720 0.586399 0.394188 0.113363 -1.044957 1.225003 0.505747 -0.708612 0.888447 1.222664 1.196185 0.226467 2.337335 -1.398783 0.841646 2.257013 0.049754 1.127495 0.508834 0.168894 -0.063007 -0.053174 -0.304709 1.069296 -0.818020 -1.226198 -2.103237 0.440610 0.434798 -0.883332 0.004177 -1.225511 0.530759 -0.125773 0.279515 -1.121298 0.471800 1.882866 0.390157
发展 0.115627 0.215471 0.625416 0.084025 0.325840 0.181303 1.490163 -0.513911 0.491689 0.099090 0.893469 -1.865494 -1.144666 -1.260983 -0.350636 -0.796524 1.344457 -0.772995 0.671765 1.507590 0.304285 -0.308291 -1.780332 0.569849 -0.697659 0.901237 -1.321458 0.534692 0.059550 -0.539618 1.178664 0.186811 1.024520 0.095937 -0.254741 0.005623 2.082417 0.495260 -1.035490 0.051019 0.326345 -0.128028 0.784148 1.254103 1.539692 0.453874 -0.806050 -0.593967 -0.319609 0.552851 -0.016653 1.135567 -0.715107 -1.580081 2.338801 -0.438543 -0.406857 0.168643 -1.313421 0.414308 -0.240001 -0.955276 -0.482381 -0.121616 -0.169373 -2.190904 0.496690 0.545129 0.681890 0.228378 0.892144 -0.475079 1.812065 0.995716 0.111156 0.828976 0.107859 -0.017225 -0.461761 -1.185748 -0.294814 -0.434139 -0.299270 -0.476098 0.827351 -1.272131 0.882972 -0.127801 0.659425 0.178166 -1.294007 -1.410054 0.813840 -0.073263 -0.247955 -0.384137 0.884712 0.583806 0.204294 0.124822
批 1.350900 -0.597440 1.104749 -0.327283 -0.183751 0.111124 -0.048458 -0.027005 -0.130991 0.747590 0.193228 0.129538 1.376624 0.350374 0.805054 -0.746113 0.223138 -1.549966 -0.773532 -0.380578 -0.507775 0.173539 1.109136 0.570686 -0.517926 -0.408920 -0.515398 2.195628 -0.753275 -0.349532 -0.546046 -2.080747 0.788331 0.016105 -2.061375 -0.132681 1.163842 0.182429 -0.315086 0.446780 -0.071646 -1.372588 0.377738 0.861104 -0.987270 -1.306733 -1.942733 -1.135715 -0.967623 -0.452761 -1.012394 0.675947 -0.733117 0.743334 -0.439915 0.038988 1.179980 -2.048977 -1.852052 0.134442 -0.638356 1.876630 -0.065285 -0.674941 0.184183 0.231465 1.531637 1.562399 0.785509 0.474365 -0.022017 1.137978 1.001747 1.267526 1.326228 -0.528221 0.066640 -1.027791 -1.378196 0.527220 -0.448858 0.778693 -1.159901 1.619189 1.768474 -1.999683 -1.455917 -1.379587 0.430407 0.863016 -0.368569 0.021768 1.151771 0.510236 -0.948838 -1.758144 -1.163824 -0.078336 -0.419132 0.244405
占地 -1.476620 0.265587 0.940610 0.021400 -0.077480 -1.722242 -0.809299 0.777639 -1.177235 0.018656 1.028182 -1.394502 -0.559243 -0.492698 0.245858 1.755154 -0.249099 0.198899 1.552205 -0.297949 1.472960 -0.019306 1.093015 -0.364106 -0.549027 0.323965 -1.146038 -1.131120 -1.268962 0.051869 0.328187 0.065702 -0.563084 2.073706 -0.554917 -0.953648 1.286735 -1.514160 0.836757 -1.561084 3.440176 1.525362 -1.314891 -0.630779 -1.725089 0.825166 -0.691706 1.664417 0.369700 -1.065104 0.238450 0.263892 0.846782 0.754572 -0.720480 0.000463 2.403216 0.566750 0.608632 0.812888 0.412804 -1.071827 -0.666547 0.275374 -2.232640 -0.389804 0.584362 -1.406239 -1.686210 0.027643 -0.868776 -0.629358 -0.878600 0.384360 -1.949567 0.857042 1.129672 0.579286 0.103888 -1.311161 1.532519 0.927740 1.335891 -1.432590 -0.477313 -0.641023 -1.110767 -1.516597 -0.924096 0.899689 1.242210 -0.572491 0.721264 -1.548580 0.974910 -1.099290 -1.425961 1.771864 0.124311 0.228348
专业 1.461054 0.545018 0.427147 -0.424823 0.025373 -0.547010 0.328374 0.032280 -0.343735 -0.212843 1.197749 0.800573 0.773160 -1.396661 0.349389 -1.947027 0.478958 0.223793 -0.429432 -0.214469 1.026578 2.146851 -0.481276 1.068821 -1.237780 0.290059 -0.313296 -0.345391 -0.534037 -0.733826 -1.430279 -0.036215 1.325196 0.951724 -0.864941 1.189746 -0.433699 -1.141028 0.253317 1.123381 -0.360699 -0.411875 0.563154 1.113083 -0.616181 -1.355240 0.111257 -1.406292 -1.408717 -0.608454 0.667225 0.090752 0.892081 -0.652826 1.747530 -0.940179 2.527466 -0.401952 -0.468064 1.061776 -0.134076 0.283467 0.930361 1.901804 -1.087756 -0.125801 0.760896 2.613659 -0.262806 -0.145925 -0.213482 1.239225 1.157103 1.662316 -1.419893 2.100305 0.630598 0.092762 -0.911534 -0.321834 0.848124 -0.354242 -0.714829 -0.814282 1.279842 0.626433 -1.537557 -1.297273 0.549422 0.031784 0.103225 -1.057508 -1.126817 0.381424 -0.258208 -0.155300 -0.671035 -0.259262 0.654716 -0.436617
等 0.586714 -0.639781 -0.774612 -0.664496 0.601141 -0.421656 0.572669 0.884350 -1.078984 -0.319139 0.316201 -0.391344 1.210453 -0.039301 1.262133 -0.191347 0.259896 0.021861 -0.624974 0.337730 0.896574 -0.327210 -1.438982 1.499903 -0.836913 1.311550 -0.649149 0.524326 0.217633 -0.061097 -0.283567 -0.486869 1.694052 -0.032722 0.569833 0.597147 -0.202963 -0.374213 -0.327394 0.284870 -0.916333 0.354767 0.448092 0.354671 -0.102960 -0.956276 1.345624 -0.065285 0.423575 -0.636752 -0.219594 0.186633 0.377237 0.678950 -0.546079 -0.234801 1.003086 0.611843 0.345219 -0.194902 0.333520 0.903654 -0.658025 0.628937 0.817197 -0.326376 -0.107493 0.783303 0.066643 0.441391 0.010741 0.034018 1.041857 1.384471 -1.260290 0.389815 -0.331891 1.899361 -0.290847 -1.486970 0.688174 -1.523459 -1.519969 0.134270 -0.711868 0.252313 -1.056931 0.358025 1.863475 -0.255380 0.456639 -0.399974 -0.441272 -0.546009 0.103236 -0.579360 -0.866266 -1.075102 0.569300 -1.097387
文化 -1.067362 -1.386306 -0.690516 -0.479146 -0.239634 0.528479 1.937039 0.117988 -0.145175 -1.235925 -2.329758 1.425177 0.272247 0.621544 0.224252 -0.897481 -1.230137 1.077639 1.036699 -0.407194 0.239128 -1.399848 -0.740457 -0.286358 0.437716 0.308359 -1.187877 0.790854 1.422341 -0.359513 -1.364810 -0.709467 -1.569197 -2.242274 1.808794 -0.509108 -0.144885 0.893502 0.387850 0.839669 -1.057793 -1.479004 -0.541979 0.060002 -2.461323 -0.201369 -1.185061 0.630564 0.786631 -0.011314 -1.014801 0.359162 1.793489 -1.478111 -1.163133 -0.054193 -0.490644 0.382639 0.897144 -0.057897 -0.529743 0.420499 -1.207922 -0.035669 -0.595147 0.469215 1.348190 -0.361889 -0.653046 1.400949 -0.883379 1.797539 0.668693 1.540656 -1.096174 -2.815454 0.685905 -0.683755 0.212071 -1.447379 0.794595 0.105817 0.213248 -0.240232 0.820999 -0.946581 -0.938638 0.288906 -1.618302 -1.649233 -1.123832 -0.523376 0.133909 0.871210 0.590821 0.408317 0.438502 1.991442 1.942343 -0.868302
万 -0.643398 0.374983 0.038806 -0.696001 -0.871156 -2.063475 -0.584891 -0.273544 -1.093007 1.228582 1.646807 -1.970510 -0.773770 0.022496 -0.180307 1.191270 -0.401075 -0.031083 0.896600 -0.219508 1.629509 0.749764 1.470198 0.208373 -1.391233 0.013597 -0.932548 -1.212409 -1.362880 -0.172844 0.534200 0.171626 -1.426082 1.612279 -0.847478 -1.084121 1.105799 -1.418675 1.211492 -2.022237 3.271447 1.717733 -0.865596 -0.727911 -0.773470 0.821862 -0.852010 0.904226 1.076465 -0.833347 -0.801425 0.289621 0.781564 0.971109 -1.116853 -1.394620 3.144505 0.703788 0.086006 1.900932 1.031936 -0.467624 -0.232845 1.247014 -1.606370 -0.201036 0.446015 -0.160709 -0.360295 0.357922 0.608141 -0.345207 -1.146542 -0.206022 -1.334263 0.760721 0.517048 1.373181 0.046383 -2.269821 1.563553 0.017777 1.390809 -0.041924 -0.603509 -0.743062 -0.588334 -1.965424 -0.576804 0.731623 0.905057 -1.390512 0.836686 -1.083321 0.581739 -1.732673 -0.001064 1.312056 -0.059498 -0.549609
校区 -1.177537 1.658966 1.334874 0.328823 -0.684625 -3.145580 -0.403653 0.407241 -2.412269 -1.916661 0.451473 -0.449472 0.425185 -2.212286 0.082774 0.690927 0.335140 -0.046921 0.347368 0.960389 1.957238 0.667125 0.387980 -0.670217 0.691099 1.143203 0.471337 -1.394182 -1.748807 1.536052 -0.543703 1.279995 -0.164413 1.700347 -0.791222 -0.501893 -0.784887 -0.915701 0.530680 -1.931448 2.381886 0.464987 -1.590638 0.397803 -0.211460 1.273891 -0.310846 2.989324 -1.092256 -0.128403 0.500204 0.278176 1.740404 0.241053 -0.333739 0.511124 1.656025 1.398168 0.649628 0.450838 -0.655177 -0.606232 -2.971482 -0.546733 -2.881197 -0.379648 1.842487 -1.045018 0.055207 -1.744943 -1.100009 0.492072 -0.489486 -1.204385 -0.707123 0.175259 1.036253 0.986981 -0.765664 -0.946239 3.272907 2.440295 0.736704 -1.014403 0.154526 0.527868 -0.467209 -2.011368 -1.143395 0.770413 1.773539 0.234772 1.084291 -2.169267 1.494645 -0.989770 -2.068009 1.753288 0.277434 -0.716674
师范 1.456415 -0.964155 1.490155 0.019466 -2.737749 -0.154200 -0.173303 1.171579 -1.904338 0.428579 -1.495992 -0.038085 0.757340 1.157376 1.229589 0.744963 1.475861 -1.100055 -1.960153 0.311603 0.623030 -1.036747 1.337698 -1.447496 -0.094877 -1.909252 0.241875 0.107713 1.617985 2.191231 0.447691 1.615426 0.615781 -0.084394 -1.049850 -0.505553 0.681690 -0.347004 -0.457729 -3.662311 -0.279342 -0.467432 0.595025 0.471973 0.757669 1.700190 -0.055261 2.403792 -0.207451 1.014251 -0.844640 -0.339879 -2.025181 -0.250242 -1.828160 -1.023815 2.076657 -0.223662 -1.032247 -1.011869 -0.845824 1.633604 -1.264149 0.792334 -0.013886 1.060352 0.573542 0.789164 -0.230473 1.484218 -0.164184 -0.449612 0.936483 0.107359 1.313352 1.271151 2.753136 0.355203 -2.278563 0.142104 -0.346505 -1.426342 0.071261 1.556807 -0.463394 -1.068104 1.121557 0.575408 -1.091016 -1.705357 0.504242 1.392352 1.310219 1.144603 0.108214 0.232054 1.690656 0.102199 2.316699 -2.226496
更名 1.427409 0.282539 2.008083 -0.617145 -0.440085 -1.941254 -0.803071 -0.339495 -1.918849 1.246761 1.648029 -1.176144 -0.569243 -2.067188 0.566571 0.388683 1.806498 -0.284822 -3.401339 1.080005 0.444672 0.183625 -1.040630 0.474294 0.217108 -0.792088 -1.275213 -0.650710 0.553450 0.887746 -0.801788 -0.052520 1.489886 -0.560146 -2.149890 -0.905015 -0.845597 -0.988457 -1.913042 -1.293994 0.353452 0.276744 1.022964 1.106053 0.296456 -1.285439 0.337792 -1.125115 -0.570878 0.655590 -0.680574 -0.680853 -0.895264 -0.052578 0.038068 -1.237383 -0.184378 -0.459114 -0.832907 -0.787127 -0.528373 0.965095 -1.477691 -0.097436 -0.522180 0.326298 -1.318405 0.542807 1.011925 -0.926906 1.252547 0.506614 1.456600 -0.640228 2.457208 -1.350350 0.494721 -0.342764 0.791770 0.432775 1.115933 -0.290677 -0.631961 0.454745 0.509543 0.037159 0.164050 -0.163472 0.807847 -0.581788 -1.257327 2.090837 0.459104 -0.476680 1.657487 -0.480354 0.806038 0.301049 0.520746 -0.381038
创办 1.499149 -1.831175 -0.187170 1.207285 0.828936 -1.379999 0.026451 1.034421 -0.651564 1.324754 -0.443798 0.130899 -0.893549 0.746853 0.646721 0.871075 1.035954 0.116599 -1.064763 -0.353019 -0.816105 -0.662787 -0.050686 -1.690623 0.695961 -0.048791 0.814662 0.529788 2.178551 -0.396907 -0.589086 0.203645 -0.178202 -1.654451 -0.314778 -0.777966 -0.325825 0.104831 -0.683998 -1.405194 -0.408505 -0.245434 -0.541030 -0.652052 -0.640861 -0.756873 0.483913 -0.365919 0.278365 -0.646420 -0.151911 -0.219185 -1.270893 1.197961 -1.335936 0.310316 -0.373136 -0.758278 -0.196068 -0.420617 -0.534612 0.052201 -0.456828 0.000809 0.966291 0.845492 -1.012978 -0.184963 -0.726245 0.692273 -0.452542 0.641211 1.028517 1.153475 0.674045 -0.381672 -1.200739 -1.367691 -0.220334 0.782351 -0.803823 -0.010555 -1.933971 1.571528 -0.745359 0.843863 0.305880 0.494964 -1.164896 -1.096436 -0.033987 0.920364 -1.133232 0.473209 -0.925968 0.270618 -1.000847 -0.877415 -0.740765 -0.279379
教学 0.343611 -0.876217 -1.705882 -0.222217 0.536026 -0.572688 -0.059869 0.815456 -0.479749 -1.753522 0.193561 -0.279865 1.704043 -0.791249 0.645189 1.160268 0.334935 -0.973919 0.114250 0.143169 1.450830 0.307134 -0.150561 1.038411 -2.293698 0.398121 -0.100529 1.230168 -0.487525 -0.368108 -0.706874 -0.445674 -0.948855 1.188120 -0.883637 0.183245 -0.048734 -2.028949 1.132840 -0.079833 1.076089 0.277392 0.768598 0.368491 -0.598641 -0.114942 0.390082 -0.255659 0.519587 -1.222831 0.644871 0.295200 0.500048 0.461241 -0.157218 -1.265463 2.312319 -1.223490 0.649093 0.049582 -0.436362 1.077600 0.048718 2.225394 -1.252323 -0.146475 -0.401413 0.187135 -0.834351 0.513533 0.040608 0.664876 -0.311746 0.225803 0.226108 0.600650 0.573959 0.904086 -1.234483 -1.290518 -0.239491 -1.402463 -0.740454 -0.900728 0.143867 -2.680516 -0.851141 -2.173782 0.778455 0.762680 0.127251 -1.503048 -0.117147 0.277915 0.533906 -1.255669 0.406173 0.449507 -0.089757 -1.119754
河南省 0.324547 -0.472398 1.864169 -0.469555 0.233694 0.872704 -0.821825 1.644108 -0.041480 0.453109 0.826414 2.554753 -0.952974 0.449719 -0.145057 -0.415903 -0.883970 -0.776080 1.340928 0.558740 -0.772826 1.091301 0.017714 -3.660690 -0.237991 -0.877441 2.741351 -0.679394 1.264551 0.708866 -2.769571 -0.608146 0.206612 -1.006084 -1.491347 -0.576445 0.598464 1.539653 0.704115 -1.395246 0.194032 -2.207639 0.087660 -1.167870 0.167628 -1.435872 -0.907426 -2.101347 -1.232516 1.131623 -0.140939 0.826230 0.109826 0.581108 0.549113 -2.540858 -0.933154 0.761806 -1.385857 0.179339 0.750994 0.949742 2.365738 -1.423777 -0.878926 -0.662109 1.660515 -0.604172 -0.145382 -0.473468 -0.677823 0.653926 1.109412 -1.362339 -0.644274 0.808057 2.500352 -0.166524 1.933662 -1.292954 -0.555927 0.399351 -1.294549 0.194001 -0.872647 -0.733708 -0.000805 -0.988096 0.139843 0.121298 -0.441427 -1.889193 -0.408018 -0.114631 1.103837 0.629699 1.314805 1.285225 1.183491 0.599770
建筑 -1.212900 -0.626687 0.808895 -0.683029 -0.508720 -1.252679 -0.623017 0.325670 -1.278172 0.326609 1.365791 -1.496811 -0.447175 -0.519873 -0.105513 0.931825 -0.553882 0.556440 1.001065 -0.351021 1.228334 0.026276 0.321401 0.271518 -1.403872 0.449731 -1.731278 -1.465710 -1.955596 -0.731670 0.014214 -0.440810 -1.189623 1.759875 -0.559957 -0.866392 1.260853 -1.496963 1.222337 -1.393760 3.489022 1.159799 -0.662342 -0.392614 -1.458342 0.028160 -0.382144 1.025964 0.851847 -1.308818 -1.079313 0.086466 0.879782 0.223858 -0.279222 -1.364206 2.855845 0.110768 -0.019257 1.420228 0.577478 -0.974042 0.776090 0.629581 -2.133937 0.493380 0.110900 -0.704546 -1.010347 -0.476592 -0.328383 -1.106240 -0.527549 1.171853 -1.551246 0.467678 0.657474 1.467363 0.658984 -2.200740 0.907585 -0.163974 1.590093 -0.775744 0.493210 -0.609838 -1.890374 -1.968549 -0.862126 0.692728 0.020137 -0.842633 0.799530 -0.876393 -0.059030 -0.763314 -0.055390 0.373060 -0.487022 -0.301570
城市 -1.005464 -1.250275 -0.321020 -0.164602 0.677589 1.742008 0.364857 0.435909 1.279702 -1.272811 -0.903180 1.714101 -0.766893 0.284136 -1.058543 2.501260 -1.048424 0.735038 -0.304064 0.274033 -0.264112 -1.346379 -0.336725 -0.609774 0.750476 0.253471 -1.161714 0.101268 0.879175 -0.378874 0.845929 -0.875609 0.227653 -0.229807 0.969535 -0.460303 2.236302 -0.470737 -0.070024 1.103719 -0.036633 -1.383561 1.169987 -1.506462 -1.876011 0.261879 -1.329674 1.721026 -1.726684 0.296996 -1.770660 -0.682255 -1.447231 -1.759975 -0.481847 -0.693292 -2.303039 1.111472 -0.020181 1.036717 -2.019218 -0.371100 -1.136184 -0.326929 -2.169126 -1.234417 -0.424336 -0.602913 -1.366486 -0.154944 0.247376 0.380320 -0.575186 -0.132270 -0.825700 -2.641697 -1.922327 -0.302736 0.134545 0.560929 1.860201 0.177012 -0.506883 -0.770633 -0.487379 -1.648072 -0.595079 0.024123 1.074592 0.342732 -0.971503 -0.223344 0.868621 -1.232000 0.783876 0.947565 0.978480 2.405755 1.960525 -0.802861
了 1.689005 0.044037 -0.460729 -0.351217 -0.486710 -0.442707 1.124077 -0.164976 -0.352320 -0.164356 0.851594 -1.656802 0.443210 -1.087097 0.129459 -1.001518 0.944421 0.549336 -0.079177 -1.109910 -0.087531 -0.180728 -1.301769 3.074874 -0.788409 0.840249 -0.615421 1.856931 2.440068 -0.825947 -0.187972 -0.310325 -0.053883 -1.666579 0.815954 -0.367540 0.973589 -0.551507 -0.976159 -1.101028 -2.189115 1.603490 0.233598 0.554687 0.851740 0.098797 0.081658 -1.674995 0.525908 0.658834 0.421424 0.937342 0.884282 -1.155955 0.797347 -0.860628 0.828406 -0.340347 -0.273747 -0.059666 0.588862 -0.431673 0.281029 0.659844 1.114039 -1.553091 0.316234 1.726560 0.298188 1.944450 1.766660 -1.353001 1.954701 0.755888 -0.914200 0.745095 0.502848 0.952039 -0.957886 -2.020102 -0.090661 0.086776 -0.441047 -0.075958 0.487533 -0.288939 0.156130 0.148777 1.257662 -0.439219 0.386824 -0.266145 -0.557307 -0.061090 -0.146462 -0.977095 1.179023 -0.400786 -1.009741 -0.895317
山东省 2.181650 -0.360505 0.588450 -0.314650 1.123941 1.460494 0.082713 0.697850 -0.484876 -0.450375 1.204980 0.591091 -2.071232 -1.495556 0.171718 -1.318512 1.410163 0.333413 -1.471698 2.814033 -0.337035 0.413371 0.359049 -2.673499 0.858203 -0.407265 0.510599 -0.405173 -1.595403 -1.914257 0.219594 -0.391653 -2.229328 0.140490 -2.076950 0.624862 0.872334 1.496592 0.747376 -0.326896 -0.402156 0.973344 2.034757 -0.875188 -0.617191 0.219935 -2.276415 1.358601 0.918056 0.988486 -1.869332 -0.410710 1.433643 -2.580379 -0.090598 -1.227792 -1.617733 -0.415986 0.516604 0.656321 -1.693593 0.297912 1.521754 1.127345 -0.258240 0.350507 -0.837449 -0.484150 -0.930563 -0.506388 0.973631 3.327553 1.319640 -0.481126 1.098229 -0.489978 1.762445 1.381674 1.033234 0.156687 0.718230 -1.842239 -0.790796 -0.559118 0.671708 -1.181049 -1.821733 -1.230702 -0.633188 1.071492 -1.463554 -1.548724 0.498232 0.534227 -1.641241 0.910091 -0.837663 0.060786 2.713082 0.523412
广东省 2.105844 -1.489267 0.704082 0.567555 2.274191 -0.053574 -0.386559 1.489264 1.372671 0.029420 1.443908 2.664814 0.725285 -0.792751 -1.029387 1.148026 1.210098 -2.277595 1.651313 0.190853 -0.481212 1.349702 -0.998272 -2.154420 1.235959 -0.157910 0.768379 0.909338 0.028158 -0.701716 0.257628 0.172054 -0.409519 -0.326139 -0.827495 0.747984 -1.699952 0.055596 -1.008661 1.022472 0.591646 -0.163757 -0.021971 2.263096 0.400737 0.565234 0.275842 1.609456 0.323303 -0.523781 -1.809624 -1.234854 -1.482720 0.698905 -0.681906 -0.143072 1.380862 -2.687868 -0.562317 -0.953166 0.398118 0.459408 1.149180 -0.457541 -1.123529 0.470468 -1.185065 -0.560002 0.150506 -2.193193 0.633481 0.643962 -1.295983 2.096112 0.000622 0.005730 -0.574909 -2.222546 -0.804156 2.035046 0.490875 0.906341 -1.368789 -0.578626 0.221535 0.355796 0.901999 1.744812 2.028687 1.495848 1.534365 0.176661 1.131362 -0.179543 -0.904911 0.499058 -0.099070 -0.346710 1.738074 -1.097836
工程 -0.255826 0.196569 -2.141652 -0.719777 0.009060 0.017794 -0.245440 0.617901 -0.955928 0.687839 1.531498 -0.785139 0.657197 -1.274269 0.760227 -1.995168 -0.730861 0.779830 0.054380 0.887329 -0.856607 -0.467807 -1.067619 -0.016532 -0.764170 -1.278954 -0.385653 0.639470 -2.002757 -0.392471 -0.186063 -1.559471 -0.441665 0.420617 -1.673078 0.798058 -0.851661 1.589852 0.722638 -0.001248 1.371927 -1.416203 1.975272 0.039388 0.911230 -0.792845 -0.634215 -0.816338 -0.225174 1.244672 -1.252169 1.933003 -0.846254 -0.177130 0.745586 -0.278124 1.783846 0.448743 -0.595417 0.797452 0.274702 2.070346 0.798052 -1.856507 -0.257483 1.622708 -0.476595 0.011128 -1.016329 0.051996 -0.421704 0.540288 -1.449371 0.464496 -0.184657 -0.618800 -0.078397 -0.079079 0.784842 -0.959819 -0.574658 0.187708 0.124559 1.234541 0.958071 0.166810 -1.031267 -0.152507 0.644727 0.791186 -1.107701 0.266279 -0.035447 1.247040 -0.500533 0.173101 -1.214436 -0.560155 -0.597940 -0.804714
江苏省 2.436017 -1.614668 1.624837 -1.828180 0.045226 1.298694 -0.483397 2.698876 0.505110 1.813082 -2.422800 1.802774 0.845347 -0.684896 1.020322 0.886979 -0.729353 -1.573076 -0.620460 -0.329733 -0.901963 -0.767211 -0.761242 -2.110289 0.652482 -1.148687 1.455059 0.865040 0.168919 -1.097754 -1.563161 -0.400040 0.200236 0.085201 0.796173 -0.196472 -0.780109 0.585473 0.936663 -0.285354 2.415513 0.239507 -1.170064 0.930227 -1.217003 0.661258 -0.281412 -1.087178 1.063182 0.227348 -0.381177 -0.767223 -0.859783 -0.235275 -0.377954 0.333461 0.931681 0.347299 -1.093338 -0.451743 -0.600593 0.369304 -0.548294 0.834016 0.451551 0.175280 1.294276 -0.533584 -2.049624 0.584962 0.270413 -0.068917 -0.035785 2.238723 -1.152984 -0.232975 -1.160061 2.057639 0.436083 3.325897 0.391964 -0.738094 0.194425 1.340847 1.822786 0.650725 0.372112 -2.400026 0.148845 0.888706 0.861702 1.727237 -0.173950 0.040374 -1.504586 0.903354 -0.271798 -0.343337 -0.074991 0.911600
管理 0.614691 -0.290173 -0.086612 -0.716187 0.348466 0.358217 -0.439178 0.899576 -1.659026 -0.519484 0.564848 0.775275 -0.296510 -2.364477 0.934024 0.764488 -0.157588 0.463823 0.112598 -0.011857 0.006970 0.397728 -0.541905 -1.662489 -0.598593 0.732694 -0.381404 -0.685055 -0.722087 -0.461766 0.508086 0.164152 0.746048 1.138340 0.317112 1.611551 -1.279804 -0.385881 -1.154979 0.817809 -1.435415 0.992009 0.270395 2.322235 0.744077 -0.290753 0.267935 0.341939 1.324242 -0.381788 0.405951 0.632778 0.292244 -1.482921 1.621409 0.126728 -0.383856 0.844494 -0.152856 1.469148 0.517131 1.924100 -0.063881 2.237015 -0.070545 0.998400 -0.335106 1.884635 -0.443338 -1.024946 1.286108 0.625202 -0.812641 1.124371 0.943863 1.341357 0.637112 0.171217 1.025982 -0.754707 0.371607 -2.231521 -1.590177 -1.743658 0.829081 0.367087 0.050096 -0.017063 0.841419 0.724250 -1.304752 -0.629840 0.417368 0.056745 -0.182254 2.243606 -0.799807 0.212211 -0.349956 1.652969
独立 0.573720 -0.953400 2.084573 -0.481589 -1.209010 -1.384507 0.906566 1.028168 0.259638 -0.773901 0.480474 -0.189697 -0.550097 -1.050197 0.769702 1.185046 0.191281 -0.898614 -2.177948 -0.372502 -0.055048 0.247023 -1.076668 -0.727116 -1.455193 0.661116 0.070274 0.378809 0.140382 0.109547 0.349850 -0.418939 -0.097567 -1.927970 0.711965 -2.580377 1.454269 -0.757386 -1.045334 -1.030260 1.100832 -0.413702 -0.482757 -0.191892 -1.709314 -1.289082 0.259742 -1.020310 0.065081 -0.837506 -0.142512 1.492054 -0.494661 -0.934177 0.191568 -0.356214 -0.016416 -1.637253 0.359731 -0.363889 -1.016331 -0.131912 -2.310039 1.513817 -1.561960 -0.748914 -0.102376 1.431275 1.071495 -0.974576 1.891554 1.180216 -0.229580 0.813540 -0.124835 -0.239289 -1.191056 -1.074294 0.155519 2.521659 -1.570387 -1.607598 -0.584073 0.381479 0.806717 -0.683451 1.114557 -0.661030 -1.394947 0.331719 -1.489787 -0.244923 -0.024038 1.657479 0.696964 -0.202543 1.057627 -0.642572 -0.535171 2.206810
工业 1.529252 -2.783300 0.166580 -1.365399 0.452882 -0.582919 0.505426 0.338406 -0.796304 1.984854 0.293919 -0.691280 -1.131576 0.194936 0.985020 0.587271 0.137192 0.442435 -0.557846 0.773597 -0.437352 0.466773 -1.666156 -0.251408 0.269663 0.391736 -0.732524 -0.475210 0.575199 0.489192 -0.318008 -0.320746 0.811502 0.261533 1.083835 -0.590722 -0.859612 0.700224 0.955475 -0.456545 -0.653201 -0.327942 -0.259589 0.108744 0.611779 0.468483 -0.037400 -1.094257 -0.894604 0.299916 -0.873277 1.464322 -2.346802 -0.829585 -0.112979 -1.164546 0.921213 2.368528 -1.666708 0.098522 -0.688575 0.264685 -0.742547 -1.594801 0.790629 0.166990 0.590150 -0.016936 1.167323 0.892522 1.483149 -0.467214 0.794036 1.249239 -0.255428 1.521763 0.371122 -0.043655 2.451962 0.491532 1.566689 0.311430 -0.671547 -0.049302 -1.081586 0.018779 -0.679410 -1.468125 0.279734 -0.137347 -0.724880 0.723462 0.608738 0.695459 -1.457940 0.426076 -0.897813 0.389901 -0.544881 -0.325274
创建 0.383125 -0.495580 -0.111851 0.914537 0.700267 -0.682584 0.164601 0.907053 -0.762576 1.032427 -0.341381 -0.264089 0.128699 0.042108 0.358337 -0.310859 1.015508 -0.017132 -0.979060 0.590133 -0.581396 0.898410 -0.611351 -2.086819 1.650996 -0.485491 -0.187746 -0.659469 1.034114 -1.047984 -0.792396 -0.942084 0.118076 -0.319910 -1.876870 0.014682 -1.050488 0.395814 -1.430116 -0.076278 -0.568772 0.366235 -0.103621 -0.109077 -0.207331 -0.362114 -0.819390 -1.127235 0.258042 0.371224 -1.039802 -0.328405 -0.667570 -0.446895 0.417317 0.268653 -0.134261 0.130615 0.173092 -0.318015 0.087007 1.214614 -0.013173 -0.866071 0.205085 1.640433 -0.231015 -0.890918 0.169111 0.582735 0.607000 1.386803 2.170679 0.439361 0.856493 0.241764 -0.337422 -0.854994 0.647741 1.358858 0.640432 1.117036 -1.362757 1.618751 -0.038965 0.167412 0.003276 1.179745 -0.806590 -0.737000 -0.813988 1.043702 -0.551508 0.292626 -1.064857 0.523067 -1.453171 0.334632 1.378810 0.121301
位于 -2.926148 0.876171 0.555662 0.522359 -0.107955 -1.036883 -0.767158 0.197266 0.225850 -0.745820 -0.038949 0.394265 -0.321903 -0.167404 0.804953 1.597412 -1.860940 0.003835 1.123395 0.037650 0.129377 0.118683 0.509311 -1.502143 -0.203611 0.574961 0.059508 -1.101645 -1.166995 0.731250 0.437398 -0.636787 -0.907120 0.654161 -0.292610 -1.067667 1.118703 0.307855 0.378010 -0.506372 1.542167 0.400455 -1.189610 -0.537805 -1.340170 0.763701 -0.704998 1.909401 -0.608995 0.400562 -0.218853 0.742880 0.599249 -0.320658 -1.006254 0.938729 0.288993 0.781392 0.554479 -0.052418 -0.144526 0.473813 -1.052030 -0.501109 -2.120980 -0.214830 0.548810 -1.100189 -0.702950 -0.498548 -1.106889 0.014473 -0.841505 -0.795980 -0.440862 -0.779971 0.308311 -0.196408 0.068617 0.080094 0.773628 1.333146 0.947738 -0.682893 -0.850192 -0.429125 -0.142232 0.095411 -1.046722 0.850233 0.238031 -0.123511 0.952035 -0.615742 0.912772 -0.116849 -0.571221 2.899779 1.099309 0.383891
人 -0.147060 0.815142 0.688624 0.341238 -0.266471 -1.660397 -0.740108 -0.421360 -0.457474 -0.352275 0.077172 -0.989044 -0.125557 -0.802086 -0.367553 -0.290993 0.813128 -0.667774 -0.465406 -0.764659 0.761991 0.436736 1.298063 1.698859 -0.398928 -0.524130 0.237617 -0.316544 -0.375865 -0.040869 0.614759 0.492881 -0.548433 0.056718 -0.875212 0.100800 0.405129 1.929588 1.207992 1.100686 -0.062498 1.336428 -1.291743 0.957480 0.073892 0.089477 0.743260 0.498958 0.828965 0.210191 0.472618 0.445223 0.838461 0.633302 -0.062799 -0.450016 1.790659 -1.129665 0.674158 0.620257 0.269323 0.569289 -1.188551 3.255017 -2.101500 -0.094518 -0.318235 1.918620 -0.458550 1.806189 -0.727329 1.419384 -1.127618 -0.793081 -0.116728 1.662231 1.567788 0.486440 -1.744333 -2.470101 -0.187228 -0.341842 -0.264752 0.489832 0.128957 1.620696 0.717216 -2.243357 1.171449 -0.502950 2.247816 -0.141001 0.028913 0.065015 0.372468 -0.059732 -1.307997 0.810464 0.960213 -0.123616
重点 0.901915 0.451367 -1.388960 -0.232327 -0.225303 0.419403 0.134947 0.882119 -0.140467 -0.014535 1.811178 0.318202 0.841424 -1.261967 1.837670 -1.244601 -0.473765 0.183490 -1.076201 2.699746 -0.545717 -0.481161 0.398205 0.494320 0.583370 -1.356035 0.487917 2.121786 -0.847108 0.181896 0.742987 -1.353804 0.408627 0.593203 -1.899947 0.118000 0.280589 0.969321 -0.303082 0.273858 1.206786 -1.087193 0.932395 0.450204 1.383278 0.446954 -0.391413 -0.892335 -0.445572 0.412091 -0.574335 0.969929 -1.123202 -0.352514 -0.015449 0.817943 1.129184 0.407792 -0.811354 0.739566 -1.564404 2.142861 -1.188324 -1.613347 -0.453009 0.619241 -0.010716 -0.124815 -0.173825 1.247809 -0.403445 2.163845 -0.441310 2.265760 0.270686 -0.955189 -0.144945 -0.887301 -0.904877 -0.051887 0.602566 1.713491 -1.568862 2.624173 1.656554 -0.257536 -1.526336 -1.010234 -1.006225 1.636141 -1.402575 -0.652407 0.663465 -0.554926 -1.115880 -0.372205 -1.293773 0.071565 0.652837 -0.721943
湖南省 0.382408 -4.001798 0.688099 0.513261 0.314634 0.399026 0.670386 2.755236 1.322845 2.056287 -0.947339 1.136588 -0.365770 0.899413 0.754410 1.157827 -0.506381 -3.067725 1.640040 -1.163280 -1.389801 1.453669 0.359093 -1.230734 -1.486710 0.984524 0.489805 1.265980 0.365514 -1.249574 -2.078041 0.082532 -1.169306 -0.807350 -2.717514 -0.819186 -1.475720 0.178728 1.909487 1.545888 0.326525 0.205576 0.588314 0.831024 0.346922 0.364365 -1.767286 1.771800 -0.678088 -0.454932 -1.392563 1.029871 0.238045 -0.443662 0.528254 -1.888866 1.320656 0.145300 -1.046962 -2.518035 0.425272 0.749157 1.742713 0.528338 0.006885 1.959619 0.193992 2.043587 -0.791956 0.122301 -0.377121 0.232194 -0.571828 0.852290 2.209779 -0.922133 -0.572220 -0.334418 1.013339 -3.322984 0.374714 -2.157021 -0.516585 -0.610372 0.131639 1.451184 0.479942 -1.569575 -1.170125 0.111629 -0.450645 1.485725 -0.797818 1.668024 -1.621505 1.259808 -1.242319 0.677355 -0.675125 -0.833246
安徽省 0.380799 -2.600370 1.835391 0.245987 3.037276 -0.199041 -1.023216 0.909486 -0.801041 0.824768 -1.300959 -0.010887 -1.617707 -0.829598 -0.052224 2.583821 -2.144258 -0.680635 0.800600 -1.440688 -2.194587 -1.549598 -1.211893 -2.026433 0.005867 0.666259 0.260408 1.993814 -0.565179 -1.195694 0.548550 -1.291400 -1.737163 2.834836 -1.528559 1.798601 1.361504 1.152289 1.588954 0.256712 0.513068 -1.681427 -0.185552 0.657028 0.040677 -0.032426 -0.859664 -1.749283 -0.555369 -0.382039 -1.078006 -2.926899 -0.658965 -1.607358 1.198750 -0.397174 -0.210663 0.684150 -1.966156 0.213131 -0.668755 -1.282144 1.887493 -0.722228 -0.121534 -1.467315 -2.427244 0.219136 -0.764023 1.368952 -1.943466 1.530964 0.558594 -0.481603 0.537881 -0.000190 0.455351 -1.178108 -1.125966 1.358105 0.039238 -1.232371 0.077354 -0.969373 1.191423 -1.352878 1.996682 0.279690 0.945794 -0.020286 -1.454984 -0.186725 0.967286 0.797176 -2.319027 1.114197 -0.311970 0.041528 -0.267063 -0.121728
亩 -1.692934 0.352159 1.125378 -0.650757 -0.096629 -2.459572 -1.081290 0.606900 -0.775097 -0.336341 1.273581 -1.338660 -0.870781 -0.971010 -0.311835 1.623029 -0.643364 -0.116261 1.868194 -0.592587 1.472400 -0.352656 1.601066 -0.632155 -1.449870 0.470165 -1.302364 -1.848679 -0.964725 0.156200 0.222504 0.132733 -0.854527 2.141041 -0.498744 -0.418831 0.890142 -1.441742 1.107602 -1.995804 4.122621 1.285934 -1.330418 -0.609977 -1.296003 1.287702 -0.229091 2.107292 0.604454 -1.048896 0.044617 0.280610 0.708566 0.553560 0.016298 -0.811316 2.799123 0.408706 -0.107049 0.628086 0.224006 -1.258418 -0.488973 0.289479 -2.697349 -0.715684 0.419332 -1.343220 -0.167260 0.047902 -0.556124 -1.206228 -1.116910 0.286369 -1.163877 0.841406 1.725271 0.790811 -0.681831 -1.626318 1.270473 0.817172 1.417059 -1.226911 -0.434434 -0.764135 -0.417334 -1.833971 -1.120951 0.995229 1.524063 -0.551122 0.026977 -1.565991 0.920757 -1.538832 -0.891920 0.656047 -0.031458 -0.304506
交通 -0.411282 -0.498744 -0.907993 -0.210986 -0.556441 0.531239 -0.099748 -0.493994 -0.729132 -0.355929 -1.728566 -0.533931 -0.324389 -1.851766 1.691417 1.128735 -1.572693 1.759952 0.779055 0.647019 0.362896 -0.717719 -0.905897 -1.032055 0.470109 0.771366 -1.789695 -0.559931 -0.759026 -0.840124 0.386859 -2.348466 0.923577 -0.492521 0.111361 -1.323134 1.045737 -0.971386 -1.338885 -0.866850 -0.444967 1.003477 -0.283556 -2.060493 0.276421 0.045053 2.256810 -1.568565 -3.009836 2.176698 0.361918 0.466114 -0.746565 -0.772381 -0.153744 0.238360 -0.421297 0.424135 1.446058 0.599273 0.305960 1.697680 0.529283 0.495235 -1.312738 -0.265927 -0.465289 -0.372796 -1.758073 -1.764107 -0.783585 0.086533 0.939441 1.584790 -2.084870 -0.621350 -0.111223 0.184542 2.316563 0.019224 0.920891 0.786199 -0.440862 -0.338459 -1.006323 0.342087 0.486975 -0.011529 -0.095054 1.247993 -0.873453 -0.687582 -1.005819 -0.649900 -0.243417 0.572839 0.341450 -0.639744 -0.682355 1.411248
举办 0.973240 -2.481226 0.273019 0.293182 1.248897 -0.799512 0.057169 1.404655 -0.884387 -0.509174 0.027698 1.235078 -0.782730 -0.860664 0.316139 0.924584 1.250364 -1.188233 -0.076163 1.235467 -0.800640 -0.444154 -1.155442 -1.439456 -0.599407 1.375272 0.359233 -0.642056 0.763605 1.067094 0.188684 0.343239 -1.702000 -0.169252 0.182879 -1.384177 0.116834 0.688131 0.395015 -1.330784 -0.475233 -0.062704 -0.552313 0.866853 0.158993 -0.033679 0.239711 0.428671 1.411789 -0.553589 0.363008 0.396662 -0.446713 -1.129595 -1.182361 1.186084 -0.620752 -0.427345 0.221909 -0.943908 -1.826289 0.019599 -0.640196 -0.160295 -1.297089 0.945536 -1.674691 0.135284 0.741469 -0.538623 0.675221 0.336598 -0.998817 0.932125 0.823460 1.069183 -0.577193 -1.981488 -0.415219 1.764718 -1.095788 0.078259 -0.620956 -0.344822 0.108336 0.849513 0.259556 -0.638344 -2.184519 -0.066064 -0.571867 0.018821 0.102867 1.549236 -0.756187 1.196303 0.256927 0.866581 -1.104065 1.218410
四川省 0.840327 -0.842597 -1.085215 -2.512263 0.104430 1.020062 1.022540 -0.600064 1.407197 1.470920 -0.107498 1.921343 -1.624590 -0.638420 0.386727 -0.970190 0.255959 -0.984939 1.725301 2.469269 -1.842018 1.030604 1.248482 -1.773466 -0.498917 1.115711 -0.289938 -1.777750 0.780573 2.043588 -0.418880 0.095693 -0.097819 -0.124705 0.065087 -0.796529 -0.231108 -0.574026 1.829053 1.856116 -1.827383 -1.366583 -1.607195 -0.087088 -0.410750 1.322931 -2.048839 -0.462936 -0.233640 0.576711 0.004680 -1.274691 0.888894 0.011863 -1.650441 2.210302 0.492827 1.436261 -1.260137 -1.793967 -1.671581 1.722227 -0.094628 0.032472 -1.083791 1.419061 -2.215388 0.396683 1.664914 0.046969 0.687652 0.979849 0.000418 -1.678930 1.032910 -0.011616 -0.940827 -1.088575 -0.597756 1.600601 0.898282 -0.094245 1.431351 -0.325326 1.585560 0.488786 1.600091 -0.407043 -1.831541 1.143344 0.302410 -1.401301 0.200269 1.491453 -1.122135 -1.646935 0.189061 0.494489 1.086436 -0.193397
校园 -1.143496 -0.450376 -0.249299 -0.091164 0.509642 0.389196 0.527502 0.470833 -0.801907 -0.261857 -0.241094 -0.068928 -0.066131 -0.539252 0.453495 1.157386 -0.999251 1.033603 2.218870 -0.382131 0.976752 1.085828 -0.440466 0.538834 -0.622289 0.416881 -1.232211 0.919780 -0.624356 0.155395 0.235439 -1.233636 -0.288094 1.749788 -0.569820 -2.106242 0.397188 -2.253298 1.356602 0.900142 1.178626 0.697466 -0.706530 -0.112215 -2.036776 -0.600084 -0.458179 1.513746 0.832275 -0.900960 -0.792292 0.385457 1.025766 0.447593 -1.976580 0.198503 2.507599 -0.079187 0.342704 0.765095 -1.320316 -0.746757 0.548899 -0.766572 -1.882219 -0.730890 0.828251 -0.385309 -1.455235 -0.621130 -0.876744 -1.732633 -1.410143 0.624878 -1.120974 -0.659959 0.492909 -0.155623 -0.962713 -1.599379 1.165763 0.160843 0.337350 -0.114258 -0.608833 -0.590892 -1.006649 -1.368330 -0.425720 1.952795 1.321706 -0.413428 0.895040 -0.598608 1.324222 -1.589100 0.476838 1.571164 -0.182607 -0.405085
基地 0.158381 -1.124869 -0.607775 -0.588811 0.735504 0.008823 -0.593460 0.747466 1.285779 -1.807505 -0.611690 2.118489 1.492575 0.232608 -0.215056 -0.519659 -0.922411 0.472712 0.325603 1.156250 -0.128015 0.521701 1.652155 1.640697 -0.967736 0.502160 0.741716 1.401701 -0.831857 -0.552844 -1.261597 -1.576767 -1.370674 0.363900 0.077032 2.281813 1.426636 0.328163 0.775387 0.925744 -1.006454 -0.954011 -0.521681 0.434650 0.254834 -1.025842 -0.232389 -0.140137 -1.064729 -0.357784 -0.795195 1.138805 0.833223 -0.455715 -0.706556 -0.282372 -0.180408 0.622684 -1.766335 2.645340 -1.716410 1.421101 1.320082 -0.253759 1.257191 0.848824 1.547149 1.494819 -0.510387 0.995107 -0.127396 -0.372441 1.032559 -0.511799 -0.720787 0.494185 -0.616744 0.500368 -0.833121 -0.928493 1.862656 1.476161 -1.760093 -0.354118 -0.785175 -2.954295 -3.175561 -0.770553 1.620443 0.689990 0.795220 -1.776179 0.739513 1.744395 -1.397912 -1.015067 -1.520033 2.013767 -0.198452 -1.202130
湖北省 -0.653791 -2.239063 0.037487 -1.450902 -1.949952 1.012863 1.416497 -0.516652 0.723818 0.142789 -0.608201 1.599511 0.272888 -0.461111 1.469065 1.100243 -1.759351 -1.072463 -0.223525 -1.001021 0.306685 1.814375 -1.718391 -3.896644 -1.286662 -0.472375 0.601711 0.288842 -1.025575 1.077851 -0.469079 -1.760951 -1.856554 0.156232 -0.159178 -0.699297 0.490136 -0.111059 -1.205599 -0.346176 1.270597 -2.078167 -1.616848 0.221907 0.638446 -2.275552 -1.357093 0.403040 0.035511 0.772400 -2.070157 0.796801 -1.188868 -0.110518 0.629620 -0.338131 1.242678 0.011165 -1.467499 0.628347 0.730358 0.684602 0.635100 2.126118 0.752517 0.527342 -1.298473 1.212666 -0.745942 -2.648063 -0.046862 1.915519 -0.693486 -1.696958 0.571607 -0.779587 -0.994375 -0.168423 -0.363494 -1.373308 -1.668056 -2.721023 -1.448431 1.499776 1.483770 0.175815 2.216079 2.106672 -0.300939 1.006307 0.513854 -1.109351 0.150262 1.563249 -0.289280 1.026028 -2.190885 -0.542699 0.873277 1.300583
平方米 -1.358527 -0.404309 0.225363 -0.521072 -0.550305 -2.009098 -0.802982 0.049483 -0.693437 0.394111 1.615832 -2.464034 -0.795067 -0.332649 0.075529 1.960474 -0.736868 -0.537303 1.686152 0.040714 1.325137 0.514549 1.254388 0.085456 -1.081142 0.327223 -1.065364 -1.291788 -1.705982 -0.142492 0.641925 -0.404709 -1.545938 1.613318 -0.670726 -0.710342 1.075280 -2.295675 1.419472 -1.704639 3.219579 2.027873 -0.223239 -0.370287 -0.255726 0.508323 -0.439493 1.582424 0.968313 -0.841575 -0.084983 -0.074367 1.015859 0.933833 -1.491695 -1.046815 3.207575 -0.138379 0.122606 1.123204 1.227176 -0.999725 0.529083 1.551695 -1.863155 -0.518856 0.245115 -0.566142 -1.115531 -0.814829 0.084054 -0.803038 -1.668582 -0.256288 -1.767649 0.733238 0.767455 1.299597 -0.008729 -2.621969 0.988812 -0.260171 1.356299 -0.486679 -0.247408 -0.796273 -0.507201 -1.652928 -0.163488 1.174579 1.473809 -1.388158 0.819805 -1.047598 0.338451 -1.503523 -0.335269 1.473912 -0.057729 -0.059083
河北省 -0.486459 0.404447 1.280637 -0.484440 -0.477216 -0.899006 0.029977 0.831181 0.521805 1.514721 -0.766494 1.745181 -1.232665 -2.241496 1.159797 -0.337366 -0.461616 0.308459 0.868962 2.440723 0.804321 0.653759 0.795264 -0.890215 -1.704701 -0.265503 -0.512253 0.882958 -0.932657 0.800161 2.136624 1.566728 -0.863445 -1.004323 1.639221 -1.354930 1.556310 1.954295 1.016567 0.458415 -0.599885 0.331213 0.202299 0.611559 1.121178 0.725336 0.042717 -1.513133 0.878942 0.307119 -2.496419 0.326712 -0.781115 0.596178 0.237036 0.099974 -0.352790 0.029632 -0.241512 0.620688 0.617596 1.807912 0.012969 -0.161015 -0.511614 -1.030066 0.162353 0.705757 -0.155240 -1.618767 -2.003598 0.818989 -0.289827 2.075057 -0.509705 -0.486878 -0.674748 -1.564657 0.533259 -0.716686 1.070157 -0.243522 -1.350493 0.668786 -0.549899 0.812539 1.186392 0.511451 -1.339773 1.596088 -1.479645 -0.626157 2.025867 2.132430 -0.098016 -0.297329 2.121518 -0.304230 1.502294 -2.486685
之 -1.666616 1.008215 -0.298010 0.296078 -0.671900 1.541280 0.971866 -0.847107 0.482852 1.658990 -0.206129 -0.356249 -1.300775 2.287641 -0.990867 0.849088 -2.150525 0.802561 -0.152864 0.065617 -1.374820 -1.357709 0.361291 1.049341 1.006810 0.387953 -0.865719 0.813062 1.199942 -1.094172 0.066097 -0.033127 -0.458051 -1.030003 0.421348 -0.618112 1.671977 1.333285 -0.564360 -0.384850 0.730695 0.201464 -0.234125 -1.054309 -2.870371 1.484346 -2.270825 0.369936 -0.423048 0.747206 -0.467057 0.270607 -1.468929 0.616935 -0.891309 0.467683 -1.535984 0.938566 -1.594187 0.727169 0.057402 -0.003822 -0.363318 -1.204804 -0.843698 -1.527638 1.491887 -1.510845 -2.570817 1.811341 0.408165 0.477525 0.335075 -1.348686 -0.499167 -2.056612 0.056236 1.234284 -0.268954 -0.172692 -0.736696 -0.155266 -0.374036 0.395265 0.407112 1.129775 1.249032 2.798142 1.932187 -1.242675 -0.263458 1.079881 -0.467170 -1.115313 0.399978 1.143801 0.111420 1.432367 1.228100 -0.046162
高等学校 -0.030693 -0.655496 0.546294 -0.432679 -0.138573 0.097160 0.016473 1.648875 0.328252 -0.937201 0.633850 1.305995 -0.135095 -0.493659 0.990261 0.868061 -0.205140 -1.030289 -0.150980 0.672079 0.253392 0.187176 -0.638435 -2.375884 -0.244043 0.212399 1.919978 -0.418279 -0.205196 -0.029435 0.810340 0.003347 -0.460306 -0.449518 -0.554129 -1.981314 -0.003757 0.890264 0.457994 0.085694 0.534102 -0.878052 -0.150026 -0.519845 -0.400620 0.100866 0.899975 0.320019 0.554997 -0.609116 -0.440763 -0.023539 0.011931 -0.256889 -0.050420 -0.267577 0.472476 -0.028984 -0.750612 -1.335836 -0.739213 0.936398 -1.698238 0.458538 -0.840644 0.580621 -1.353305 0.152135 0.972827 0.513105 1.146665 0.812307 -0.632715 0.115817 0.321781 0.452349 0.159854 -0.315513 -0.393916 2.291922 -0.766830 -0.133904 -0.757895 0.513666 -0.019101 0.029890 0.727783 0.123164 -1.012955 0.234569 -0.209802 -1.012972 -0.508941 0.911766 -0.295203 0.481922 -0.787932 0.616764 0.523190 0.669777
江西省 0.069591 -2.803451 -1.657751 -0.619160 1.086740 1.941122 -0.765373 2.189990 -0.328962 -0.053269 0.107114 -0.456080 -1.275345 0.053911 0.679057 1.769953 1.225594 0.026934 0.686422 0.051585 0.919961 -0.317431 0.978016 -1.520161 1.285733 -1.459815 -0.108346 -0.525598 0.153189 0.405497 0.207003 -0.800401 0.247379 1.212743 -2.122388 -0.069387 1.526146 -1.970026 -0.622801 1.373000 1.204479 -1.071679 -0.568457 1.262790 0.483569 0.227901 1.127808 0.260666 2.409607 -0.970309 -0.591379 -1.474506 -1.443444 -0.834966 1.248577 0.073074 -0.480202 1.439642 0.619833 1.515691 -0.619810 1.579788 0.749049 0.464233 0.602318 1.615106 -0.872624 0.868090 1.397828 0.181220 -0.218615 0.898609 0.143866 1.475179 0.033464 -1.107815 1.742942 -0.287911 0.106358 0.577035 0.383712 -0.906712 -0.016183 -0.368934 -1.426576 1.719288 -0.474554 0.433669 -0.554271 1.092884 -1.460790 0.656257 0.127445 2.897122 0.945862 0.276280 -1.988472 0.897159 2.050445 0.792926
原 0.613071 -0.737165 0.653158 -1.599333 -1.241610 -1.390172 -0.089694 1.029227 -1.980255 1.423024 1.260788 -0.073161 -0.561299 -1.585393 2.420828 0.872595 0.368610 -0.127899 -2.802215 0.485410 -0.184255 -0.673295 0.142331 -0.604332 -0.217215 1.171371 -0.662839 0.627482 0.121150 0.675242 0.182915 -0.249094 0.425513 0.040962 -0.389823 -0.124682 -1.023575 0.671776 -0.976817 -0.710907 -1.185644 0.411692 -0.523789 1.064684 1.686118 -0.878318 0.128108 0.760161 -0.336207 0.096287 -0.621805 -0.522303 0.362502 -0.435709 -0.839680 -0.622962 0.615450 0.812005 -0.612181 -0.248973 -0.686359 1.541385 -0.448268 -1.254336 -0.425181 2.159061 -1.576209 0.147035 0.038487 0.357298 0.040645 -0.075129 0.291901 -0.012040 1.332938 0.958975 -0.730927 0.459060 1.646705 0.565527 1.227966 -0.929112 -1.111542 0.964879 0.313078 0.853877 -0.204256 0.894694 -0.226957 -0.213655 -1.642184 0.478391 0.721376 -0.061523 0.057895 1.305405 -0.458402 -0.358907 -1.130809 -0.503559
首 0.686211 -0.924061 0.207495 -0.884105 -0.039930 0.219087 0.141790 0.658195 0.295135 1.242987 0.210512 0.807397 0.840770 0.290007 0.548374 -0.677355 -0.704556 -0.313143 -0.706514 0.646198 0.120900 -0.197794 1.527891 0.698118 -0.558687 -1.044473 0.030723 1.574524 -0.743405 0.167659 -0.803657 -1.639144 0.359429 -0.042726 -1.268385 -0.031845 1.041892 1.091927 -0.014737 1.893050 0.432333 -1.374176 0.107481 0.406633 -2.028632 -0.962821 -1.355088 -1.301327 -0.817411 -0.805764 -0.111226 0.551680 -1.388553 0.919154 -0.304299 0.565853 0.281106 -2.522224 -1.575028 0.993903 -1.447545 1.453894 -0.575584 -0.567254 -0.427881 0.838343 1.184957 1.104291 0.333620 0.519934 -0.001431 1.534980 0.267108 1.567200 0.449239 -1.067350 0.267160 -1.501258 -1.441731 1.341018 0.242922 0.936431 -1.288895 2.133817 1.831253 -0.279820 -1.400872 -1.056473 0.025440 0.859876 -0.525036 0.992537 0.988381 1.173440 -0.400588 -0.883603 -0.438487 0.387755 -0.182658 -0.007009
政府 0.291360 0.162575 -0.104824 -0.553537 1.672672 1.865436 0.030875 1.949595 -1.175437 -0.304134 1.346200 1.614742 -0.711912 -1.541884 -0.079664 1.663857 0.864252 -1.029540 0.633708 2.308528 -0.935942 -0.553036 -0.398968 -3.001961 -1.172854 -0.275571 0.499016 -0.052329 0.988051 0.100417 -0.060726 1.039085 -0.098049 0.214501 -0.082198 -1.003490 0.350178 0.270453 1.072301 -0.414407 -0.610494 0.000559 0.857950 1.501770 0.773616 1.247815 -1.568247 0.083207 2.142986 -0.560336 0.056902 0.132596 -1.460622 0.388681 -0.759296 0.276322 -0.950657 -0.142066 -1.697119 0.951524 -0.955970 1.308490 -0.714101 0.663674 0.380950 0.708570 -1.259438 2.384184 0.459469 -1.338365 0.052313 -0.037211 -1.359722 1.211957 1.274811 -0.848860 -0.079509 -0.850005 -0.612192 1.272709 -0.349961 -0.321418 -0.428796 0.010632 0.286714 0.634625 0.610540 -0.543659 -1.377646 0.365810 -1.263626 -0.148069 1.582754 0.191887 -0.092913 1.295735 0.880733 1.060169 0.033894 -0.744941
具有 0.062058 -0.225481 0.056747 1.291459 -0.545357 -0.111578 -0.438193 1.215358 0.765081 -1.607281 -0.068219 1.066473 0.293399 0.492596 -0.046568 -0.771875 0.185117 -1.130138 -0.064473 -0.236195 0.464224 -1.138641 -0.300806 -0.706120 1.386068 -0.670259 0.815551 1.017840 -0.852154 -1.392528 0.630892 -0.347464 0.570813 -2.352633 0.677946 -1.242065 1.818788 1.943836 1.033877 -0.404542 0.776328 -0.367288 -0.824324 -0.245647 -1.784561 -0.085043 0.128505 -0.446080 1.252306 -0.844462 -1.732656 0.487882 0.648112 -1.348923 0.589718 0.047697 -0.336908 -1.399434 0.843040 0.368991 -0.397507 0.298786 -0.979994 0.497444 -0.812543 0.189509 -0.352705 0.286904 -0.529997 1.787282 0.896919 1.480675 0.378823 1.598205 -0.865701 0.261073 0.449183 -0.329316 0.006355 -0.075176 -2.151618 1.090519 -0.663921 0.741279 0.183102 -0.544920 -0.590548 -0.757196 -1.710946 -0.027291 -1.053640 -1.833620 0.238143 1.261472 -0.029590 -0.451686 0.701733 0.272796 0.020932 0.578236
职业教育 1.096795 -1.049518 1.311343 -0.370251 0.427519 0.559516 0.264451 -0.651647 1.236430 -1.142324 -0.728493 1.092955 -1.173963 -0.137092 0.023528 0.053637 0.364081 -2.190903 1.051508 0.850619 0.878231 -0.180476 1.951223 1.225683 -0.670751 0.819089 -0.502825 0.762386 -0.439700 0.035388 -1.036396 -1.769984 0.724199 0.388113 -0.109250 -0.086097 2.219899 -0.751769 0.320102 0.382088 -1.251420 -0.690406 -0.213441 1.080623 -0.988938 -0.174710 0.139839 -0.111908 -0.721168 0.431251 0.232017 -0.303602 -1.549214 -1.241548 -0.093880 -0.449113 1.161269 -1.601554 -1.739847 1.762341 -1.846064 0.334295 2.880904 0.285601 0.486474 -0.891850 1.141621 1.192569 -0.541565 -0.068291 0.588788 -1.607321 2.072012 1.136598 -0.939535 2.287415 1.094644 -0.498841 -0.602600 0.406625 -0.403926 0.557425 -1.677993 -0.062227 -0.405974 -0.675153 -0.789298 0.146851 0.236558 0.985562 -0.990605 -1.583958 -0.217501 1.750285 -1.014789 0.206084 0.897855 0.509818 -0.865940 0.109070
